{
    "chromosome_0": {
        "layer_0": {
            "neuron_0": {
                "bias": -0.3900662064552307,
                "weights": [
                    0.5947151780128479,
                    0.5054780840873718,
                    1.941964030265808
                ]
            },
            "neuron_1": {
                "bias": -0.3138902485370636,
                "weights": [
                    0.474065363407135,
                    0.5054765343666077,
                    0.0777825117111206
                ]
            },
            "neuron_2": {
                "bias": -0.35554367303848267,
                "weights": [
                    0.007455706596374512,
                    0.015915393829345703,
                    0.13413798809051514
                ]
            },
            "neuron_3": {
                "bias": 0.2500106692314148,
                "weights": [
                    0.6704297065734863,
                    -0.573543131351471,
                    -0.33956417441368103
                ]
            }
        },
        "layer_1": {
            "neuron_0": {
                "bias": 0.5791711211204529,
                "weights": [
                    -0.22710958123207092,
                    -0.07474899291992188,
                    0.42574232816696167,
                    -0.2870112955570221
                ]
            },
            "neuron_1": {
                "bias": -0.5574663281440735,
                "weights": [
                    0.30581074953079224,
                    -0.44391584396362305,
                    0.5455885529518127,
                    0.6446699500083923
                ]
            },
            "neuron_2": {
                "bias": 0.239457368850708,
                "weights": [
                    0.5176457762718201,
                    0.5299509167671204,
                    0.5045717358589172,
                    -0.46928006410598755
                ]
            },
            "neuron_3": {
                "bias": 0.4298941493034363,
                "weights": [
                    1.1382076740264893,
                    0.25227516889572144,
                    0.13204443454742432,
                    -0.525977373123169
                ]
            }
        },
        "output": {
            "bias": 0.03304851055145264,
            "weights": [
                0.4882504343986511,
                -0.35387736558914185,
                -0.4647938311100006,
                -0.19536423683166504
            ]
        },
        "score": 96
    },
    "chromosome_1": {
        "layer_0": {
            "neuron_0": {
                "bias": -0.3900662064552307,
                "weights": [
                    0.5947151780128479,
                    0.5054780840873718,
                    1.941964030265808
                ]
            },
            "neuron_1": {
                "bias": -0.3138902485370636,
                "weights": [
                    0.474065363407135,
                    0.5054765343666077,
                    0.0777825117111206
                ]
            },
            "neuron_2": {
                "bias": -0.35554367303848267,
                "weights": [
                    0.007455706596374512,
                    0.015915393829345703,
                    0.13413798809051514
                ]
            },
            "neuron_3": {
                "bias": 0.2500106692314148,
                "weights": [
                    0.6704297065734863,
                    -0.573543131351471,
                    -0.33956417441368103
                ]
            }
        },
        "layer_1": {
            "neuron_0": {
                "bias": 0.5791711211204529,
                "weights": [
                    -0.22710958123207092,
                    -0.07474899291992188,
                    0.42574232816696167,
                    -0.2870112955570221
                ]
            },
            "neuron_1": {
                "bias": -0.5574663281440735,
                "weights": [
                    0.30581074953079224,
                    -0.44391584396362305,
                    0.5455885529518127,
                    0.6446699500083923
                ]
            },
            "neuron_2": {
                "bias": 0.239457368850708,
                "weights": [
                    0.5176457762718201,
                    0.5299509167671204,
                    0.5045717358589172,
                    -0.46928006410598755
                ]
            },
            "neuron_3": {
                "bias": 0.4298941493034363,
                "weights": [
                    1.1382076740264893,
                    0.25227516889572144,
                    0.13204443454742432,
                    -0.525977373123169
                ]
            }
        },
        "output": {
            "bias": 0.03304851055145264,
            "weights": [
                0.4882504343986511,
                -0.35387736558914185,
                -0.4647938311100006,
                -0.19536423683166504
            ]
        },
        "score": 96
    },
    "chromosome_10": {
        "layer_0": {
            "neuron_0": {
                "bias": -0.3900662064552307,
                "weights": [
                    0.5947151780128479,
                    0.5054780840873718,
                    1.941964030265808
                ]
            },
            "neuron_1": {
                "bias": -0.3138902485370636,
                "weights": [
                    0.474065363407135,
                    0.5054765343666077,
                    0.0777825117111206
                ]
            },
            "neuron_2": {
                "bias": -0.35554367303848267,
                "weights": [
                    0.007455706596374512,
                    0.015915393829345703,
                    0.026270925998687744
                ]
            },
            "neuron_3": {
                "bias": 0.2500106692314148,
                "weights": [
                    0.6704297065734863,
                    -0.573543131351471,
                    -0.33956417441368103
                ]
            }
        },
        "layer_1": {
            "neuron_0": {
                "bias": 0.5791711211204529,
                "weights": [
                    -0.22710958123207092,
                    -0.07474899291992188,
                    0.42574232816696167,
                    -0.2870112955570221
                ]
            },
            "neuron_1": {
                "bias": -0.5574663281440735,
                "weights": [
                    0.30581074953079224,
                    -0.534522533416748,
                    0.5455885529518127,
                    1.3122649192810059
                ]
            },
            "neuron_2": {
                "bias": 0.239457368850708,
                "weights": [
                    0.5176457762718201,
                    0.5299509167671204,
                    0.5045717358589172,
                    -0.46928006410598755
                ]
            },
            "neuron_3": {
                "bias": 0.4298941493034363,
                "weights": [
                    1.1382076740264893,
                    0.5164366364479065,
                    0.13204443454742432,
                    -0.525977373123169
                ]
            }
        },
        "output": {
            "bias": 0.03304851055145264,
            "weights": [
                0.4882504343986511,
                -0.35387736558914185,
                -0.4647938311100006,
                -0.19536423683166504
            ]
        },
        "score": 1
    },
    "chromosome_11": {
        "layer_0": {
            "neuron_0": {
                "bias": -0.3900662064552307,
                "weights": [
                    0.5947151780128479,
                    0.5054780840873718,
                    1.941964030265808
                ]
            },
            "neuron_1": {
                "bias": -0.3138902485370636,
                "weights": [
                    0.474065363407135,
                    0.5054765343666077,
                    0.0777825117111206
                ]
            },
            "neuron_2": {
                "bias": -0.35554367303848267,
                "weights": [
                    0.007455706596374512,
                    0.015915393829345703,
                    0.026270925998687744
                ]
            },
            "neuron_3": {
                "bias": 0.2500106692314148,
                "weights": [
                    0.6704297065734863,
                    -0.573543131351471,
                    -0.33956417441368103
                ]
            }
        },
        "layer_1": {
            "neuron_0": {
                "bias": 0.5791711211204529,
                "weights": [
                    -0.22710958123207092,
                    -0.07474899291992188,
                    0.42574232816696167,
                    -0.2870112955570221
                ]
            },
            "neuron_1": {
                "bias": -0.5574663281440735,
                "weights": [
                    0.30581074953079224,
                    -0.534522533416748,
                    0.5455885529518127,
                    1.3122649192810059
                ]
            },
            "neuron_2": {
                "bias": 0.239457368850708,
                "weights": [
                    0.5176457762718201,
                    0.5299509167671204,
                    0.5045717358589172,
                    -0.46928006410598755
                ]
            },
            "neuron_3": {
                "bias": 0.4298941493034363,
                "weights": [
                    1.1382076740264893,
                    0.5164366364479065,
                    0.13204443454742432,
                    -0.525977373123169
                ]
            }
        },
        "output": {
            "bias": 0.03304851055145264,
            "weights": [
                0.4882504343986511,
                -0.35387736558914185,
                -0.4647938311100006,
                -0.19536423683166504
            ]
        },
        "score": 1
    },
    "chromosome_12": {
        "layer_0": {
            "neuron_0": {
                "bias": -0.3900662064552307,
                "weights": [
                    0.5947151780128479,
                    0.5054780840873718,
                    1.941964030265808
                ]
            },
            "neuron_1": {
                "bias": -0.3138902485370636,
                "weights": [
                    0.474065363407135,
                    0.5054765343666077,
                    0.0777825117111206
                ]
            },
            "neuron_2": {
                "bias": -0.35554367303848267,
                "weights": [
                    0.007455706596374512,
                    0.015915393829345703,
                    0.026270925998687744
                ]
            },
            "neuron_3": {
                "bias": 0.2500106692314148,
                "weights": [
                    0.6704297065734863,
                    -0.573543131351471,
                    -0.33956417441368103
                ]
            }
        },
        "layer_1": {
            "neuron_0": {
                "bias": 0.5791711211204529,
                "weights": [
                    -0.22710958123207092,
                    -0.07474899291992188,
                    0.42574232816696167,
                    -0.2870112955570221
                ]
            },
            "neuron_1": {
                "bias": -0.5574663281440735,
                "weights": [
                    0.30581074953079224,
                    -0.534522533416748,
                    0.5455885529518127,
                    1.3122649192810059
                ]
            },
            "neuron_2": {
                "bias": 0.239457368850708,
                "weights": [
                    0.5176457762718201,
                    0.5299509167671204,
                    0.5045717358589172,
                    -0.46928006410598755
                ]
            },
            "neuron_3": {
                "bias": -0.1343943476676941,
                "weights": [
                    -0.13627910614013672,
                    0.5164366364479065,
                    0.07616996765136719,
                    -0.525977373123169
                ]
            }
        },
        "output": {
            "bias": 0.03304851055145264,
            "weights": [
                0.7268383502960205,
                -0.35387736558914185,
                -0.4647938311100006,
                -0.19536423683166504
            ]
        },
        "score": 0
    },
    "chromosome_13": {
        "layer_0": {
            "neuron_0": {
                "bias": -0.3900662064552307,
                "weights": [
                    0.5947151780128479,
                    0.5054780840873718,
                    1.941964030265808
                ]
            },
            "neuron_1": {
                "bias": -0.3138902485370636,
                "weights": [
                    0.474065363407135,
                    0.5054765343666077,
                    0.0777825117111206
                ]
            },
            "neuron_2": {
                "bias": -0.35554367303848267,
                "weights": [
                    0.007455706596374512,
                    0.015915393829345703,
                    0.026270925998687744
                ]
            },
            "neuron_3": {
                "bias": 0.2500106692314148,
                "weights": [
                    0.6704297065734863,
                    -0.573543131351471,
                    -0.33956417441368103
                ]
            }
        },
        "layer_1": {
            "neuron_0": {
                "bias": 0.5791711211204529,
                "weights": [
                    -0.22710958123207092,
                    -0.07474899291992188,
                    0.42574232816696167,
                    -0.2870112955570221
                ]
            },
            "neuron_1": {
                "bias": -0.5574663281440735,
                "weights": [
                    0.30581074953079224,
                    -0.534522533416748,
                    0.5455885529518127,
                    1.3122649192810059
                ]
            },
            "neuron_2": {
                "bias": 0.239457368850708,
                "weights": [
                    0.5176457762718201,
                    0.5299509167671204,
                    0.5045717358589172,
                    -0.46928006410598755
                ]
            },
            "neuron_3": {
                "bias": -0.1343943476676941,
                "weights": [
                    0.41993170976638794,
                    0.5164366364479065,
                    0.07616996765136719,
                    -0.525977373123169
                ]
            }
        },
        "output": {
            "bias": 0.03304851055145264,
            "weights": [
                0.4882504343986511,
                -0.35387736558914185,
                -0.4647938311100006,
                -0.19536423683166504
            ]
        },
        "score": 1
    },
    "chromosome_14": {
        "layer_0": {
            "neuron_0": {
                "bias": -0.3900662064552307,
                "weights": [
                    0.5947151780128479,
                    0.5054780840873718,
                    1.941964030265808
                ]
            },
            "neuron_1": {
                "bias": -0.3138902485370636,
                "weights": [
                    0.474065363407135,
                    0.5054765343666077,
                    0.0777825117111206
                ]
            },
            "neuron_2": {
                "bias": -0.35554367303848267,
                "weights": [
                    0.007455706596374512,
                    0.015915393829345703,
                    0.026270925998687744
                ]
            },
            "neuron_3": {
                "bias": 0.2500106692314148,
                "weights": [
                    0.6704297065734863,
                    -0.573543131351471,
                    -0.33956417441368103
                ]
            }
        },
        "layer_1": {
            "neuron_0": {
                "bias": 0.5791711211204529,
                "weights": [
                    -0.22710958123207092,
                    -0.07474899291992188,
                    0.42574232816696167,
                    -0.2870112955570221
                ]
            },
            "neuron_1": {
                "bias": -0.5574663281440735,
                "weights": [
                    0.30581074953079224,
                    -0.534522533416748,
                    0.5455885529518127,
                    1.3122649192810059
                ]
            },
            "neuron_2": {
                "bias": 0.239457368850708,
                "weights": [
                    0.5176457762718201,
                    0.5299509167671204,
                    0.5045717358589172,
                    -0.46928006410598755
                ]
            },
            "neuron_3": {
                "bias": -0.1343943476676941,
                "weights": [
                    0.41993170976638794,
                    0.5164366364479065,
                    0.07616996765136719,
                    -0.525977373123169
                ]
            }
        },
        "output": {
            "bias": 0.03304851055145264,
            "weights": [
                0.4882504343986511,
                -0.35387736558914185,
                -0.4647938311100006,
                -0.19536423683166504
            ]
        },
        "score": 1
    },
    "chromosome_15": {
        "layer_0": {
            "neuron_0": {
                "bias": -0.3900662064552307,
                "weights": [
                    0.5947151780128479,
                    0.5054780840873718,
                    1.941964030265808
                ]
            },
            "neuron_1": {
                "bias": -0.3138902485370636,
                "weights": [
                    0.474065363407135,
                    0.5054765343666077,
                    0.0777825117111206
                ]
            },
            "neuron_2": {
                "bias": -0.35554367303848267,
                "weights": [
                    0.007455706596374512,
                    0.015915393829345703,
                    0.026270925998687744
                ]
            },
            "neuron_3": {
                "bias": 0.2500106692314148,
                "weights": [
                    0.6704297065734863,
                    -0.573543131351471,
                    -0.33956417441368103
                ]
            }
        },
        "layer_1": {
            "neuron_0": {
                "bias": 0.5791711211204529,
                "weights": [
                    -0.22710958123207092,
                    -0.07474899291992188,
                    0.42574232816696167,
                    -0.2870112955570221
                ]
            },
            "neuron_1": {
                "bias": -0.5574663281440735,
                "weights": [
                    0.30581074953079224,
                    -0.534522533416748,
                    0.5455885529518127,
                    1.3122649192810059
                ]
            },
            "neuron_2": {
                "bias": 0.239457368850708,
                "weights": [
                    0.5176457762718201,
                    0.5299509167671204,
                    0.5045717358589172,
                    -0.46928006410598755
                ]
            },
            "neuron_3": {
                "bias": 0.4298941493034363,
                "weights": [
                    1.1382076740264893,
                    0.5164366364479065,
                    0.13204443454742432,
                    -0.525977373123169
                ]
            }
        },
        "output": {
            "bias": 0.03304851055145264,
            "weights": [
                0.4882504343986511,
                -0.35387736558914185,
                -0.4647938311100006,
                -0.19536423683166504
            ]
        },
        "score": 1
    },
    "chromosome_16": {
        "layer_0": {
            "neuron_0": {
                "bias": -0.3900662064552307,
                "weights": [
                    0.5947151780128479,
                    0.5054780840873718,
                    1.941964030265808
                ]
            },
            "neuron_1": {
                "bias": -0.3138902485370636,
                "weights": [
                    0.474065363407135,
                    0.5054765343666077,
                    0.0777825117111206
                ]
            },
            "neuron_2": {
                "bias": -0.35554367303848267,
                "weights": [
                    0.007455706596374512,
                    0.015915393829345703,
                    0.026270925998687744
                ]
            },
            "neuron_3": {
                "bias": 0.2500106692314148,
                "weights": [
                    0.4441926181316376,
                    -0.573543131351471,
                    -0.33956417441368103
                ]
            }
        },
        "layer_1": {
            "neuron_0": {
                "bias": 0.5791711211204529,
                "weights": [
                    -0.22710958123207092,
                    -0.07474899291992188,
                    0.42574232816696167,
                    -0.2870112955570221
                ]
            },
            "neuron_1": {
                "bias": -0.5574663281440735,
                "weights": [
                    0.30581074953079224,
                    -0.534522533416748,
                    0.5455885529518127,
                    1.3122649192810059
                ]
            },
            "neuron_2": {
                "bias": 0.239457368850708,
                "weights": [
                    0.5176457762718201,
                    0.5299509167671204,
                    0.5045717358589172,
                    -0.46928006410598755
                ]
            },
            "neuron_3": {
                "bias": 0.4298941493034363,
                "weights": [
                    1.1382076740264893,
                    0.5164366364479065,
                    0.13204443454742432,
                    -0.525977373123169
                ]
            }
        },
        "output": {
            "bias": 0.03304851055145264,
            "weights": [
                0.4882504343986511,
                -0.35387736558914185,
                -0.4647938311100006,
                -0.19536423683166504
            ]
        },
        "score": 1
    },
    "chromosome_17": {
        "layer_0": {
            "neuron_0": {
                "bias": -0.3900662064552307,
                "weights": [
                    0.5947151780128479,
                    0.5054780840873718,
                    1.941964030265808
                ]
            },
            "neuron_1": {
                "bias": -0.3138902485370636,
                "weights": [
                    0.474065363407135,
                    0.5054765343666077,
                    0.0777825117111206
                ]
            },
            "neuron_2": {
                "bias": -0.35554367303848267,
                "weights": [
                    0.007455706596374512,
                    0.015915393829345703,
                    0.026270925998687744
                ]
            },
            "neuron_3": {
                "bias": 0.2500106692314148,
                "weights": [
                    0.6704297065734863,
                    -0.573543131351471,
                    -0.33956417441368103
                ]
            }
        },
        "layer_1": {
            "neuron_0": {
                "bias": 0.5791711211204529,
                "weights": [
                    -0.22710958123207092,
                    -0.07474899291992188,
                    0.42574232816696167,
                    -0.2870112955570221
                ]
            },
            "neuron_1": {
                "bias": -0.5574663281440735,
                "weights": [
                    0.30581074953079224,
                    -0.534522533416748,
                    0.5455885529518127,
                    1.3122649192810059
                ]
            },
            "neuron_2": {
                "bias": 0.239457368850708,
                "weights": [
                    0.5176457762718201,
                    0.5299509167671204,
                    0.5045717358589172,
                    -0.46928006410598755
                ]
            },
            "neuron_3": {
                "bias": 0.4298941493034363,
                "weights": [
                    1.1382076740264893,
                    0.5164366364479065,
                    0.13204443454742432,
                    -0.525977373123169
                ]
            }
        },
        "output": {
            "bias": 0.03304851055145264,
            "weights": [
                0.4882504343986511,
                -0.35387736558914185,
                -0.4647938311100006,
                -0.19536423683166504
            ]
        },
        "score": 1
    },
    "chromosome_18": {
        "layer_0": {
            "neuron_0": {
                "bias": -0.3900662064552307,
                "weights": [
                    0.5947151780128479,
                    0.5054780840873718,
                    1.941964030265808
                ]
            },
            "neuron_1": {
                "bias": -0.3138902485370636,
                "weights": [
                    0.474065363407135,
                    0.5054765343666077,
                    0.0777825117111206
                ]
            },
            "neuron_2": {
                "bias": -0.35554367303848267,
                "weights": [
                    0.007455706596374512,
                    0.015915393829345703,
                    0.026270925998687744
                ]
            },
            "neuron_3": {
                "bias": 0.2500106692314148,
                "weights": [
                    0.6704297065734863,
                    -0.573543131351471,
                    -0.33956417441368103
                ]
            }
        },
        "layer_1": {
            "neuron_0": {
                "bias": 0.5791711211204529,
                "weights": [
                    -0.22710958123207092,
                    0.35360848903656006,
                    0.42574232816696167,
                    -0.2870112955570221
                ]
            },
            "neuron_1": {
                "bias": -0.5574663281440735,
                "weights": [
                    0.30581074953079224,
                    -0.534522533416748,
                    0.5455885529518127,
                    1.3122649192810059
                ]
            },
            "neuron_2": {
                "bias": 0.239457368850708,
                "weights": [
                    0.5176457762718201,
                    0.5299509167671204,
                    0.5045717358589172,
                    -0.46928006410598755
                ]
            },
            "neuron_3": {
                "bias": 0.4298941493034363,
                "weights": [
                    1.1382076740264893,
                    0.5164366364479065,
                    0.13204443454742432,
                    -0.525977373123169
                ]
            }
        },
        "output": {
            "bias": 0.03304851055145264,
            "weights": [
                0.4882504343986511,
                -0.35387736558914185,
                -0.4647938311100006,
                -0.19536423683166504
            ]
        },
        "score": 1
    },
    "chromosome_19": {
        "layer_0": {
            "neuron_0": {
                "bias": -0.3900662064552307,
                "weights": [
                    0.5947151780128479,
                    0.5054780840873718,
                    1.941964030265808
                ]
            },
            "neuron_1": {
                "bias": -0.3138902485370636,
                "weights": [
                    0.474065363407135,
                    0.5054765343666077,
                    0.0777825117111206
                ]
            },
            "neuron_2": {
                "bias": -0.35554367303848267,
                "weights": [
                    0.007455706596374512,
                    0.015915393829345703,
                    0.026270925998687744
                ]
            },
            "neuron_3": {
                "bias": 0.2500106692314148,
                "weights": [
                    0.6704297065734863,
                    -0.573543131351471,
                    -0.33956417441368103
                ]
            }
        },
        "layer_1": {
            "neuron_0": {
                "bias": 0.5791711211204529,
                "weights": [
                    -0.22710958123207092,
                    -0.07474899291992188,
                    0.42574232816696167,
                    -0.2870112955570221
                ]
            },
            "neuron_1": {
                "bias": -0.5574663281440735,
                "weights": [
                    0.30581074953079224,
                    -0.534522533416748,
                    0.5455885529518127,
                    1.3122649192810059
                ]
            },
            "neuron_2": {
                "bias": 0.239457368850708,
                "weights": [
                    0.5176457762718201,
                    0.5299509167671204,
                    0.5045717358589172,
                    -0.46928006410598755
                ]
            },
            "neuron_3": {
                "bias": 0.4298941493034363,
                "weights": [
                    1.1382076740264893,
                    0.5164366364479065,
                    0.13204443454742432,
                    -0.525977373123169
                ]
            }
        },
        "output": {
            "bias": 0.03304851055145264,
            "weights": [
                0.4882504343986511,
                -0.35387736558914185,
                -0.4647938311100006,
                -0.19536423683166504
            ]
        },
        "score": 1
    },
    "chromosome_2": {
        "layer_0": {
            "neuron_0": {
                "bias": -0.3900662064552307,
                "weights": [
                    0.5947151780128479,
                    0.5054780840873718,
                    1.941964030265808
                ]
            },
            "neuron_1": {
                "bias": -0.3138902485370636,
                "weights": [
                    0.474065363407135,
                    0.5054765343666077,
                    0.0777825117111206
                ]
            },
            "neuron_2": {
                "bias": -0.35554367303848267,
                "weights": [
                    0.007455706596374512,
                    0.015915393829345703,
                    0.13413798809051514
                ]
            },
            "neuron_3": {
                "bias": 0.2500106692314148,
                "weights": [
                    0.6704297065734863,
                    -0.573543131351471,
                    -0.33956417441368103
                ]
            }
        },
        "layer_1": {
            "neuron_0": {
                "bias": 0.5791711211204529,
                "weights": [
                    -0.22710958123207092,
                    -0.07474899291992188,
                    0.42574232816696167,
                    -0.2870112955570221
                ]
            },
            "neuron_1": {
                "bias": -0.5574663281440735,
                "weights": [
                    0.30581074953079224,
                    -0.5490280389785767,
                    0.5455885529518127,
                    0.6446699500083923
                ]
            },
            "neuron_2": {
                "bias": 0.239457368850708,
                "weights": [
                    0.5176457762718201,
                    0.5299509167671204,
                    0.5045717358589172,
                    -0.46928006410598755
                ]
            },
            "neuron_3": {
                "bias": -0.1343943476676941,
                "weights": [
                    -0.13627910614013672,
                    0.25227516889572144,
                    0.07616996765136719,
                    -0.525977373123169
                ]
            }
        },
        "output": {
            "bias": 0.23337048292160034,
            "weights": [
                0.4882504343986511,
                -0.35387736558914185,
                -0.4647938311100006,
                -0.19536423683166504
            ]
        },
        "score": 0
    },
    "chromosome_20": {
        "layer_0": {
            "neuron_0": {
                "bias": -0.3900662064552307,
                "weights": [
                    0.5947151780128479,
                    0.5054780840873718,
                    1.941964030265808
                ]
            },
            "neuron_1": {
                "bias": -0.3138902485370636,
                "weights": [
                    0.474065363407135,
                    0.5054765343666077,
                    0.0777825117111206
                ]
            },
            "neuron_2": {
                "bias": -0.35554367303848267,
                "weights": [
                    0.007455706596374512,
                    0.015915393829345703,
                    0.13413798809051514
                ]
            },
            "neuron_3": {
                "bias": 0.2500106692314148,
                "weights": [
                    0.6704297065734863,
                    -0.573543131351471,
                    -0.33956417441368103
                ]
            }
        },
        "layer_1": {
            "neuron_0": {
                "bias": 0.5791711211204529,
                "weights": [
                    -0.22710958123207092,
                    -0.07474899291992188,
                    0.42574232816696167,
                    -0.2870112955570221
                ]
            },
            "neuron_1": {
                "bias": -0.5574663281440735,
                "weights": [
                    0.30581074953079224,
                    -0.534522533416748,
                    0.5455885529518127,
                    1.3122649192810059
                ]
            },
            "neuron_2": {
                "bias": 0.239457368850708,
                "weights": [
                    0.5176457762718201,
                    0.5299509167671204,
                    0.5045717358589172,
                    -0.46928006410598755
                ]
            },
            "neuron_3": {
                "bias": 0.4298941493034363,
                "weights": [
                    1.1382076740264893,
                    0.25227516889572144,
                    0.13204443454742432,
                    -0.525977373123169
                ]
            }
        },
        "output": {
            "bias": 0.03304851055145264,
            "weights": [
                0.4882504343986511,
                -0.35387736558914185,
                -0.4647938311100006,
                -0.19536423683166504
            ]
        },
        "score": 96
    },
    "chromosome_21": {
        "layer_0": {
            "neuron_0": {
                "bias": -0.3900662064552307,
                "weights": [
                    0.5947151780128479,
                    0.5054780840873718,
                    1.941964030265808
                ]
            },
            "neuron_1": {
                "bias": -0.3138902485370636,
                "weights": [
                    0.474065363407135,
                    0.5054765343666077,
                    0.0777825117111206
                ]
            },
            "neuron_2": {
                "bias": -0.35554367303848267,
                "weights": [
                    0.007455706596374512,
                    0.015915393829345703,
                    0.08453959226608276
                ]
            },
            "neuron_3": {
                "bias": 0.2500106692314148,
                "weights": [
                    0.6704297065734863,
                    -0.573543131351471,
                    -0.33956417441368103
                ]
            }
        },
        "layer_1": {
            "neuron_0": {
                "bias": 0.5791711211204529,
                "weights": [
                    -0.22710958123207092,
                    -0.07474899291992188,
                    0.42574232816696167,
                    -0.2870112955570221
                ]
            },
            "neuron_1": {
                "bias": -0.5574663281440735,
                "weights": [
                    0.30581074953079224,
                    -0.534522533416748,
                    0.5455885529518127,
                    1.3122649192810059
                ]
            },
            "neuron_2": {
                "bias": 0.239457368850708,
                "weights": [
                    -0.16708922386169434,
                    0.5299509167671204,
                    0.5045717358589172,
                    -0.46928006410598755
                ]
            },
            "neuron_3": {
                "bias": 0.4298941493034363,
                "weights": [
                    1.1382076740264893,
                    0.25227516889572144,
                    0.13204443454742432,
                    -0.525977373123169
                ]
            }
        },
        "output": {
            "bias": 0.03304851055145264,
            "weights": [
                0.4882504343986511,
                -0.35387736558914185,
                -0.4647938311100006,
                -0.19536423683166504
            ]
        },
        "score": 2
    },
    "chromosome_22": {
        "layer_0": {
            "neuron_0": {
                "bias": -0.3900662064552307,
                "weights": [
                    0.5947151780128479,
                    0.5054780840873718,
                    1.941964030265808
                ]
            },
            "neuron_1": {
                "bias": -0.3138902485370636,
                "weights": [
                    0.474065363407135,
                    0.5054765343666077,
                    0.0777825117111206
                ]
            },
            "neuron_2": {
                "bias": -0.35554367303848267,
                "weights": [
                    0.007455706596374512,
                    0.015915393829345703,
                    0.13413798809051514
                ]
            },
            "neuron_3": {
                "bias": 0.2500106692314148,
                "weights": [
                    0.6704297065734863,
                    -0.573543131351471,
                    -0.33956417441368103
                ]
            }
        },
        "layer_1": {
            "neuron_0": {
                "bias": 0.5791711211204529,
                "weights": [
                    -0.22710958123207092,
                    -0.07474899291992188,
                    0.42574232816696167,
                    -0.2870112955570221
                ]
            },
            "neuron_1": {
                "bias": -0.5574663281440735,
                "weights": [
                    0.30581074953079224,
                    -0.534522533416748,
                    0.5455885529518127,
                    1.3122649192810059
                ]
            },
            "neuron_2": {
                "bias": 0.239457368850708,
                "weights": [
                    0.5176457762718201,
                    0.5299509167671204,
                    0.5045717358589172,
                    -0.46928006410598755
                ]
            },
            "neuron_3": {
                "bias": -0.1343943476676941,
                "weights": [
                    -0.13627910614013672,
                    0.25227516889572144,
                    0.07616996765136719,
                    -0.525977373123169
                ]
            }
        },
        "output": {
            "bias": 0.03304851055145264,
            "weights": [
                0.4882504343986511,
                -0.35387736558914185,
                -0.4647938311100006,
                -0.19536423683166504
            ]
        },
        "score": 96
    },
    "chromosome_23": {
        "layer_0": {
            "neuron_0": {
                "bias": -0.3900662064552307,
                "weights": [
                    0.5947151780128479,
                    0.5054780840873718,
                    1.941964030265808
                ]
            },
            "neuron_1": {
                "bias": -0.3138902485370636,
                "weights": [
                    0.474065363407135,
                    0.5054765343666077,
                    0.0777825117111206
                ]
            },
            "neuron_2": {
                "bias": -0.35554367303848267,
                "weights": [
                    0.007455706596374512,
                    0.015915393829345703,
                    0.13413798809051514
                ]
            },
            "neuron_3": {
                "bias": 0.2500106692314148,
                "weights": [
                    0.6704297065734863,
                    -0.573543131351471,
                    -0.33956417441368103
                ]
            }
        },
        "layer_1": {
            "neuron_0": {
                "bias": 0.5791711211204529,
                "weights": [
                    -0.22710958123207092,
                    -0.07474899291992188,
                    0.42574232816696167,
                    -0.2870112955570221
                ]
            },
            "neuron_1": {
                "bias": -0.5574663281440735,
                "weights": [
                    0.30581074953079224,
                    -0.534522533416748,
                    0.5455885529518127,
                    1.3122649192810059
                ]
            },
            "neuron_2": {
                "bias": 0.239457368850708,
                "weights": [
                    0.5176457762718201,
                    0.5299509167671204,
                    0.5045717358589172,
                    -0.46928006410598755
                ]
            },
            "neuron_3": {
                "bias": -0.1343943476676941,
                "weights": [
                    0.41993170976638794,
                    0.25227516889572144,
                    0.07616996765136719,
                    -0.525977373123169
                ]
            }
        },
        "output": {
            "bias": 0.03304851055145264,
            "weights": [
                0.4882504343986511,
                -0.35387736558914185,
                -0.4647938311100006,
                -0.19536423683166504
            ]
        },
        "score": 96
    },
    "chromosome_24": {
        "layer_0": {
            "neuron_0": {
                "bias": -0.3900662064552307,
                "weights": [
                    0.5947151780128479,
                    0.5054780840873718,
                    1.941964030265808
                ]
            },
            "neuron_1": {
                "bias": -0.3138902485370636,
                "weights": [
                    0.474065363407135,
                    0.5054765343666077,
                    0.0777825117111206
                ]
            },
            "neuron_2": {
                "bias": -0.35554367303848267,
                "weights": [
                    0.007455706596374512,
                    0.015915393829345703,
                    0.13413798809051514
                ]
            },
            "neuron_3": {
                "bias": 0.2500106692314148,
                "weights": [
                    0.6704297065734863,
                    -0.573543131351471,
                    -0.33956417441368103
                ]
            }
        },
        "layer_1": {
            "neuron_0": {
                "bias": 0.5791711211204529,
                "weights": [
                    -0.22710958123207092,
                    -0.07474899291992188,
                    0.42574232816696167,
                    -0.2870112955570221
                ]
            },
            "neuron_1": {
                "bias": -0.5574663281440735,
                "weights": [
                    0.30581074953079224,
                    -0.534522533416748,
                    0.5455885529518127,
                    1.3122649192810059
                ]
            },
            "neuron_2": {
                "bias": 0.239457368850708,
                "weights": [
                    0.5176457762718201,
                    0.5299509167671204,
                    0.5045717358589172,
                    -0.46928006410598755
                ]
            },
            "neuron_3": {
                "bias": -0.1343943476676941,
                "weights": [
                    0.41993170976638794,
                    0.25227516889572144,
                    0.07616996765136719,
                    -0.525977373123169
                ]
            }
        },
        "output": {
            "bias": 0.30734550952911377,
            "weights": [
                0.4882504343986511,
                -0.35387736558914185,
                -0.4647938311100006,
                -0.19536423683166504
            ]
        },
        "score": 96
    },
    "chromosome_25": {
        "layer_0": {
            "neuron_0": {
                "bias": -0.3900662064552307,
                "weights": [
                    0.5947151780128479,
                    0.5054780840873718,
                    1.941964030265808
                ]
            },
            "neuron_1": {
                "bias": -0.3138902485370636,
                "weights": [
                    0.474065363407135,
                    0.5054765343666077,
                    0.0777825117111206
                ]
            },
            "neuron_2": {
                "bias": -0.35554367303848267,
                "weights": [
                    0.007455706596374512,
                    0.015915393829345703,
                    0.13413798809051514
                ]
            },
            "neuron_3": {
                "bias": 0.2500106692314148,
                "weights": [
                    0.6704297065734863,
                    -0.573543131351471,
                    -0.33956417441368103
                ]
            }
        },
        "layer_1": {
            "neuron_0": {
                "bias": 0.5791711211204529,
                "weights": [
                    -0.22710958123207092,
                    -0.07474899291992188,
                    0.42574232816696167,
                    -0.2870112955570221
                ]
            },
            "neuron_1": {
                "bias": -0.5574663281440735,
                "weights": [
                    0.30581074953079224,
                    -0.534522533416748,
                    0.5455885529518127,
                    1.3122649192810059
                ]
            },
            "neuron_2": {
                "bias": 0.239457368850708,
                "weights": [
                    0.5176457762718201,
                    0.5299509167671204,
                    0.5045717358589172,
                    -0.46928006410598755
                ]
            },
            "neuron_3": {
                "bias": 0.4298941493034363,
                "weights": [
                    1.1382076740264893,
                    0.25227516889572144,
                    0.13204443454742432,
                    -0.525977373123169
                ]
            }
        },
        "output": {
            "bias": 0.03304851055145264,
            "weights": [
                0.4882504343986511,
                -0.35387736558914185,
                -0.6458745002746582,
                -0.19536423683166504
            ]
        },
        "score": 96
    },
    "chromosome_26": {
        "layer_0": {
            "neuron_0": {
                "bias": -0.3900662064552307,
                "weights": [
                    0.5947151780128479,
                    0.5054780840873718,
                    1.941964030265808
                ]
            },
            "neuron_1": {
                "bias": -0.3138902485370636,
                "weights": [
                    0.474065363407135,
                    0.5054765343666077,
                    0.0777825117111206
                ]
            },
            "neuron_2": {
                "bias": -0.35554367303848267,
                "weights": [
                    0.007455706596374512,
                    0.015915393829345703,
                    0.13413798809051514
                ]
            },
            "neuron_3": {
                "bias": 0.2500106692314148,
                "weights": [
                    0.6704297065734863,
                    -0.573543131351471,
                    -0.33956417441368103
                ]
            }
        },
        "layer_1": {
            "neuron_0": {
                "bias": 0.5791711211204529,
                "weights": [
                    -0.22710958123207092,
                    -0.07474899291992188,
                    0.42574232816696167,
                    -0.2870112955570221
                ]
            },
            "neuron_1": {
                "bias": -0.5574663281440735,
                "weights": [
                    0.30581074953079224,
                    -0.534522533416748,
                    0.5455885529518127,
                    1.3122649192810059
                ]
            },
            "neuron_2": {
                "bias": 0.239457368850708,
                "weights": [
                    0.5176457762718201,
                    0.5299509167671204,
                    0.5045717358589172,
                    -0.46928006410598755
                ]
            },
            "neuron_3": {
                "bias": 0.4298941493034363,
                "weights": [
                    1.1382076740264893,
                    0.25227516889572144,
                    0.13204443454742432,
                    -0.525977373123169
                ]
            }
        },
        "output": {
            "bias": 0.03304851055145264,
            "weights": [
                0.4882504343986511,
                -0.35387736558914185,
                -0.4647938311100006,
                -0.19536423683166504
            ]
        },
        "score": 96
    },
    "chromosome_27": {
        "layer_0": {
            "neuron_0": {
                "bias": -0.3900662064552307,
                "weights": [
                    0.5947151780128479,
                    0.5054780840873718,
                    1.941964030265808
                ]
            },
            "neuron_1": {
                "bias": -0.3138902485370636,
                "weights": [
                    0.474065363407135,
                    0.5054765343666077,
                    0.0777825117111206
                ]
            },
            "neuron_2": {
                "bias": -0.35554367303848267,
                "weights": [
                    0.007455706596374512,
                    0.015915393829345703,
                    0.13413798809051514
                ]
            },
            "neuron_3": {
                "bias": 0.2500106692314148,
                "weights": [
                    0.6704297065734863,
                    -0.573543131351471,
                    -0.33956417441368103
                ]
            }
        },
        "layer_1": {
            "neuron_0": {
                "bias": 0.5791711211204529,
                "weights": [
                    -0.22710958123207092,
                    -0.07474899291992188,
                    0.42574232816696167,
                    -0.2870112955570221
                ]
            },
            "neuron_1": {
                "bias": -0.5574663281440735,
                "weights": [
                    0.30581074953079224,
                    -0.534522533416748,
                    0.5455885529518127,
                    1.3122649192810059
                ]
            },
            "neuron_2": {
                "bias": 0.239457368850708,
                "weights": [
                    0.5176457762718201,
                    0.5299509167671204,
                    0.5045717358589172,
                    -0.46928006410598755
                ]
            },
            "neuron_3": {
                "bias": 0.4298941493034363,
                "weights": [
                    1.1382076740264893,
                    0.25227516889572144,
                    0.13204443454742432,
                    -0.525977373123169
                ]
            }
        },
        "output": {
            "bias": 0.03304851055145264,
            "weights": [
                0.4882504343986511,
                -0.35387736558914185,
                -0.4647938311100006,
                -0.19536423683166504
            ]
        },
        "score": 96
    },
    "chromosome_28": {
        "layer_0": {
            "neuron_0": {
                "bias": -0.3900662064552307,
                "weights": [
                    0.5947151780128479,
                    0.5054780840873718,
                    1.941964030265808
                ]
            },
            "neuron_1": {
                "bias": -0.3138902485370636,
                "weights": [
                    0.474065363407135,
                    0.5054765343666077,
                    0.0777825117111206
                ]
            },
            "neuron_2": {
                "bias": -0.35554367303848267,
                "weights": [
                    0.007455706596374512,
                    0.015915393829345703,
                    0.13413798809051514
                ]
            },
            "neuron_3": {
                "bias": 0.2500106692314148,
                "weights": [
                    0.6704297065734863,
                    -0.573543131351471,
                    -0.33956417441368103
                ]
            }
        },
        "layer_1": {
            "neuron_0": {
                "bias": 0.5791711211204529,
                "weights": [
                    -0.22710958123207092,
                    -0.07474899291992188,
                    0.42574232816696167,
                    -0.2870112955570221
                ]
            },
            "neuron_1": {
                "bias": -0.5574663281440735,
                "weights": [
                    0.30581074953079224,
                    -0.534522533416748,
                    0.5455885529518127,
                    1.3122649192810059
                ]
            },
            "neuron_2": {
                "bias": 0.239457368850708,
                "weights": [
                    0.5176457762718201,
                    0.5299509167671204,
                    0.5045717358589172,
                    -0.46928006410598755
                ]
            },
            "neuron_3": {
                "bias": 0.4298941493034363,
                "weights": [
                    1.1382076740264893,
                    0.25227516889572144,
                    0.13204443454742432,
                    -0.525977373123169
                ]
            }
        },
        "output": {
            "bias": 0.03304851055145264,
            "weights": [
                0.4882504343986511,
                -0.35387736558914185,
                -0.4647938311100006,
                -0.19536423683166504
            ]
        },
        "score": 96
    },
    "chromosome_29": {
        "layer_0": {
            "neuron_0": {
                "bias": -0.3900662064552307,
                "weights": [
                    0.5947151780128479,
                    0.5054780840873718,
                    1.941964030265808
                ]
            },
            "neuron_1": {
                "bias": -0.3138902485370636,
                "weights": [
                    0.474065363407135,
                    0.5054765343666077,
                    0.0777825117111206
                ]
            },
            "neuron_2": {
                "bias": -0.35554367303848267,
                "weights": [
                    0.007455706596374512,
                    0.015915393829345703,
                    0.13413798809051514
                ]
            },
            "neuron_3": {
                "bias": 0.2500106692314148,
                "weights": [
                    0.6704297065734863,
                    -0.573543131351471,
                    -0.33956417441368103
                ]
            }
        },
        "layer_1": {
            "neuron_0": {
                "bias": 0.5791711211204529,
                "weights": [
                    -0.22710958123207092,
                    -0.07474899291992188,
                    0.42574232816696167,
                    -0.2870112955570221
                ]
            },
            "neuron_1": {
                "bias": -0.5574663281440735,
                "weights": [
                    0.30581074953079224,
                    -0.534522533416748,
                    0.5455885529518127,
                    1.3122649192810059
                ]
            },
            "neuron_2": {
                "bias": 0.239457368850708,
                "weights": [
                    0.5176457762718201,
                    0.5299509167671204,
                    0.5045717358589172,
                    -0.46928006410598755
                ]
            },
            "neuron_3": {
                "bias": 0.4298941493034363,
                "weights": [
                    1.1382076740264893,
                    0.25227516889572144,
                    0.13204443454742432,
                    -0.525977373123169
                ]
            }
        },
        "output": {
            "bias": 0.03304851055145264,
            "weights": [
                0.4882504343986511,
                -0.35387736558914185,
                -0.4647938311100006,
                -0.19536423683166504
            ]
        },
        "score": 96
    },
    "chromosome_3": {
        "layer_0": {
            "neuron_0": {
                "bias": -0.3900662064552307,
                "weights": [
                    0.5947151780128479,
                    0.5054780840873718,
                    1.941964030265808
                ]
            },
            "neuron_1": {
                "bias": -0.3138902485370636,
                "weights": [
                    0.474065363407135,
                    0.5054765343666077,
                    0.0777825117111206
                ]
            },
            "neuron_2": {
                "bias": -0.35554367303848267,
                "weights": [
                    0.007455706596374512,
                    0.015915393829345703,
                    0.13413798809051514
                ]
            },
            "neuron_3": {
                "bias": 0.2500106692314148,
                "weights": [
                    0.6704297065734863,
                    -0.573543131351471,
                    -0.33956417441368103
                ]
            }
        },
        "layer_1": {
            "neuron_0": {
                "bias": 0.5791711211204529,
                "weights": [
                    -0.22710958123207092,
                    -0.07474899291992188,
                    0.42574232816696167,
                    -0.2870112955570221
                ]
            },
            "neuron_1": {
                "bias": -0.5574663281440735,
                "weights": [
                    0.30581074953079224,
                    -0.44391584396362305,
                    0.5455885529518127,
                    0.6446699500083923
                ]
            },
            "neuron_2": {
                "bias": 0.239457368850708,
                "weights": [
                    0.5176457762718201,
                    0.5299509167671204,
                    0.5045717358589172,
                    -0.46928006410598755
                ]
            },
            "neuron_3": {
                "bias": -0.1343943476676941,
                "weights": [
                    0.41993170976638794,
                    0.25227516889572144,
                    0.07616996765136719,
                    -0.525977373123169
                ]
            }
        },
        "output": {
            "bias": 0.03304851055145264,
            "weights": [
                0.4882504343986511,
                -0.35387736558914185,
                -0.4647938311100006,
                -0.19536423683166504
            ]
        },
        "score": 96
    },
    "chromosome_30": {
        "layer_0": {
            "neuron_0": {
                "bias": -0.3900662064552307,
                "weights": [
                    0.5947151780128479,
                    0.5054780840873718,
                    1.941964030265808
                ]
            },
            "neuron_1": {
                "bias": -0.3138902485370636,
                "weights": [
                    0.474065363407135,
                    0.5054765343666077,
                    0.0777825117111206
                ]
            },
            "neuron_2": {
                "bias": -0.35554367303848267,
                "weights": [
                    0.007455706596374512,
                    0.015915393829345703,
                    0.6802511215209961
                ]
            },
            "neuron_3": {
                "bias": 0.2500106692314148,
                "weights": [
                    0.6704297065734863,
                    -0.573543131351471,
                    -0.33956417441368103
                ]
            }
        },
        "layer_1": {
            "neuron_0": {
                "bias": 0.5791711211204529,
                "weights": [
                    -0.22710958123207092,
                    -0.07474899291992188,
                    0.42574232816696167,
                    -0.2870112955570221
                ]
            },
            "neuron_1": {
                "bias": -0.5574663281440735,
                "weights": [
                    0.30581074953079224,
                    -0.534522533416748,
                    0.5455885529518127,
                    0.6446699500083923
                ]
            },
            "neuron_2": {
                "bias": 0.239457368850708,
                "weights": [
                    0.5176457762718201,
                    0.5299509167671204,
                    0.5045717358589172,
                    -0.46928006410598755
                ]
            },
            "neuron_3": {
                "bias": 0.4298941493034363,
                "weights": [
                    1.1382076740264893,
                    0.25227516889572144,
                    0.13204443454742432,
                    -0.525977373123169
                ]
            }
        },
        "output": {
            "bias": 0.03304851055145264,
            "weights": [
                0.4882504343986511,
                -0.35387736558914185,
                -0.4647938311100006,
                -0.19536423683166504
            ]
        },
        "score": 96
    },
    "chromosome_31": {
        "layer_0": {
            "neuron_0": {
                "bias": -0.3900662064552307,
                "weights": [
                    0.5947151780128479,
                    0.5054780840873718,
                    1.941964030265808
                ]
            },
            "neuron_1": {
                "bias": -0.3138902485370636,
                "weights": [
                    0.474065363407135,
                    0.5054765343666077,
                    0.0777825117111206
                ]
            },
            "neuron_2": {
                "bias": -0.35554367303848267,
                "weights": [
                    0.007455706596374512,
                    0.015915393829345703,
                    0.6802511215209961
                ]
            },
            "neuron_3": {
                "bias": 0.2500106692314148,
                "weights": [
                    0.6704297065734863,
                    -0.573543131351471,
                    -0.33956417441368103
                ]
            }
        },
        "layer_1": {
            "neuron_0": {
                "bias": 0.5791711211204529,
                "weights": [
                    -0.22710958123207092,
                    -0.07474899291992188,
                    0.42574232816696167,
                    -0.2870112955570221
                ]
            },
            "neuron_1": {
                "bias": -0.5574663281440735,
                "weights": [
                    0.30581074953079224,
                    -0.534522533416748,
                    0.5455885529518127,
                    0.6446699500083923
                ]
            },
            "neuron_2": {
                "bias": 0.239457368850708,
                "weights": [
                    0.5176457762718201,
                    0.5299509167671204,
                    0.5045717358589172,
                    -0.46928006410598755
                ]
            },
            "neuron_3": {
                "bias": 0.4298941493034363,
                "weights": [
                    1.1382076740264893,
                    0.25227516889572144,
                    0.13204443454742432,
                    -0.525977373123169
                ]
            }
        },
        "output": {
            "bias": 0.03304851055145264,
            "weights": [
                0.4882504343986511,
                -0.35387736558914185,
                -0.4647938311100006,
                -0.19536423683166504
            ]
        },
        "score": 96
    },
    "chromosome_32": {
        "layer_0": {
            "neuron_0": {
                "bias": -0.3900662064552307,
                "weights": [
                    0.5947151780128479,
                    0.5054780840873718,
                    1.941964030265808
                ]
            },
            "neuron_1": {
                "bias": -0.3138902485370636,
                "weights": [
                    0.474065363407135,
                    0.5054765343666077,
                    0.0777825117111206
                ]
            },
            "neuron_2": {
                "bias": -0.35554367303848267,
                "weights": [
                    0.007455706596374512,
                    0.015915393829345703,
                    0.6802511215209961
                ]
            },
            "neuron_3": {
                "bias": 0.2500106692314148,
                "weights": [
                    0.6704297065734863,
                    -0.573543131351471,
                    -0.33956417441368103
                ]
            }
        },
        "layer_1": {
            "neuron_0": {
                "bias": 0.5791711211204529,
                "weights": [
                    -0.22710958123207092,
                    -0.07474899291992188,
                    0.42574232816696167,
                    -0.2870112955570221
                ]
            },
            "neuron_1": {
                "bias": -0.5574663281440735,
                "weights": [
                    0.30581074953079224,
                    -0.7675634622573853,
                    0.5455885529518127,
                    0.6446699500083923
                ]
            },
            "neuron_2": {
                "bias": 0.239457368850708,
                "weights": [
                    0.5176457762718201,
                    0.5299509167671204,
                    0.5045717358589172,
                    -0.46928006410598755
                ]
            },
            "neuron_3": {
                "bias": -0.1343943476676941,
                "weights": [
                    -0.13627910614013672,
                    0.25227516889572144,
                    0.07616996765136719,
                    -0.525977373123169
                ]
            }
        },
        "output": {
            "bias": 0.03304851055145264,
            "weights": [
                0.4882504343986511,
                -0.35387736558914185,
                -0.4647938311100006,
                -0.19536423683166504
            ]
        },
        "score": 96
    },
    "chromosome_33": {
        "layer_0": {
            "neuron_0": {
                "bias": -0.3900662064552307,
                "weights": [
                    0.5947151780128479,
                    0.5054780840873718,
                    1.941964030265808
                ]
            },
            "neuron_1": {
                "bias": -0.3138902485370636,
                "weights": [
                    0.474065363407135,
                    0.5054765343666077,
                    0.0777825117111206
                ]
            },
            "neuron_2": {
                "bias": -0.35554367303848267,
                "weights": [
                    0.007455706596374512,
                    0.015915393829345703,
                    0.6802511215209961
                ]
            },
            "neuron_3": {
                "bias": 0.2500106692314148,
                "weights": [
                    0.6704297065734863,
                    -0.573543131351471,
                    -0.33956417441368103
                ]
            }
        },
        "layer_1": {
            "neuron_0": {
                "bias": 0.5791711211204529,
                "weights": [
                    -0.22710958123207092,
                    -0.07474899291992188,
                    0.42574232816696167,
                    -0.2870112955570221
                ]
            },
            "neuron_1": {
                "bias": -0.5574663281440735,
                "weights": [
                    0.30581074953079224,
                    -0.534522533416748,
                    0.5455885529518127,
                    0.6446699500083923
                ]
            },
            "neuron_2": {
                "bias": 0.239457368850708,
                "weights": [
                    0.5176457762718201,
                    0.5299509167671204,
                    0.5045717358589172,
                    -0.46928006410598755
                ]
            },
            "neuron_3": {
                "bias": -0.1343943476676941,
                "weights": [
                    0.41993170976638794,
                    -0.22266885638237,
                    0.07616996765136719,
                    -0.525977373123169
                ]
            }
        },
        "output": {
            "bias": 0.03304851055145264,
            "weights": [
                0.4882504343986511,
                -0.35387736558914185,
                -0.4647938311100006,
                -0.19536423683166504
            ]
        },
        "score": 96
    },
    "chromosome_34": {
        "layer_0": {
            "neuron_0": {
                "bias": -0.3900662064552307,
                "weights": [
                    0.5947151780128479,
                    0.5054780840873718,
                    1.941964030265808
                ]
            },
            "neuron_1": {
                "bias": -0.3138902485370636,
                "weights": [
                    0.474065363407135,
                    0.5054765343666077,
                    0.0777825117111206
                ]
            },
            "neuron_2": {
                "bias": -0.35554367303848267,
                "weights": [
                    0.007455706596374512,
                    0.015915393829345703,
                    0.6802511215209961
                ]
            },
            "neuron_3": {
                "bias": 0.2500106692314148,
                "weights": [
                    0.6704297065734863,
                    -0.573543131351471,
                    -0.33956417441368103
                ]
            }
        },
        "layer_1": {
            "neuron_0": {
                "bias": 0.5791711211204529,
                "weights": [
                    -0.22710958123207092,
                    -0.07474899291992188,
                    0.42574232816696167,
                    -0.2870112955570221
                ]
            },
            "neuron_1": {
                "bias": -0.5574663281440735,
                "weights": [
                    0.30581074953079224,
                    -0.534522533416748,
                    0.5455885529518127,
                    0.6446699500083923
                ]
            },
            "neuron_2": {
                "bias": 0.239457368850708,
                "weights": [
                    0.5176457762718201,
                    0.5299509167671204,
                    0.5045717358589172,
                    -0.46928006410598755
                ]
            },
            "neuron_3": {
                "bias": -0.1343943476676941,
                "weights": [
                    0.41993170976638794,
                    0.25227516889572144,
                    0.07616996765136719,
                    -0.525977373123169
                ]
            }
        },
        "output": {
            "bias": 0.03304851055145264,
            "weights": [
                0.4882504343986511,
                -0.35387736558914185,
                -0.4647938311100006,
                -0.19536423683166504
            ]
        },
        "score": 96
    },
    "chromosome_35": {
        "layer_0": {
            "neuron_0": {
                "bias": -1.016557216644287,
                "weights": [
                    0.5947151780128479,
                    0.5054780840873718,
                    1.941964030265808
                ]
            },
            "neuron_1": {
                "bias": -0.3138902485370636,
                "weights": [
                    0.474065363407135,
                    0.5054765343666077,
                    0.0777825117111206
                ]
            },
            "neuron_2": {
                "bias": -0.35554367303848267,
                "weights": [
                    0.007455706596374512,
                    0.015915393829345703,
                    0.6802511215209961
                ]
            },
            "neuron_3": {
                "bias": 0.2500106692314148,
                "weights": [
                    0.6704297065734863,
                    -0.573543131351471,
                    -0.33956417441368103
                ]
            }
        },
        "layer_1": {
            "neuron_0": {
                "bias": 0.5791711211204529,
                "weights": [
                    -0.22710958123207092,
                    -0.07474899291992188,
                    0.42574232816696167,
                    -0.2870112955570221
                ]
            },
            "neuron_1": {
                "bias": -0.5574663281440735,
                "weights": [
                    0.30581074953079224,
                    -0.534522533416748,
                    0.5455885529518127,
                    0.6446699500083923
                ]
            },
            "neuron_2": {
                "bias": 0.239457368850708,
                "weights": [
                    0.5176457762718201,
                    0.5299509167671204,
                    0.5045717358589172,
                    -0.46928006410598755
                ]
            },
            "neuron_3": {
                "bias": 0.4298941493034363,
                "weights": [
                    1.1382076740264893,
                    0.25227516889572144,
                    0.13204443454742432,
                    -0.525977373123169
                ]
            }
        },
        "output": {
            "bias": 0.03304851055145264,
            "weights": [
                0.4882504343986511,
                -0.35387736558914185,
                -0.4647938311100006,
                -0.19536423683166504
            ]
        },
        "score": 96
    },
    "chromosome_36": {
        "layer_0": {
            "neuron_0": {
                "bias": -0.3900662064552307,
                "weights": [
                    0.5947151780128479,
                    0.5054780840873718,
                    1.941964030265808
                ]
            },
            "neuron_1": {
                "bias": -0.3138902485370636,
                "weights": [
                    0.474065363407135,
                    0.5054765343666077,
                    0.0777825117111206
                ]
            },
            "neuron_2": {
                "bias": -0.35554367303848267,
                "weights": [
                    0.007455706596374512,
                    0.015915393829345703,
                    0.6802511215209961
                ]
            },
            "neuron_3": {
                "bias": 0.2500106692314148,
                "weights": [
                    0.6704297065734863,
                    -0.573543131351471,
                    -0.33956417441368103
                ]
            }
        },
        "layer_1": {
            "neuron_0": {
                "bias": 0.5791711211204529,
                "weights": [
                    -0.22710958123207092,
                    -0.07474899291992188,
                    0.42574232816696167,
                    -0.2870112955570221
                ]
            },
            "neuron_1": {
                "bias": -0.5574663281440735,
                "weights": [
                    0.30581074953079224,
                    -0.534522533416748,
                    0.5455885529518127,
                    0.6446699500083923
                ]
            },
            "neuron_2": {
                "bias": 0.239457368850708,
                "weights": [
                    0.5176457762718201,
                    0.5299509167671204,
                    0.5045717358589172,
                    -0.46928006410598755
                ]
            },
            "neuron_3": {
                "bias": 0.4298941493034363,
                "weights": [
                    1.1382076740264893,
                    0.25227516889572144,
                    0.13204443454742432,
                    -0.525977373123169
                ]
            }
        },
        "output": {
            "bias": 0.03304851055145264,
            "weights": [
                0.4882504343986511,
                -0.35387736558914185,
                -0.4647938311100006,
                -0.19536423683166504
            ]
        },
        "score": 96
    },
    "chromosome_37": {
        "layer_0": {
            "neuron_0": {
                "bias": -0.3900662064552307,
                "weights": [
                    0.5947151780128479,
                    0.5054780840873718,
                    1.941964030265808
                ]
            },
            "neuron_1": {
                "bias": -0.3138902485370636,
                "weights": [
                    0.474065363407135,
                    0.5054765343666077,
                    0.0777825117111206
                ]
            },
            "neuron_2": {
                "bias": -0.35554367303848267,
                "weights": [
                    0.007455706596374512,
                    0.015915393829345703,
                    0.6802511215209961
                ]
            },
            "neuron_3": {
                "bias": 0.2500106692314148,
                "weights": [
                    0.6704297065734863,
                    -0.573543131351471,
                    -0.33956417441368103
                ]
            }
        },
        "layer_1": {
            "neuron_0": {
                "bias": 0.5791711211204529,
                "weights": [
                    -0.22710958123207092,
                    -0.07474899291992188,
                    0.42574232816696167,
                    -0.2870112955570221
                ]
            },
            "neuron_1": {
                "bias": -0.5574663281440735,
                "weights": [
                    0.30581074953079224,
                    -0.534522533416748,
                    0.5455885529518127,
                    0.6446699500083923
                ]
            },
            "neuron_2": {
                "bias": 0.239457368850708,
                "weights": [
                    0.5176457762718201,
                    0.5299509167671204,
                    0.5045717358589172,
                    -0.46928006410598755
                ]
            },
            "neuron_3": {
                "bias": 0.4298941493034363,
                "weights": [
                    1.1382076740264893,
                    0.25227516889572144,
                    0.13204443454742432,
                    -0.525977373123169
                ]
            }
        },
        "output": {
            "bias": 0.03304851055145264,
            "weights": [
                0.4882504343986511,
                -0.35387736558914185,
                -1.130287528038025,
                -0.19536423683166504
            ]
        },
        "score": 0
    },
    "chromosome_38": {
        "layer_0": {
            "neuron_0": {
                "bias": -0.3900662064552307,
                "weights": [
                    0.5947151780128479,
                    0.5054780840873718,
                    1.941964030265808
                ]
            },
            "neuron_1": {
                "bias": -0.3138902485370636,
                "weights": [
                    0.474065363407135,
                    0.5054765343666077,
                    0.0777825117111206
                ]
            },
            "neuron_2": {
                "bias": -0.35554367303848267,
                "weights": [
                    0.007455706596374512,
                    0.015915393829345703,
                    0.6802511215209961
                ]
            },
            "neuron_3": {
                "bias": 0.2500106692314148,
                "weights": [
                    0.6704297065734863,
                    -0.573543131351471,
                    -0.33956417441368103
                ]
            }
        },
        "layer_1": {
            "neuron_0": {
                "bias": 0.5791711211204529,
                "weights": [
                    -0.22710958123207092,
                    -0.07474899291992188,
                    0.42574232816696167,
                    -0.2870112955570221
                ]
            },
            "neuron_1": {
                "bias": -0.5574663281440735,
                "weights": [
                    0.30581074953079224,
                    -0.534522533416748,
                    0.5455885529518127,
                    0.6446699500083923
                ]
            },
            "neuron_2": {
                "bias": 0.239457368850708,
                "weights": [
                    0.5176457762718201,
                    0.5299509167671204,
                    0.5045717358589172,
                    -0.46928006410598755
                ]
            },
            "neuron_3": {
                "bias": 0.4298941493034363,
                "weights": [
                    1.1382076740264893,
                    0.25227516889572144,
                    0.13204443454742432,
                    -0.525977373123169
                ]
            }
        },
        "output": {
            "bias": 0.03304851055145264,
            "weights": [
                0.4882504343986511,
                -0.35387736558914185,
                -0.4647938311100006,
                -0.19536423683166504
            ]
        },
        "score": 96
    },
    "chromosome_39": {
        "layer_0": {
            "neuron_0": {
                "bias": -0.3900662064552307,
                "weights": [
                    0.5947151780128479,
                    0.5054780840873718,
                    1.941964030265808
                ]
            },
            "neuron_1": {
                "bias": -0.3138902485370636,
                "weights": [
                    0.474065363407135,
                    0.5054765343666077,
                    0.0777825117111206
                ]
            },
            "neuron_2": {
                "bias": -0.35554367303848267,
                "weights": [
                    0.007455706596374512,
                    0.015915393829345703,
                    0.6802511215209961
                ]
            },
            "neuron_3": {
                "bias": 0.2500106692314148,
                "weights": [
                    0.6704297065734863,
                    -0.573543131351471,
                    -0.33956417441368103
                ]
            }
        },
        "layer_1": {
            "neuron_0": {
                "bias": 0.5791711211204529,
                "weights": [
                    -0.22710958123207092,
                    -0.07474899291992188,
                    0.42574232816696167,
                    -0.2870112955570221
                ]
            },
            "neuron_1": {
                "bias": -0.5574663281440735,
                "weights": [
                    0.30581074953079224,
                    -0.534522533416748,
                    0.5455885529518127,
                    0.6446699500083923
                ]
            },
            "neuron_2": {
                "bias": 0.239457368850708,
                "weights": [
                    0.5176457762718201,
                    0.5299509167671204,
                    0.5045717358589172,
                    -0.46928006410598755
                ]
            },
            "neuron_3": {
                "bias": 0.4298941493034363,
                "weights": [
                    1.1382076740264893,
                    0.25227516889572144,
                    0.13204443454742432,
                    -0.525977373123169
                ]
            }
        },
        "output": {
            "bias": 0.03304851055145264,
            "weights": [
                0.4882504343986511,
                -0.35387736558914185,
                -0.4647938311100006,
                -0.19536423683166504
            ]
        },
        "score": 96
    },
    "chromosome_4": {
        "layer_0": {
            "neuron_0": {
                "bias": -0.3900662064552307,
                "weights": [
                    0.5947151780128479,
                    0.5054780840873718,
                    1.941964030265808
                ]
            },
            "neuron_1": {
                "bias": -0.3138902485370636,
                "weights": [
                    0.474065363407135,
                    0.5054765343666077,
                    0.0777825117111206
                ]
            },
            "neuron_2": {
                "bias": -0.35554367303848267,
                "weights": [
                    0.007455706596374512,
                    0.015915393829345703,
                    0.13413798809051514
                ]
            },
            "neuron_3": {
                "bias": 0.2500106692314148,
                "weights": [
                    0.6704297065734863,
                    -0.573543131351471,
                    -0.33956417441368103
                ]
            }
        },
        "layer_1": {
            "neuron_0": {
                "bias": 0.5791711211204529,
                "weights": [
                    -0.22710958123207092,
                    -0.07474899291992188,
                    0.42574232816696167,
                    -0.2870112955570221
                ]
            },
            "neuron_1": {
                "bias": -0.5574663281440735,
                "weights": [
                    0.30581074953079224,
                    -0.44391584396362305,
                    0.5455885529518127,
                    0.6446699500083923
                ]
            },
            "neuron_2": {
                "bias": 0.239457368850708,
                "weights": [
                    0.5176457762718201,
                    0.5299509167671204,
                    0.5045717358589172,
                    -0.46928006410598755
                ]
            },
            "neuron_3": {
                "bias": -0.1343943476676941,
                "weights": [
                    0.41993170976638794,
                    0.25227516889572144,
                    0.07616996765136719,
                    -0.525977373123169
                ]
            }
        },
        "output": {
            "bias": 0.03304851055145264,
            "weights": [
                0.4882504343986511,
                -0.35387736558914185,
                -0.4647938311100006,
                -0.19536423683166504
            ]
        },
        "score": 96
    },
    "chromosome_40": {
        "layer_0": {
            "neuron_0": {
                "bias": -0.3900662064552307,
                "weights": [
                    0.5947151780128479,
                    0.5054780840873718,
                    1.941964030265808
                ]
            },
            "neuron_1": {
                "bias": -0.3138902485370636,
                "weights": [
                    0.474065363407135,
                    0.5054765343666077,
                    0.0777825117111206
                ]
            },
            "neuron_2": {
                "bias": -0.35554367303848267,
                "weights": [
                    0.007455706596374512,
                    0.015915393829345703,
                    0.13413798809051514
                ]
            },
            "neuron_3": {
                "bias": 0.2500106692314148,
                "weights": [
                    0.6704297065734863,
                    -0.573543131351471,
                    -0.33956417441368103
                ]
            }
        },
        "layer_1": {
            "neuron_0": {
                "bias": 0.5791711211204529,
                "weights": [
                    -0.22710958123207092,
                    -0.07474899291992188,
                    0.42574232816696167,
                    -0.2870112955570221
                ]
            },
            "neuron_1": {
                "bias": -0.5574663281440735,
                "weights": [
                    0.30581074953079224,
                    -0.44391584396362305,
                    0.5455885529518127,
                    0.6446699500083923
                ]
            },
            "neuron_2": {
                "bias": 0.239457368850708,
                "weights": [
                    0.5176457762718201,
                    0.5299509167671204,
                    0.5045717358589172,
                    -0.46928006410598755
                ]
            },
            "neuron_3": {
                "bias": 0.4298941493034363,
                "weights": [
                    1.1382076740264893,
                    0.25227516889572144,
                    0.13204443454742432,
                    -0.525977373123169
                ]
            }
        },
        "output": {
            "bias": 0.03304851055145264,
            "weights": [
                0.4882504343986511,
                -0.35387736558914185,
                -0.4647938311100006,
                -0.19536423683166504
            ]
        },
        "score": 96
    },
    "chromosome_41": {
        "layer_0": {
            "neuron_0": {
                "bias": -0.907869815826416,
                "weights": [
                    0.5947151780128479,
                    0.5054780840873718,
                    1.941964030265808
                ]
            },
            "neuron_1": {
                "bias": -0.3138902485370636,
                "weights": [
                    0.474065363407135,
                    0.5054765343666077,
                    0.0777825117111206
                ]
            },
            "neuron_2": {
                "bias": -0.35554367303848267,
                "weights": [
                    0.007455706596374512,
                    0.015915393829345703,
                    0.13413798809051514
                ]
            },
            "neuron_3": {
                "bias": 0.2500106692314148,
                "weights": [
                    0.6704297065734863,
                    -0.573543131351471,
                    -0.33956417441368103
                ]
            }
        },
        "layer_1": {
            "neuron_0": {
                "bias": 0.5791711211204529,
                "weights": [
                    -0.22710958123207092,
                    -0.07474899291992188,
                    0.42574232816696167,
                    -0.2870112955570221
                ]
            },
            "neuron_1": {
                "bias": -0.5574663281440735,
                "weights": [
                    0.30581074953079224,
                    -0.44391584396362305,
                    0.5455885529518127,
                    0.6446699500083923
                ]
            },
            "neuron_2": {
                "bias": 0.239457368850708,
                "weights": [
                    0.5176457762718201,
                    0.5299509167671204,
                    0.5045717358589172,
                    -0.46928006410598755
                ]
            },
            "neuron_3": {
                "bias": 0.4298941493034363,
                "weights": [
                    1.1382076740264893,
                    0.25227516889572144,
                    0.13204443454742432,
                    -0.525977373123169
                ]
            }
        },
        "output": {
            "bias": 0.03304851055145264,
            "weights": [
                0.4882504343986511,
                -0.35387736558914185,
                -0.4647938311100006,
                -0.19536423683166504
            ]
        },
        "score": 96
    },
    "chromosome_42": {
        "layer_0": {
            "neuron_0": {
                "bias": -0.3900662064552307,
                "weights": [
                    0.5947151780128479,
                    0.5054780840873718,
                    1.941964030265808
                ]
            },
            "neuron_1": {
                "bias": -0.3138902485370636,
                "weights": [
                    0.474065363407135,
                    0.5054765343666077,
                    0.0777825117111206
                ]
            },
            "neuron_2": {
                "bias": -0.35554367303848267,
                "weights": [
                    0.007455706596374512,
                    0.015915393829345703,
                    0.13413798809051514
                ]
            },
            "neuron_3": {
                "bias": 0.2500106692314148,
                "weights": [
                    0.6704297065734863,
                    -0.573543131351471,
                    -0.33956417441368103
                ]
            }
        },
        "layer_1": {
            "neuron_0": {
                "bias": 0.5791711211204529,
                "weights": [
                    -0.22710958123207092,
                    -0.07474899291992188,
                    0.42574232816696167,
                    -0.2870112955570221
                ]
            },
            "neuron_1": {
                "bias": -0.5574663281440735,
                "weights": [
                    0.30581074953079224,
                    -0.44391584396362305,
                    0.5455885529518127,
                    0.6446699500083923
                ]
            },
            "neuron_2": {
                "bias": 0.239457368850708,
                "weights": [
                    0.5176457762718201,
                    0.5299509167671204,
                    0.5045717358589172,
                    -0.46928006410598755
                ]
            },
            "neuron_3": {
                "bias": -0.1343943476676941,
                "weights": [
                    -0.13627910614013672,
                    0.25227516889572144,
                    0.07616996765136719,
                    -0.525977373123169
                ]
            }
        },
        "output": {
            "bias": 0.03304851055145264,
            "weights": [
                0.4882504343986511,
                -0.35387736558914185,
                -0.4647938311100006,
                -0.294322669506073
            ]
        },
        "score": 96
    },
    "chromosome_43": {
        "layer_0": {
            "neuron_0": {
                "bias": -0.3900662064552307,
                "weights": [
                    0.5947151780128479,
                    0.5054780840873718,
                    1.941964030265808
                ]
            },
            "neuron_1": {
                "bias": -0.3138902485370636,
                "weights": [
                    0.474065363407135,
                    0.5054765343666077,
                    0.0777825117111206
                ]
            },
            "neuron_2": {
                "bias": -0.35554367303848267,
                "weights": [
                    0.007455706596374512,
                    0.015915393829345703,
                    0.13413798809051514
                ]
            },
            "neuron_3": {
                "bias": 0.2500106692314148,
                "weights": [
                    0.6704297065734863,
                    -0.573543131351471,
                    -0.33956417441368103
                ]
            }
        },
        "layer_1": {
            "neuron_0": {
                "bias": 0.5791711211204529,
                "weights": [
                    -0.22710958123207092,
                    -0.07474899291992188,
                    0.42574232816696167,
                    -0.2870112955570221
                ]
            },
            "neuron_1": {
                "bias": -0.5574663281440735,
                "weights": [
                    0.30581074953079224,
                    -0.44391584396362305,
                    0.5455885529518127,
                    0.6446699500083923
                ]
            },
            "neuron_2": {
                "bias": 0.239457368850708,
                "weights": [
                    0.5176457762718201,
                    0.5299509167671204,
                    0.5045717358589172,
                    -0.46928006410598755
                ]
            },
            "neuron_3": {
                "bias": -0.1343943476676941,
                "weights": [
                    0.41993170976638794,
                    0.25227516889572144,
                    0.07616996765136719,
                    -0.525977373123169
                ]
            }
        },
        "output": {
            "bias": 0.03304851055145264,
            "weights": [
                0.4882504343986511,
                -0.35387736558914185,
                -0.4647938311100006,
                -0.19536423683166504
            ]
        },
        "score": 96
    },
    "chromosome_44": {
        "layer_0": {
            "neuron_0": {
                "bias": -0.3900662064552307,
                "weights": [
