{
    "chromosome_0": {
        "layer_0": {
            "neuron_0": {
                "bias": -0.3900662064552307,
                "weights": [
                    0.5947151780128479,
                    0.5054780840873718,
                    1.941964030265808
                ]
            },
            "neuron_1": {
                "bias": -0.3138902485370636,
                "weights": [
                    0.474065363407135,
                    0.3297799229621887,
                    -0.5550328493118286
                ]
            },
            "neuron_2": {
                "bias": -0.35554367303848267,
                "weights": [
                    0.007455706596374512,
                    0.015915393829345703,
                    0.13413798809051514
                ]
            },
            "neuron_3": {
                "bias": 0.2500106692314148,
                "weights": [
                    0.5476394295692444,
                    -0.4981544613838196,
                    -0.33956417441368103
                ]
            }
        },
        "layer_1": {
            "neuron_0": {
                "bias": 0.5791711211204529,
                "weights": [
                    -0.22710958123207092,
                    -0.07474899291992188,
                    0.42574232816696167,
                    -0.2870112955570221
                ]
            },
            "neuron_1": {
                "bias": -0.5574663281440735,
                "weights": [
                    0.30581074953079224,
                    -0.534522533416748,
                    0.5455885529518127,
                    0.6446699500083923
                ]
            },
            "neuron_2": {
                "bias": 0.239457368850708,
                "weights": [
                    0.5176457762718201,
                    0.7847902178764343,
                    0.5045717358589172,
                    -0.46928006410598755
                ]
            },
            "neuron_3": {
                "bias": -0.1343943476676941,
                "weights": [
                    0.35631251335144043,
                    0.25227516889572144,
                    0.13204443454742432,
                    -0.525977373123169
                ]
            }
        },
        "output": {
            "bias": 0.03304851055145264,
            "weights": [
                0.4882504343986511,
                -0.3976818323135376,
                -0.4647938311100006,
                -0.19536423683166504
            ]
        },
        "score": 81
    },
    "chromosome_1": {
        "layer_0": {
            "neuron_0": {
                "bias": -0.3900662064552307,
                "weights": [
                    0.5947151780128479,
                    0.5054780840873718,
                    1.941964030265808
                ]
            },
            "neuron_1": {
                "bias": -0.3138902485370636,
                "weights": [
                    0.474065363407135,
                    0.5054765343666077,
                    -0.5550328493118286
                ]
            },
            "neuron_2": {
                "bias": -0.35554367303848267,
                "weights": [
                    0.007455706596374512,
                    0.015915393829345703,
                    0.13413798809051514
                ]
            },
            "neuron_3": {
                "bias": 0.2500106692314148,
                "weights": [
                    0.5476394295692444,
                    -0.4981544613838196,
                    -0.33956417441368103
                ]
            }
        },
        "layer_1": {
            "neuron_0": {
                "bias": 0.5791711211204529,
                "weights": [
                    -0.22710958123207092,
                    -0.07474899291992188,
                    0.42574232816696167,
                    -0.2870112955570221
                ]
            },
            "neuron_1": {
                "bias": -0.5574663281440735,
                "weights": [
                    0.30581074953079224,
                    -0.534522533416748,
                    0.5455885529518127,
                    0.6446699500083923
                ]
            },
            "neuron_2": {
                "bias": 0.239457368850708,
                "weights": [
                    0.5176457762718201,
                    0.5299509167671204,
                    0.5045717358589172,
                    -0.46928006410598755
                ]
            },
            "neuron_3": {
                "bias": -0.1343943476676941,
                "weights": [
                    0.41993170976638794,
                    0.25227516889572144,
                    0.13204443454742432,
                    -0.525977373123169
                ]
            }
        },
        "output": {
            "bias": 0.03304851055145264,
            "weights": [
                0.4882504343986511,
                -0.35387736558914185,
                -0.4647938311100006,
                -0.19536423683166504
            ]
        },
        "score": 81
    },
    "chromosome_10": {
        "layer_0": {
            "neuron_0": {
                "bias": -0.3900662064552307,
                "weights": [
                    0.5947151780128479,
                    0.5054780840873718,
                    1.941964030265808
                ]
            },
            "neuron_1": {
                "bias": -0.3138902485370636,
                "weights": [
                    0.10893824696540833,
                    0.3297799229621887,
                    0.5072081685066223
                ]
            },
            "neuron_2": {
                "bias": -0.35554367303848267,
                "weights": [
                    0.007455706596374512,
                    0.015915393829345703,
                    0.13413798809051514
                ]
            },
            "neuron_3": {
                "bias": 0.2500106692314148,
                "weights": [
                    0.5476394295692444,
                    -0.4981544613838196,
                    -0.1598334014415741
                ]
            }
        },
        "layer_1": {
            "neuron_0": {
                "bias": 0.5791711211204529,
                "weights": [
                    -0.22710958123207092,
                    -0.07474899291992188,
                    0.42574232816696167,
                    -0.1721380650997162
                ]
            },
            "neuron_1": {
                "bias": -0.5574663281440735,
                "weights": [
                    0.30581074953079224,
                    -0.534522533416748,
                    0.5455885529518127,
                    0.6446699500083923
                ]
            },
            "neuron_2": {
                "bias": 0.239457368850708,
                "weights": [
                    0.5176457762718201,
                    0.7847902178764343,
                    0.5045717358589172,
                    -0.46928006410598755
                ]
            },
            "neuron_3": {
                "bias": -0.1343943476676941,
                "weights": [
                    0.35631251335144043,
                    0.25227516889572144,
                    0.13204443454742432,
                    -0.525977373123169
                ]
            }
        },
        "output": {
            "bias": 0.03304851055145264,
            "weights": [
                0.4882504343986511,
                -0.3976818323135376,
                -0.4647938311100006,
                -0.19536423683166504
            ]
        },
        "score": 81
    },
    "chromosome_11": {
        "layer_0": {
            "neuron_0": {
                "bias": -0.3900662064552307,
                "weights": [
                    0.5947151780128479,
                    0.5054780840873718,
                    1.941964030265808
                ]
            },
            "neuron_1": {
                "bias": -0.3138902485370636,
                "weights": [
                    0.10893824696540833,
                    0.5054765343666077,
                    0.0777825117111206
                ]
            },
            "neuron_2": {
                "bias": -0.35554367303848267,
                "weights": [
                    0.007455706596374512,
                    0.015915393829345703,
                    0.13413798809051514
                ]
            },
            "neuron_3": {
                "bias": 0.2500106692314148,
                "weights": [
                    0.5476394295692444,
                    -0.4981544613838196,
                    -0.1598334014415741
                ]
            }
        },
        "layer_1": {
            "neuron_0": {
                "bias": 0.5791711211204529,
                "weights": [
                    -0.22710958123207092,
                    -0.07474899291992188,
                    0.42574232816696167,
                    -0.2870112955570221
                ]
            },
            "neuron_1": {
                "bias": -0.5574663281440735,
                "weights": [
                    0.30581074953079224,
                    -0.534522533416748,
                    0.5455885529518127,
                    0.6446699500083923
                ]
            },
            "neuron_2": {
                "bias": 0.239457368850708,
                "weights": [
                    0.5176457762718201,
                    0.5299509167671204,
                    0.5045717358589172,
                    -0.46928006410598755
                ]
            },
            "neuron_3": {
                "bias": -0.1343943476676941,
                "weights": [
                    0.41993170976638794,
                    0.25227516889572144,
                    0.13204443454742432,
                    -0.525977373123169
                ]
            }
        },
        "output": {
            "bias": 0.03304851055145264,
            "weights": [
                0.4882504343986511,
                -0.35387736558914185,
                -0.4647938311100006,
                -0.19536423683166504
            ]
        },
        "score": 81
    },
    "chromosome_12": {
        "layer_0": {
            "neuron_0": {
                "bias": -0.3900662064552307,
                "weights": [
                    0.5947151780128479,
                    0.5054780840873718,
                    1.941964030265808
                ]
            },
            "neuron_1": {
                "bias": -0.3138902485370636,
                "weights": [
                    0.10893824696540833,
                    0.5054765343666077,
                    0.0777825117111206
                ]
            },
            "neuron_2": {
                "bias": -0.35554367303848267,
                "weights": [
                    0.007455706596374512,
                    0.015915393829345703,
                    0.13413798809051514
                ]
            },
            "neuron_3": {
                "bias": 0.2500106692314148,
                "weights": [
                    0.5476394295692444,
                    -0.4981544613838196,
                    -0.1598334014415741
                ]
            }
        },
        "layer_1": {
            "neuron_0": {
                "bias": 0.5791711211204529,
                "weights": [
                    -0.22710958123207092,
                    -0.07474899291992188,
                    0.42574232816696167,
                    -0.2870112955570221
                ]
            },
            "neuron_1": {
                "bias": -0.5574663281440735,
                "weights": [
                    0.30581074953079224,
                    -0.534522533416748,
                    0.5455885529518127,
                    0.6446699500083923
                ]
            },
            "neuron_2": {
                "bias": 0.239457368850708,
                "weights": [
                    0.5176457762718201,
                    0.5299509167671204,
                    0.5045717358589172,
                    -0.46928006410598755
                ]
            },
            "neuron_3": {
                "bias": -0.1343943476676941,
                "weights": [
                    0.41993170976638794,
                    0.25227516889572144,
                    0.13204443454742432,
                    -0.525977373123169
                ]
            }
        },
        "output": {
            "bias": 0.03304851055145264,
            "weights": [
                0.4882504343986511,
                -0.35387736558914185,
                -0.4647938311100006,
                -0.19536423683166504
            ]
        },
        "score": 81
    },
    "chromosome_13": {
        "layer_0": {
            "neuron_0": {
                "bias": -0.3900662064552307,
                "weights": [
                    0.5947151780128479,
                    0.5054780840873718,
                    1.941964030265808
                ]
            },
            "neuron_1": {
                "bias": -0.3138902485370636,
                "weights": [
                    0.10893824696540833,
                    0.3297799229621887,
                    0.0777825117111206
                ]
            },
            "neuron_2": {
                "bias": -0.35554367303848267,
                "weights": [
                    0.007455706596374512,
                    0.015915393829345703,
                    0.13413798809051514
                ]
            },
            "neuron_3": {
                "bias": 0.2500106692314148,
                "weights": [
                    0.5476394295692444,
                    -0.4981544613838196,
                    -0.1598334014415741
                ]
            }
        },
        "layer_1": {
            "neuron_0": {
                "bias": 0.5791711211204529,
                "weights": [
                    -0.22710958123207092,
                    -0.07474899291992188,
                    0.42574232816696167,
                    -0.2870112955570221
                ]
            },
            "neuron_1": {
                "bias": -0.5574663281440735,
                "weights": [
                    0.30581074953079224,
                    -0.534522533416748,
                    0.5455885529518127,
                    0.6446699500083923
                ]
            },
            "neuron_2": {
                "bias": 0.239457368850708,
                "weights": [
                    0.5176457762718201,
                    0.7847902178764343,
                    0.5045717358589172,
                    -0.46928006410598755
                ]
            },
            "neuron_3": {
                "bias": -0.1343943476676941,
                "weights": [
                    0.35631251335144043,
                    0.25227516889572144,
                    0.13204443454742432,
                    -0.525977373123169
                ]
            }
        },
        "output": {
            "bias": 0.03304851055145264,
            "weights": [
                0.4882504343986511,
                -0.3976818323135376,
                -0.4647938311100006,
                -0.19536423683166504
            ]
        },
        "score": 81
    },
    "chromosome_14": {
        "layer_0": {
            "neuron_0": {
                "bias": -0.3900662064552307,
                "weights": [
                    0.5947151780128479,
                    0.5054780840873718,
                    1.941964030265808
                ]
            },
            "neuron_1": {
                "bias": -0.3138902485370636,
                "weights": [
                    0.10893824696540833,
                    0.3297799229621887,
                    0.0777825117111206
                ]
            },
            "neuron_2": {
                "bias": -0.35554367303848267,
                "weights": [
                    0.007455706596374512,
                    0.015915393829345703,
                    0.13413798809051514
                ]
            },
            "neuron_3": {
                "bias": 0.2500106692314148,
                "weights": [
                    0.5476394295692444,
                    -0.4981544613838196,
                    -0.1598334014415741
                ]
            }
        },
        "layer_1": {
            "neuron_0": {
                "bias": 0.5791711211204529,
                "weights": [
                    -0.22710958123207092,
                    -0.07474899291992188,
                    0.42574232816696167,
                    -0.4459196627140045
                ]
            },
            "neuron_1": {
                "bias": -0.5574663281440735,
                "weights": [
                    0.30581074953079224,
                    -0.534522533416748,
                    0.5455885529518127,
                    0.6446699500083923
                ]
            },
            "neuron_2": {
                "bias": 0.239457368850708,
                "weights": [
                    0.5176457762718201,
                    0.5299509167671204,
                    0.5045717358589172,
                    -0.46928006410598755
                ]
            },
            "neuron_3": {
                "bias": -0.1343943476676941,
                "weights": [
                    0.41993170976638794,
                    0.25227516889572144,
                    0.13204443454742432,
                    -0.525977373123169
                ]
            }
        },
        "output": {
            "bias": 0.03304851055145264,
            "weights": [
                0.4882504343986511,
                -0.35387736558914185,
                -0.4647938311100006,
                -0.19536423683166504
            ]
        },
        "score": 81
    },
    "chromosome_15": {
        "layer_0": {
            "neuron_0": {
                "bias": -0.3900662064552307,
                "weights": [
                    0.5947151780128479,
                    0.5054780840873718,
                    1.941964030265808
                ]
            },
            "neuron_1": {
                "bias": -0.3138902485370636,
                "weights": [
                    0.10893824696540833,
                    0.3297799229621887,
                    0.0777825117111206
                ]
            },
            "neuron_2": {
                "bias": -0.35554367303848267,
                "weights": [
                    0.007455706596374512,
                    0.015915393829345703,
                    0.13413798809051514
                ]
            },
            "neuron_3": {
                "bias": 0.2500106692314148,
                "weights": [
                    0.5476394295692444,
                    -0.4981544613838196,
                    -0.1598334014415741
                ]
            }
        },
        "layer_1": {
            "neuron_0": {
                "bias": 0.5791711211204529,
                "weights": [
                    -0.22710958123207092,
                    -0.07474899291992188,
                    0.42574232816696167,
                    -0.2870112955570221
                ]
            },
            "neuron_1": {
                "bias": -0.5574663281440735,
                "weights": [
                    0.30581074953079224,
                    -0.534522533416748,
                    0.5455885529518127,
                    0.6446699500083923
                ]
            },
            "neuron_2": {
                "bias": 0.239457368850708,
                "weights": [
                    0.5176457762718201,
                    0.5299509167671204,
                    0.5045717358589172,
                    -0.46928006410598755
                ]
            },
            "neuron_3": {
                "bias": -0.1343943476676941,
                "weights": [
                    0.41993170976638794,
                    0.25227516889572144,
                    0.13204443454742432,
                    -0.525977373123169
                ]
            }
        },
        "output": {
            "bias": 0.03304851055145264,
            "weights": [
                0.4882504343986511,
                -0.35387736558914185,
                -0.4647938311100006,
                -0.19536423683166504
            ]
        },
        "score": 81
    },
    "chromosome_16": {
        "layer_0": {
            "neuron_0": {
                "bias": -0.3900662064552307,
                "weights": [
                    0.5947151780128479,
                    0.5054780840873718,
                    1.941964030265808
                ]
            },
            "neuron_1": {
                "bias": -0.3138902485370636,
                "weights": [
                    0.10893824696540833,
                    0.5054765343666077,
                    0.0777825117111206
                ]
            },
            "neuron_2": {
                "bias": -0.35554367303848267,
                "weights": [
                    0.17329365015029907,
                    0.015915393829345703,
                    0.13413798809051514
                ]
            },
            "neuron_3": {
                "bias": 0.2500106692314148,
                "weights": [
                    0.5476394295692444,
                    -0.4981544613838196,
                    -0.1598334014415741
                ]
            }
        },
        "layer_1": {
            "neuron_0": {
                "bias": 0.5791711211204529,
                "weights": [
                    -0.22710958123207092,
                    -0.07474899291992188,
                    0.42574232816696167,
                    -0.2870112955570221
                ]
            },
            "neuron_1": {
                "bias": -0.5574663281440735,
                "weights": [
                    0.30581074953079224,
                    -0.534522533416748,
                    0.5455885529518127,
                    0.6446699500083923
                ]
            },
            "neuron_2": {
                "bias": 0.239457368850708,
                "weights": [
                    0.5176457762718201,
                    0.5299509167671204,
                    0.5045717358589172,
                    -0.46928006410598755
                ]
            },
            "neuron_3": {
                "bias": -0.1343943476676941,
                "weights": [
                    0.41993170976638794,
                    0.25227516889572144,
                    0.13204443454742432,
                    -0.525977373123169
                ]
            }
        },
        "output": {
            "bias": 0.03304851055145264,
            "weights": [
                0.4882504343986511,
                -0.35387736558914185,
                -0.4647938311100006,
                -0.19536423683166504
            ]
        },
        "score": 81
    },
    "chromosome_17": {
        "layer_0": {
            "neuron_0": {
                "bias": -0.3900662064552307,
                "weights": [
                    0.5947151780128479,
                    0.5054780840873718,
                    1.941964030265808
                ]
            },
            "neuron_1": {
                "bias": -0.3138902485370636,
                "weights": [
                    0.10893824696540833,
                    0.3297799229621887,
                    0.0777825117111206
                ]
            },
            "neuron_2": {
                "bias": -0.35554367303848267,
                "weights": [
                    0.007455706596374512,
                    0.015915393829345703,
                    0.13413798809051514
                ]
            },
            "neuron_3": {
                "bias": 0.2500106692314148,
                "weights": [
                    0.5476394295692444,
                    -0.4981544613838196,
                    -0.1598334014415741
                ]
            }
        },
        "layer_1": {
            "neuron_0": {
                "bias": 0.5791711211204529,
                "weights": [
                    -0.22710958123207092,
                    -0.07474899291992188,
                    0.42574232816696167,
                    -0.2870112955570221
                ]
            },
            "neuron_1": {
                "bias": -0.5574663281440735,
                "weights": [
                    0.30581074953079224,
                    -0.534522533416748,
                    0.5455885529518127,
                    0.6446699500083923
                ]
            },
            "neuron_2": {
                "bias": 0.239457368850708,
                "weights": [
                    0.5176457762718201,
                    0.5299509167671204,
                    0.5045717358589172,
                    -0.46928006410598755
                ]
            },
            "neuron_3": {
                "bias": -0.1343943476676941,
                "weights": [
                    0.41993170976638794,
                    0.25227516889572144,
                    0.13204443454742432,
                    -0.525977373123169
                ]
            }
        },
        "output": {
            "bias": 0.03304851055145264,
            "weights": [
                0.4882504343986511,
                -0.35387736558914185,
                -0.4647938311100006,
                -0.19536423683166504
            ]
        },
        "score": 81
    },
    "chromosome_18": {
        "layer_0": {
            "neuron_0": {
                "bias": -0.3900662064552307,
                "weights": [
                    0.5947151780128479,
                    0.5054780840873718,
                    1.941964030265808
                ]
            },
            "neuron_1": {
                "bias": -0.3138902485370636,
                "weights": [
                    0.10893824696540833,
                    0.3297799229621887,
                    0.0777825117111206
                ]
            },
            "neuron_2": {
                "bias": -0.35554367303848267,
                "weights": [
                    0.007455706596374512,
                    0.015915393829345703,
                    0.13413798809051514
                ]
            },
            "neuron_3": {
                "bias": 0.2500106692314148,
                "weights": [
                    0.5476394295692444,
                    -0.4981544613838196,
                    -0.1598334014415741
                ]
            }
        },
        "layer_1": {
            "neuron_0": {
                "bias": 0.5791711211204529,
                "weights": [
                    -0.22710958123207092,
                    -0.3573388457298279,
                    0.42574232816696167,
                    -1.1092723608016968
                ]
            },
            "neuron_1": {
                "bias": -0.5574663281440735,
                "weights": [
                    0.30581074953079224,
                    -0.534522533416748,
                    0.5455885529518127,
                    0.6446699500083923
                ]
            },
            "neuron_2": {
                "bias": 0.239457368850708,
                "weights": [
                    0.5176457762718201,
                    0.5299509167671204,
                    0.5045717358589172,
                    -0.3318302631378174
                ]
            },
            "neuron_3": {
                "bias": -0.1343943476676941,
                "weights": [
                    0.41993170976638794,
                    0.25227516889572144,
                    0.13204443454742432,
                    -0.525977373123169
                ]
            }
        },
        "output": {
            "bias": 0.03304851055145264,
            "weights": [
                0.4882504343986511,
                -0.35387736558914185,
                -0.4647938311100006,
                -0.19536423683166504
            ]
        },
        "score": 81
    },
    "chromosome_19": {
        "layer_0": {
            "neuron_0": {
                "bias": -0.3900662064552307,
                "weights": [
                    0.5947151780128479,
                    0.5054780840873718,
                    1.941964030265808
                ]
            },
            "neuron_1": {
                "bias": -0.3138902485370636,
                "weights": [
                    0.10893824696540833,
                    0.5054765343666077,
                    0.0777825117111206
                ]
            },
            "neuron_2": {
                "bias": -0.35554367303848267,
                "weights": [
                    0.007455706596374512,
                    0.015915393829345703,
                    0.13413798809051514
                ]
            },
            "neuron_3": {
                "bias": 0.2500106692314148,
                "weights": [
                    0.5476394295692444,
                    -0.4981544613838196,
                    -0.1598334014415741
                ]
            }
        },
        "layer_1": {
            "neuron_0": {
                "bias": 0.5791711211204529,
                "weights": [
                    -0.22710958123207092,
                    -0.07474899291992188,
                    0.42574232816696167,
                    -0.2870112955570221
                ]
            },
            "neuron_1": {
                "bias": -0.5574663281440735,
                "weights": [
                    0.30581074953079224,
                    -0.534522533416748,
                    0.5455885529518127,
                    0.6446699500083923
                ]
            },
            "neuron_2": {
                "bias": 0.239457368850708,
                "weights": [
                    0.5176457762718201,
                    0.5299509167671204,
                    0.5045717358589172,
                    -0.46928006410598755
                ]
            },
            "neuron_3": {
                "bias": -0.1343943476676941,
                "weights": [
                    0.41993170976638794,
                    0.25227516889572144,
                    0.13204443454742432,
                    -0.525977373123169
                ]
            }
        },
        "output": {
            "bias": 0.03304851055145264,
            "weights": [
                0.4882504343986511,
                -0.35387736558914185,
                -0.4647938311100006,
                -0.19536423683166504
            ]
        },
        "score": 81
    },
    "chromosome_2": {
        "layer_0": {
            "neuron_0": {
                "bias": -0.3900662064552307,
                "weights": [
                    0.5947151780128479,
                    0.5054780840873718,
                    1.941964030265808
                ]
            },
            "neuron_1": {
                "bias": -0.3138902485370636,
                "weights": [
                    0.474065363407135,
                    0.5054765343666077,
                    -0.5550328493118286
                ]
            },
            "neuron_2": {
                "bias": -0.35554367303848267,
                "weights": [
                    0.007455706596374512,
                    0.015915393829345703,
                    0.13413798809051514
                ]
            },
            "neuron_3": {
                "bias": 0.2500106692314148,
                "weights": [
                    0.5476394295692444,
                    -0.4981544613838196,
                    -0.33956417441368103
                ]
            }
        },
        "layer_1": {
            "neuron_0": {
                "bias": 0.5791711211204529,
                "weights": [
                    -0.22710958123207092,
                    -0.07474899291992188,
                    0.42574232816696167,
                    -0.2870112955570221
                ]
            },
            "neuron_1": {
                "bias": -0.5574663281440735,
                "weights": [
                    0.30581074953079224,
                    -0.534522533416748,
                    0.5455885529518127,
                    0.6446699500083923
                ]
            },
            "neuron_2": {
                "bias": 0.239457368850708,
                "weights": [
                    0.5176457762718201,
                    0.5299509167671204,
                    0.5045717358589172,
                    -0.46928006410598755
                ]
            },
            "neuron_3": {
                "bias": -0.1343943476676941,
                "weights": [
                    0.41993170976638794,
                    0.25227516889572144,
                    0.13204443454742432,
                    -0.525977373123169
                ]
            }
        },
        "output": {
            "bias": 0.03304851055145264,
            "weights": [
                0.4882504343986511,
                -0.35387736558914185,
                -0.4647938311100006,
                -0.19536423683166504
            ]
        },
        "score": 81
    },
    "chromosome_20": {
        "layer_0": {
            "neuron_0": {
                "bias": -0.3900662064552307,
                "weights": [
                    0.5947151780128479,
                    0.5054780840873718,
                    1.941964030265808
                ]
            },
            "neuron_1": {
                "bias": -0.3138902485370636,
                "weights": [
                    0.7298260927200317,
                    0.3297799229621887,
                    0.0777825117111206
                ]
            },
            "neuron_2": {
                "bias": -0.35554367303848267,
                "weights": [
                    0.007455706596374512,
                    0.015915393829345703,
                    0.13413798809051514
                ]
            },
            "neuron_3": {
                "bias": 0.2500106692314148,
                "weights": [
                    0.5476394295692444,
                    -0.4981544613838196,
                    -0.33956417441368103
                ]
            }
        },
        "layer_1": {
            "neuron_0": {
                "bias": 0.5791711211204529,
                "weights": [
                    -0.22710958123207092,
                    -0.07474899291992188,
                    0.42574232816696167,
                    -0.2870112955570221
                ]
            },
            "neuron_1": {
                "bias": -0.5574663281440735,
                "weights": [
                    0.30581074953079224,
                    -0.534522533416748,
                    0.5455885529518127,
                    0.6446699500083923
                ]
            },
            "neuron_2": {
                "bias": 0.239457368850708,
                "weights": [
                    0.5176457762718201,
                    0.7847902178764343,
                    0.5045717358589172,
                    -0.46928006410598755
                ]
            },
            "neuron_3": {
                "bias": -0.1343943476676941,
                "weights": [
                    0.35631251335144043,
                    0.25227516889572144,
                    0.13204443454742432,
                    -0.525977373123169
                ]
            }
        },
        "output": {
            "bias": 0.03304851055145264,
            "weights": [
                0.4882504343986511,
                -0.3976818323135376,
                -0.4647938311100006,
                -0.19536423683166504
            ]
        },
        "score": 81
    },
    "chromosome_21": {
        "layer_0": {
            "neuron_0": {
                "bias": -0.3900662064552307,
                "weights": [
                    0.5947151780128479,
                    0.5326069593429565,
                    1.941964030265808
                ]
            },
            "neuron_1": {
                "bias": -0.3138902485370636,
                "weights": [
                    0.474065363407135,
                    0.5054765343666077,
                    0.0777825117111206
                ]
            },
            "neuron_2": {
                "bias": -0.35554367303848267,
                "weights": [
                    0.007455706596374512,
                    0.015915393829345703,
                    0.13413798809051514
                ]
            },
            "neuron_3": {
                "bias": 0.2500106692314148,
                "weights": [
                    0.5476394295692444,
                    -0.4981544613838196,
                    -0.33956417441368103
                ]
            }
        },
        "layer_1": {
            "neuron_0": {
                "bias": 0.5791711211204529,
                "weights": [
                    -0.22710958123207092,
                    -0.07474899291992188,
                    0.42574232816696167,
                    -0.2870112955570221
                ]
            },
            "neuron_1": {
                "bias": -0.5574663281440735,
                "weights": [
                    0.30581074953079224,
                    -0.534522533416748,
                    0.5455885529518127,
                    0.6446699500083923
                ]
            },
            "neuron_2": {
                "bias": 0.239457368850708,
                "weights": [
                    0.5176457762718201,
                    0.5299509167671204,
                    0.5045717358589172,
                    -0.46928006410598755
                ]
            },
            "neuron_3": {
                "bias": -0.1343943476676941,
                "weights": [
                    0.41993170976638794,
                    0.25227516889572144,
                    0.13204443454742432,
                    -0.525977373123169
                ]
            }
        },
        "output": {
            "bias": 0.03304851055145264,
            "weights": [
                0.4882504343986511,
                -0.35387736558914185,
                -0.4647938311100006,
                -0.19536423683166504
            ]
        },
        "score": 81
    },
    "chromosome_22": {
        "layer_0": {
            "neuron_0": {
                "bias": -0.3900662064552307,
                "weights": [
                    0.5947151780128479,
                    0.5054780840873718,
                    1.941964030265808
                ]
            },
            "neuron_1": {
                "bias": -0.3138902485370636,
                "weights": [
                    0.474065363407135,
                    0.5054765343666077,
                    0.0777825117111206
                ]
            },
            "neuron_2": {
                "bias": -0.35554367303848267,
                "weights": [
                    0.007455706596374512,
                    0.015915393829345703,
                    0.13413798809051514
                ]
            },
            "neuron_3": {
                "bias": 0.2500106692314148,
                "weights": [
                    0.5476394295692444,
                    -0.4981544613838196,
                    -0.33956417441368103
                ]
            }
        },
        "layer_1": {
            "neuron_0": {
                "bias": 0.5791711211204529,
                "weights": [
                    -0.22710958123207092,
                    -0.07474899291992188,
                    0.42574232816696167,
                    -0.2870112955570221
                ]
            },
            "neuron_1": {
                "bias": -0.5574663281440735,
                "weights": [
                    0.30581074953079224,
                    -0.534522533416748,
                    0.5455885529518127,
                    0.6446699500083923
                ]
            },
            "neuron_2": {
                "bias": 0.239457368850708,
                "weights": [
                    0.5176457762718201,
                    0.5299509167671204,
                    0.5045717358589172,
                    -0.46928006410598755
                ]
            },
            "neuron_3": {
                "bias": -0.1343943476676941,
                "weights": [
                    0.41993170976638794,
                    0.25227516889572144,
                    0.13204443454742432,
                    -0.525977373123169
                ]
            }
        },
        "output": {
            "bias": 0.03304851055145264,
            "weights": [
                0.4882504343986511,
                -0.35387736558914185,
                -0.4647938311100006,
                -0.19536423683166504
            ]
        },
        "score": 81
    },
    "chromosome_23": {
        "layer_0": {
            "neuron_0": {
                "bias": -0.3900662064552307,
                "weights": [
                    0.5947151780128479,
                    0.5054780840873718,
                    1.941964030265808
                ]
            },
            "neuron_1": {
                "bias": -0.3138902485370636,
                "weights": [
                    0.474065363407135,
                    0.3297799229621887,
                    0.0777825117111206
                ]
            },
            "neuron_2": {
                "bias": -0.35554367303848267,
                "weights": [
                    0.007455706596374512,
                    0.015915393829345703,
                    0.13413798809051514
                ]
            },
            "neuron_3": {
                "bias": 0.2500106692314148,
                "weights": [
                    0.5476394295692444,
                    -0.4981544613838196,
                    -0.33956417441368103
                ]
            }
        },
        "layer_1": {
            "neuron_0": {
                "bias": 0.5791711211204529,
                "weights": [
                    -0.22710958123207092,
                    -0.07474899291992188,
                    0.42574232816696167,
                    -0.2870112955570221
                ]
            },
            "neuron_1": {
                "bias": -0.5574663281440735,
                "weights": [
                    0.30581074953079224,
                    -0.534522533416748,
                    0.5455885529518127,
                    0.6446699500083923
                ]
            },
            "neuron_2": {
                "bias": 0.239457368850708,
                "weights": [
                    0.5176457762718201,
                    0.7847902178764343,
                    0.5045717358589172,
                    -0.46928006410598755
                ]
            },
            "neuron_3": {
                "bias": -0.1343943476676941,
                "weights": [
                    0.35631251335144043,
                    0.25227516889572144,
                    0.13204443454742432,
                    -0.525977373123169
                ]
            }
        },
        "output": {
            "bias": 0.03304851055145264,
            "weights": [
                0.4882504343986511,
                -0.3976818323135376,
                -0.4647938311100006,
                -0.19536423683166504
            ]
        },
        "score": 81
    },
    "chromosome_24": {
        "layer_0": {
            "neuron_0": {
                "bias": -0.3900662064552307,
                "weights": [
                    0.5947151780128479,
                    0.5054780840873718,
                    1.941964030265808
                ]
            },
            "neuron_1": {
                "bias": -0.3138902485370636,
                "weights": [
                    0.474065363407135,
                    0.3297799229621887,
                    0.0777825117111206
                ]
            },
            "neuron_2": {
                "bias": -0.35554367303848267,
                "weights": [
                    0.007455706596374512,
                    0.015915393829345703,
                    0.13413798809051514
                ]
            },
            "neuron_3": {
                "bias": 0.2500106692314148,
                "weights": [
                    0.5476394295692444,
                    -0.4981544613838196,
                    -0.33956417441368103
                ]
            }
        },
        "layer_1": {
            "neuron_0": {
                "bias": 0.5791711211204529,
                "weights": [
                    -0.22710958123207092,
                    -0.07474899291992188,
                    0.42574232816696167,
                    -0.4459196627140045
                ]
            },
            "neuron_1": {
                "bias": -0.5574663281440735,
                "weights": [
                    0.30581074953079224,
                    -0.534522533416748,
                    0.5455885529518127,
                    0.6446699500083923
                ]
            },
            "neuron_2": {
                "bias": 0.239457368850708,
                "weights": [
                    0.5176457762718201,
                    0.5299509167671204,
                    0.5045717358589172,
                    -0.46928006410598755
                ]
            },
            "neuron_3": {
                "bias": -0.1343943476676941,
                "weights": [
                    0.41993170976638794,
                    0.25227516889572144,
                    0.13204443454742432,
                    -0.525977373123169
                ]
            }
        },
        "output": {
            "bias": 0.03304851055145264,
            "weights": [
                0.4882504343986511,
                -0.35387736558914185,
                -0.4647938311100006,
                -0.19536423683166504
            ]
        },
        "score": 81
    },
    "chromosome_25": {
        "layer_0": {
            "neuron_0": {
                "bias": -0.3900662064552307,
                "weights": [
                    0.5947151780128479,
                    0.5054780840873718,
                    1.941964030265808
                ]
            },
            "neuron_1": {
                "bias": -0.3138902485370636,
                "weights": [
                    0.474065363407135,
                    0.3297799229621887,
                    0.0777825117111206
                ]
            },
            "neuron_2": {
                "bias": -0.35554367303848267,
                "weights": [
                    0.007455706596374512,
                    0.015915393829345703,
                    0.13413798809051514
                ]
            },
            "neuron_3": {
                "bias": 0.2500106692314148,
                "weights": [
                    0.5476394295692444,
                    -0.4981544613838196,
                    -0.33956417441368103
                ]
            }
        },
        "layer_1": {
            "neuron_0": {
                "bias": 0.5791711211204529,
                "weights": [
                    -0.22710958123207092,
                    -0.07474899291992188,
                    0.42574232816696167,
                    -0.2870112955570221
                ]
            },
            "neuron_1": {
                "bias": -0.5574663281440735,
                "weights": [
                    0.30581074953079224,
                    -0.534522533416748,
                    0.5455885529518127,
                    0.6446699500083923
                ]
            },
            "neuron_2": {
                "bias": 0.239457368850708,
                "weights": [
                    0.5176457762718201,
                    0.5299509167671204,
                    0.5045717358589172,
                    -0.46928006410598755
                ]
            },
            "neuron_3": {
                "bias": -0.1343943476676941,
                "weights": [
                    0.41993170976638794,
                    0.25227516889572144,
                    0.13204443454742432,
                    -0.525977373123169
                ]
            }
        },
        "output": {
            "bias": 0.03304851055145264,
            "weights": [
                0.4882504343986511,
                -0.35387736558914185,
                -0.4647938311100006,
                -0.19536423683166504
            ]
        },
        "score": 81
    },
    "chromosome_26": {
        "layer_0": {
            "neuron_0": {
                "bias": -0.3900662064552307,
                "weights": [
                    0.5947151780128479,
                    0.5054780840873718,
                    1.941964030265808
                ]
            },
            "neuron_1": {
                "bias": -0.3138902485370636,
                "weights": [
                    0.474065363407135,
                    0.5054765343666077,
                    0.0777825117111206
                ]
            },
            "neuron_2": {
                "bias": -0.35554367303848267,
                "weights": [
                    0.007455706596374512,
                    0.015915393829345703,
                    0.13413798809051514
                ]
            },
            "neuron_3": {
                "bias": 0.2500106692314148,
                "weights": [
                    0.5476394295692444,
                    -0.4981544613838196,
                    -0.33956417441368103
                ]
            }
        },
        "layer_1": {
            "neuron_0": {
                "bias": 0.5791711211204529,
                "weights": [
                    -0.22710958123207092,
                    -0.07474899291992188,
                    0.42574232816696167,
                    -0.2870112955570221
                ]
            },
            "neuron_1": {
                "bias": -0.5574663281440735,
                "weights": [
                    0.30581074953079224,
                    -0.534522533416748,
                    0.5455885529518127,
                    0.6446699500083923
                ]
            },
            "neuron_2": {
                "bias": 0.239457368850708,
                "weights": [
                    0.5176457762718201,
                    0.5299509167671204,
                    0.5045717358589172,
                    -0.46928006410598755
                ]
            },
            "neuron_3": {
                "bias": -0.1343943476676941,
                "weights": [
                    0.41993170976638794,
                    0.25227516889572144,
                    0.13204443454742432,
                    -0.525977373123169
                ]
            }
        },
        "output": {
            "bias": 0.03304851055145264,
            "weights": [
                0.4882504343986511,
                -0.35387736558914185,
                -0.4647938311100006,
                -0.19536423683166504
            ]
        },
        "score": 81
    },
    "chromosome_27": {
        "layer_0": {
            "neuron_0": {
                "bias": -0.3900662064552307,
                "weights": [
                    0.5947151780128479,
                    0.5054780840873718,
                    1.941964030265808
                ]
            },
            "neuron_1": {
                "bias": -0.3138902485370636,
                "weights": [
                    0.474065363407135,
                    0.3297799229621887,
                    0.0777825117111206
                ]
            },
            "neuron_2": {
                "bias": -0.35554367303848267,
                "weights": [
                    0.007455706596374512,
                    0.015915393829345703,
                    0.13413798809051514
                ]
            },
            "neuron_3": {
                "bias": 0.2500106692314148,
                "weights": [
                    0.5476394295692444,
                    -0.4981544613838196,
                    -0.33956417441368103
                ]
            }
        },
        "layer_1": {
            "neuron_0": {
                "bias": 0.5791711211204529,
                "weights": [
                    -0.22710958123207092,
                    -0.07474899291992188,
                    0.42574232816696167,
                    -0.2870112955570221
                ]
            },
            "neuron_1": {
                "bias": -0.5574663281440735,
                "weights": [
                    0.30581074953079224,
                    -0.534522533416748,
                    0.5455885529518127,
                    0.6446699500083923
                ]
            },
            "neuron_2": {
                "bias": 0.239457368850708,
                "weights": [
                    0.5176457762718201,
                    0.5299509167671204,
                    0.5045717358589172,
                    -0.46928006410598755
                ]
            },
            "neuron_3": {
                "bias": -0.1343943476676941,
                "weights": [
                    0.41993170976638794,
                    0.25227516889572144,
                    0.13204443454742432,
                    -0.525977373123169
                ]
            }
        },
        "output": {
            "bias": 0.03304851055145264,
            "weights": [
                0.4882504343986511,
                -0.35387736558914185,
                -0.4647938311100006,
                -0.19536423683166504
            ]
        },
        "score": 81
    },
    "chromosome_28": {
        "layer_0": {
            "neuron_0": {
                "bias": -0.3900662064552307,
                "weights": [
                    0.5947151780128479,
                    0.5054780840873718,
                    1.941964030265808
                ]
            },
            "neuron_1": {
                "bias": -0.3138902485370636,
                "weights": [
                    0.474065363407135,
                    0.3297799229621887,
                    0.0777825117111206
                ]
            },
            "neuron_2": {
                "bias": -0.35554367303848267,
                "weights": [
                    0.007455706596374512,
                    0.015915393829345703,
                    0.13413798809051514
                ]
            },
            "neuron_3": {
                "bias": 0.2500106692314148,
                "weights": [
                    0.5476394295692444,
                    -0.4981544613838196,
                    -0.33956417441368103
                ]
            }
        },
        "layer_1": {
            "neuron_0": {
                "bias": 0.5791711211204529,
                "weights": [
                    -0.22710958123207092,
                    -0.3573388457298279,
                    0.42574232816696167,
                    -1.1092723608016968
                ]
            },
            "neuron_1": {
                "bias": -0.5574663281440735,
                "weights": [
                    0.30581074953079224,
                    -0.534522533416748,
                    0.5455885529518127,
                    0.6446699500083923
                ]
            },
            "neuron_2": {
                "bias": 0.239457368850708,
                "weights": [
                    0.5176457762718201,
                    0.5299509167671204,
                    0.5045717358589172,
                    -0.3318302631378174
                ]
            },
            "neuron_3": {
                "bias": -0.1343943476676941,
                "weights": [
                    0.41993170976638794,
                    0.25227516889572144,
                    0.13204443454742432,
                    -0.525977373123169
                ]
            }
        },
        "output": {
            "bias": 0.03304851055145264,
            "weights": [
                0.4882504343986511,
                -0.35387736558914185,
                -0.4647938311100006,
                -0.19536423683166504
            ]
        },
        "score": 81
    },
    "chromosome_29": {
        "layer_0": {
            "neuron_0": {
                "bias": -0.3900662064552307,
                "weights": [
                    0.5947151780128479,
                    0.44040441513061523,
                    1.941964030265808
                ]
            },
            "neuron_1": {
                "bias": -0.3138902485370636,
                "weights": [
                    0.474065363407135,
                    0.5054765343666077,
                    0.0777825117111206
                ]
            },
            "neuron_2": {
                "bias": -0.35554367303848267,
                "weights": [
                    0.007455706596374512,
                    0.015915393829345703,
                    0.13413798809051514
                ]
            },
            "neuron_3": {
                "bias": 0.2500106692314148,
                "weights": [
                    0.5476394295692444,
                    -0.4981544613838196,
                    -0.33956417441368103
                ]
            }
        },
        "layer_1": {
            "neuron_0": {
                "bias": 0.5791711211204529,
                "weights": [
                    -0.22710958123207092,
                    -0.07474899291992188,
                    0.42574232816696167,
                    -0.2870112955570221
                ]
            },
            "neuron_1": {
                "bias": -0.5574663281440735,
                "weights": [
                    0.30581074953079224,
                    -0.534522533416748,
                    0.5455885529518127,
                    0.6446699500083923
                ]
            },
            "neuron_2": {
                "bias": 0.239457368850708,
                "weights": [
                    0.5176457762718201,
                    0.5299509167671204,
                    0.5045717358589172,
                    -0.46928006410598755
                ]
            },
            "neuron_3": {
                "bias": -0.1343943476676941,
                "weights": [
                    0.41993170976638794,
                    0.25227516889572144,
                    0.13204443454742432,
                    -0.525977373123169
                ]
            }
        },
        "output": {
            "bias": 0.03304851055145264,
            "weights": [
                0.4882504343986511,
                -0.35387736558914185,
                -0.4647938311100006,
                -0.19536423683166504
            ]
        },
        "score": 81
    },
    "chromosome_3": {
        "layer_0": {
            "neuron_0": {
                "bias": -0.3900662064552307,
                "weights": [
                    0.5947151780128479,
                    0.5054780840873718,
                    1.941964030265808
                ]
            },
            "neuron_1": {
                "bias": -0.17475053668022156,
                "weights": [
                    0.474065363407135,
                    0.3297799229621887,
                    -0.5550328493118286
                ]
            },
            "neuron_2": {
                "bias": -0.35554367303848267,
                "weights": [
                    0.007455706596374512,
                    0.015915393829345703,
                    0.13413798809051514
                ]
            },
            "neuron_3": {
                "bias": 0.2500106692314148,
                "weights": [
                    0.5476394295692444,
                    -0.4981544613838196,
                    -0.33956417441368103
                ]
            }
        },
        "layer_1": {
            "neuron_0": {
                "bias": 0.5791711211204529,
                "weights": [
                    -0.22710958123207092,
                    -0.07474899291992188,
                    0.42574232816696167,
                    -0.2870112955570221
                ]
            },
            "neuron_1": {
                "bias": -0.5574663281440735,
                "weights": [
                    0.30581074953079224,
                    -0.534522533416748,
                    0.5455885529518127,
                    0.6446699500083923
                ]
            },
            "neuron_2": {
                "bias": 0.239457368850708,
                "weights": [
                    0.5176457762718201,
                    0.7847902178764343,
                    0.5045717358589172,
                    -0.46928006410598755
                ]
            },
            "neuron_3": {
                "bias": -0.1343943476676941,
                "weights": [
                    0.35631251335144043,
                    0.25227516889572144,
                    0.13204443454742432,
                    -0.525977373123169
                ]
            }
        },
        "output": {
            "bias": 0.03304851055145264,
            "weights": [
                0.4882504343986511,
                -0.3976818323135376,
                -0.4647938311100006,
                -0.19536423683166504
            ]
        },
        "score": 81
    },
    "chromosome_30": {
        "layer_0": {
            "neuron_0": {
                "bias": -0.3900662064552307,
                "weights": [
                    0.5947151780128479,
                    0.5054780840873718,
                    1.941964030265808
                ]
            },
            "neuron_1": {
                "bias": -0.3138902485370636,
                "weights": [
                    0.474065363407135,
                    0.3297799229621887,
                    0.0777825117111206
                ]
            },
            "neuron_2": {
                "bias": -0.35554367303848267,
                "weights": [
                    0.007455706596374512,
                    0.015915393829345703,
                    0.13413798809051514
                ]
            },
            "neuron_3": {
                "bias": 0.2500106692314148,
                "weights": [
                    0.5476394295692444,
                    -0.4981544613838196,
                    -0.33956417441368103
                ]
            }
        },
        "layer_1": {
            "neuron_0": {
                "bias": 0.5791711211204529,
                "weights": [
                    -0.22710958123207092,
                    -0.07474899291992188,
                    0.42574232816696167,
                    -0.2870112955570221
                ]
            },
            "neuron_1": {
                "bias": -0.5574663281440735,
                "weights": [
                    0.30581074953079224,
                    -0.534522533416748,
                    0.5455885529518127,
                    0.6446699500083923
                ]
            },
            "neuron_2": {
                "bias": 0.239457368850708,
                "weights": [
                    0.5176457762718201,
                    0.7847902178764343,
                    0.5045717358589172,
                    -0.46928006410598755
                ]
            },
            "neuron_3": {
                "bias": -0.1343943476676941,
                "weights": [
                    0.35631251335144043,
                    0.25227516889572144,
                    0.13204443454742432,
                    -0.525977373123169
                ]
            }
        },
        "output": {
            "bias": 0.03304851055145264,
            "weights": [
                0.4882504343986511,
                -0.3976818323135376,
                -0.4647938311100006,
                -0.19536423683166504
            ]
        },
        "score": 81
    },
    "chromosome_31": {
        "layer_0": {
            "neuron_0": {
                "bias": -0.3900662064552307,
                "weights": [
                    0.5947151780128479,
                    0.5054780840873718,
                    1.941964030265808
                ]
            },
            "neuron_1": {
                "bias": -0.3138902485370636,
                "weights": [
                    0.474065363407135,
                    0.5054765343666077,
                    0.0777825117111206
                ]
            },
            "neuron_2": {
                "bias": -0.35554367303848267,
                "weights": [
                    0.007455706596374512,
                    0.015915393829345703,
                    0.13413798809051514
                ]
            },
            "neuron_3": {
                "bias": 0.2500106692314148,
                "weights": [
                    0.5476394295692444,
                    -0.4981544613838196,
                    -0.33956417441368103
                ]
            }
        },
        "layer_1": {
            "neuron_0": {
                "bias": 0.5791711211204529,
                "weights": [
                    -0.22710958123207092,
                    -0.07474899291992188,
                    0.42574232816696167,
                    -0.2870112955570221
                ]
            },
            "neuron_1": {
                "bias": -0.5574663281440735,
                "weights": [
                    0.30581074953079224,
                    -0.534522533416748,
                    0.5455885529518127,
                    0.6446699500083923
                ]
            },
            "neuron_2": {
                "bias": 0.239457368850708,
                "weights": [
                    0.5176457762718201,
                    0.5299509167671204,
                    0.5045717358589172,
                    -0.46928006410598755
                ]
            },
            "neuron_3": {
                "bias": -0.1343943476676941,
                "weights": [
                    0.41993170976638794,
                    0.25227516889572144,
                    0.13204443454742432,
                    -0.525977373123169
                ]
            }
        },
        "output": {
            "bias": 0.03304851055145264,
            "weights": [
                0.4882504343986511,
                -0.09355723857879639,
                -0.4647938311100006,
                -0.19536423683166504
            ]
        },
        "score": 0
    },
    "chromosome_32": {
        "layer_0": {
            "neuron_0": {
                "bias": -0.3900662064552307,
                "weights": [
                    0.5947151780128479,
                    0.5054780840873718,
                    1.941964030265808
                ]
            },
            "neuron_1": {
                "bias": -0.3138902485370636,
                "weights": [
                    0.474065363407135,
                    0.5054765343666077,
                    0.0777825117111206
                ]
            },
            "neuron_2": {
                "bias": -0.35554367303848267,
                "weights": [
                    0.007455706596374512,
                    0.015915393829345703,
                    0.13413798809051514
                ]
            },
            "neuron_3": {
                "bias": 0.2500106692314148,
                "weights": [
                    0.5476394295692444,
                    -0.4981544613838196,
                    -0.33956417441368103
                ]
            }
        },
        "layer_1": {
            "neuron_0": {
                "bias": 0.5791711211204529,
                "weights": [
                    -0.22710958123207092,
                    -0.06646591424942017,
                    0.42574232816696167,
                    -0.2870112955570221
                ]
            },
            "neuron_1": {
                "bias": -0.5574663281440735,
                "weights": [
                    0.30581074953079224,
                    -0.534522533416748,
                    0.5455885529518127,
                    0.6446699500083923
                ]
            },
            "neuron_2": {
                "bias": 0.239457368850708,
                "weights": [
                    0.5176457762718201,
                    0.5299509167671204,
                    0.5045717358589172,
                    -0.46928006410598755
                ]
            },
            "neuron_3": {
                "bias": -0.1343943476676941,
                "weights": [
                    0.41993170976638794,
                    0.25227516889572144,
                    0.13204443454742432,
                    -0.525977373123169
                ]
            }
        },
        "output": {
            "bias": 0.03304851055145264,
            "weights": [
                0.4882504343986511,
                -0.35387736558914185,
                -0.4647938311100006,
                -0.19536423683166504
            ]
        },
        "score": 81
    },
    "chromosome_33": {
        "layer_0": {
            "neuron_0": {
                "bias": -0.3900662064552307,
                "weights": [
                    0.5947151780128479,
                    -0.2509625554084778,
                    1.941964030265808
                ]
            },
            "neuron_1": {
                "bias": -0.3138902485370636,
                "weights": [
                    0.474065363407135,
                    0.3297799229621887,
                    0.0777825117111206
                ]
            },
            "neuron_2": {
                "bias": -0.35554367303848267,
                "weights": [
                    0.007455706596374512,
                    0.015915393829345703,
                    0.13413798809051514
                ]
            },
            "neuron_3": {
                "bias": 0.2500106692314148,
                "weights": [
                    0.5476394295692444,
                    -0.4981544613838196,
                    -0.33956417441368103
                ]
            }
        },
        "layer_1": {
            "neuron_0": {
                "bias": 0.5791711211204529,
                "weights": [
                    -0.22710958123207092,
                    -0.07474899291992188,
                    0.42574232816696167,
                    -0.2870112955570221
                ]
            },
            "neuron_1": {
                "bias": -0.5574663281440735,
                "weights": [
                    0.30581074953079224,
                    -0.534522533416748,
                    0.5455885529518127,
                    0.6446699500083923
                ]
            },
            "neuron_2": {
                "bias": 0.239457368850708,
                "weights": [
                    0.5176457762718201,
                    0.7847902178764343,
                    0.5045717358589172,
                    -0.46928006410598755
                ]
            },
            "neuron_3": {
                "bias": -0.1343943476676941,
                "weights": [
                    0.35631251335144043,
                    0.25227516889572144,
                    0.13204443454742432,
                    -0.525977373123169
                ]
            }
        },
        "output": {
            "bias": 0.03304851055145264,
            "weights": [
                0.4882504343986511,
                -0.3976818323135376,
                -0.4647938311100006,
                -0.19536423683166504
            ]
        },
        "score": 15
    },
    "chromosome_34": {
        "layer_0": {
            "neuron_0": {
                "bias": -0.3900662064552307,
                "weights": [
                    0.5947151780128479,
                    0.5054780840873718,
                    1.941964030265808
                ]
            },
            "neuron_1": {
                "bias": -0.3138902485370636,
                "weights": [
                    0.474065363407135,
                    0.3297799229621887,
                    0.0777825117111206
                ]
            },
            "neuron_2": {
                "bias": -0.35554367303848267,
                "weights": [
                    0.007455706596374512,
                    0.015915393829345703,
                    0.13413798809051514
                ]
            },
            "neuron_3": {
                "bias": 0.2500106692314148,
                "weights": [
                    0.5476394295692444,
                    -0.4981544613838196,
                    -0.33956417441368103
                ]
            }
        },
        "layer_1": {
            "neuron_0": {
                "bias": 0.5791711211204529,
                "weights": [
                    -0.22710958123207092,
                    -0.07474899291992188,
                    0.42574232816696167,
                    -0.4459196627140045
                ]
            },
            "neuron_1": {
                "bias": -0.5574663281440735,
                "weights": [
                    0.30581074953079224,
                    -0.534522533416748,
                    0.5455885529518127,
                    0.6446699500083923
                ]
            },
            "neuron_2": {
                "bias": 0.239457368850708,
                "weights": [
                    0.5176457762718201,
                    0.5299509167671204,
                    0.5045717358589172,
                    -0.46928006410598755
                ]
            },
            "neuron_3": {
                "bias": -0.1343943476676941,
                "weights": [
                    0.41993170976638794,
                    0.25227516889572144,
                    0.13204443454742432,
                    -0.525977373123169
                ]
            }
        },
        "output": {
            "bias": 0.03304851055145264,
            "weights": [
                0.4882504343986511,
                -0.35387736558914185,
                -0.4647938311100006,
                -0.19536423683166504
            ]
        },
        "score": 81
    },
    "chromosome_35": {
        "layer_0": {
            "neuron_0": {
                "bias": -0.3900662064552307,
                "weights": [
                    0.5947151780128479,
                    0.5054780840873718,
                    1.941964030265808
                ]
            },
            "neuron_1": {
                "bias": -0.3138902485370636,
                "weights": [
                    0.474065363407135,
                    0.3297799229621887,
                    0.0777825117111206
                ]
            },
            "neuron_2": {
                "bias": -0.35554367303848267,
                "weights": [
                    0.007455706596374512,
                    0.015915393829345703,
                    0.13413798809051514
                ]
            },
            "neuron_3": {
                "bias": 0.2500106692314148,
                "weights": [
                    0.5476394295692444,
                    -0.4981544613838196,
                    -0.33956417441368103
                ]
            }
        },
        "layer_1": {
            "neuron_0": {
                "bias": 0.5791711211204529,
                "weights": [
                    -0.22710958123207092,
                    -0.07474899291992188,
                    0.42574232816696167,
                    -0.2870112955570221
                ]
            },
            "neuron_1": {
                "bias": -0.5574663281440735,
                "weights": [
                    0.30581074953079224,
                    -0.534522533416748,
                    0.5455885529518127,
                    0.6446699500083923
                ]
            },
            "neuron_2": {
                "bias": 0.239457368850708,
                "weights": [
                    0.5176457762718201,
                    0.5299509167671204,
                    0.5045717358589172,
                    -0.46928006410598755
                ]
            },
            "neuron_3": {
                "bias": -0.1343943476676941,
                "weights": [
                    0.41993170976638794,
                    0.25227516889572144,
                    0.13204443454742432,
                    -0.525977373123169
                ]
            }
        },
        "output": {
            "bias": 0.03304851055145264,
            "weights": [
                0.4882504343986511,
                -0.35387736558914185,
                -0.4647938311100006,
                -0.19536423683166504
            ]
        },
        "score": 81
    },
    "chromosome_36": {
        "layer_0": {
            "neuron_0": {
                "bias": -0.3900662064552307,
                "weights": [
                    0.5947151780128479,
                    0.5054780840873718,
                    1.941964030265808
                ]
            },
            "neuron_1": {
                "bias": -0.3138902485370636,
                "weights": [
                    0.474065363407135,
                    0.5054765343666077,
                    0.0777825117111206
                ]
            },
            "neuron_2": {
                "bias": -0.35554367303848267,
                "weights": [
                    0.007455706596374512,
                    0.015915393829345703,
                    0.13413798809051514
                ]
            },
            "neuron_3": {
                "bias": 0.2500106692314148,
                "weights": [
                    0.5476394295692444,
                    -0.4981544613838196,
                    -0.33956417441368103
                ]
            }
        },
        "layer_1": {
            "neuron_0": {
                "bias": 0.5791711211204529,
                "weights": [
                    -0.22710958123207092,
                    -0.07474899291992188,
                    0.42574232816696167,
                    -0.2870112955570221
                ]
            },
            "neuron_1": {
                "bias": -0.5574663281440735,
                "weights": [
                    0.30581074953079224,
                    -0.534522533416748,
                    0.5455885529518127,
                    0.6446699500083923
                ]
            },
            "neuron_2": {
                "bias": 0.239457368850708,
                "weights": [
                    0.5176457762718201,
                    0.5299509167671204,
                    0.5045717358589172,
                    -0.46928006410598755
                ]
            },
            "neuron_3": {
                "bias": -0.1343943476676941,
                "weights": [
                    0.41993170976638794,
                    0.25227516889572144,
                    0.13204443454742432,
                    -0.525977373123169
                ]
            }
        },
        "output": {
            "bias": 0.03304851055145264,
            "weights": [
                0.4882504343986511,
                -0.35387736558914185,
                -0.4647938311100006,
                -0.19536423683166504
            ]
        },
        "score": 81
    },
    "chromosome_37": {
        "layer_0": {
            "neuron_0": {
                "bias": -0.3900662064552307,
                "weights": [
                    0.5947151780128479,
                    0.5054780840873718,
                    1.941964030265808
                ]
            },
            "neuron_1": {
                "bias": -0.3138902485370636,
                "weights": [
                    0.474065363407135,
                    0.3297799229621887,
                    0.0777825117111206
                ]
            },
            "neuron_2": {
                "bias": -0.35554367303848267,
                "weights": [
                    0.007455706596374512,
                    0.015915393829345703,
                    0.13413798809051514
                ]
            },
            "neuron_3": {
                "bias": 0.2500106692314148,
                "weights": [
                    0.5476394295692444,
                    -0.4981544613838196,
                    -0.33956417441368103
                ]
            }
        },
        "layer_1": {
            "neuron_0": {
                "bias": 0.5791711211204529,
                "weights": [
                    -0.22710958123207092,
                    -0.4743860960006714,
                    0.42574232816696167,
                    -0.2870112955570221
                ]
            },
            "neuron_1": {
                "bias": -0.5574663281440735,
                "weights": [
                    0.30581074953079224,
                    -0.534522533416748,
                    0.5455885529518127,
                    0.6446699500083923
                ]
            },
            "neuron_2": {
                "bias": 0.239457368850708,
                "weights": [
                    0.5176457762718201,
                    0.5299509167671204,
                    0.5045717358589172,
                    -0.46928006410598755
                ]
            },
            "neuron_3": {
                "bias": -0.1343943476676941,
                "weights": [
                    0.41993170976638794,
                    0.7750685214996338,
                    0.13204443454742432,
                    -0.525977373123169
                ]
            }
        },
        "output": {
            "bias": 0.03304851055145264,
            "weights": [
                0.4882504343986511,
                -0.35387736558914185,
                -0.4647938311100006,
                -0.19536423683166504
            ]
        },
        "score": 81
    },
    "chromosome_38": {
        "layer_0": {
            "neuron_0": {
                "bias": -0.3900662064552307,
                "weights": [
                    0.5947151780128479,
                    0.5054780840873718,
                    1.941964030265808
                ]
            },
            "neuron_1": {
                "bias": -0.3138902485370636,
                "weights": [
                    0.474065363407135,
                    0.3297799229621887,
                    0.0777825117111206
                ]
            },
            "neuron_2": {
                "bias": -0.35554367303848267,
                "weights": [
                    0.007455706596374512,
                    0.015915393829345703,
                    0.13413798809051514
                ]
            },
            "neuron_3": {
                "bias": 0.2500106692314148,
                "weights": [
                    0.5476394295692444,
                    -0.4981544613838196,
                    -0.33956417441368103
                ]
            }
        },
        "layer_1": {
            "neuron_0": {
                "bias": 0.5791711211204529,
                "weights": [
                    -0.22710958123207092,
                    -0.3573388457298279,
                    0.42574232816696167,
                    -1.1092723608016968
                ]
            },
            "neuron_1": {
                "bias": -0.5574663281440735,
                "weights": [
                    0.30581074953079224,
                    -1.2365028858184814,
                    0.5455885529518127,
                    0.6446699500083923
                ]
            },
            "neuron_2": {
                "bias": 0.239457368850708,
                "weights": [
                    0.5176457762718201,
                    0.5299509167671204,
                    0.5045717358589172,
                    -0.3318302631378174
                ]
            },
            "neuron_3": {
                "bias": -0.1343943476676941,
                "weights": [
                    0.41993170976638794,
                    0.25227516889572144,
                    0.13204443454742432,
                    -0.525977373123169
                ]
            }
        },
        "output": {
            "bias": 0.03304851055145264,
            "weights": [
                0.4882504343986511,
                -0.35387736558914185,
                -0.4647938311100006,
                -0.19536423683166504
            ]
        },
        "score": 81
    },
    "chromosome_39": {
        "layer_0": {
            "neuron_0": {
                "bias": -0.3900662064552307,
                "weights": [
                    0.5947151780128479,
                    0.5054780840873718,
                    1.941964030265808
                ]
            },
            "neuron_1": {
                "bias": -0.3138902485370636,
                "weights": [
                    0.474065363407135,
                    0.5054765343666077,
                    0.0777825117111206
                ]
            },
            "neuron_2": {
                "bias": -0.35554367303848267,
                "weights": [
                    0.007455706596374512,
                    0.015915393829345703,
                    0.13413798809051514
                ]
            },
            "neuron_3": {
                "bias": 0.2500106692314148,
                "weights": [
                    0.5476394295692444,
                    -0.4981544613838196,
                    -0.33956417441368103
                ]
            }
        },
        "layer_1": {
            "neuron_0": {
                "bias": 0.5791711211204529,
                "weights": [
                    -0.22710958123207092,
                    -0.07474899291992188,
                    0.42574232816696167,
                    -0.2870112955570221
                ]
            },
            "neuron_1": {
                "bias": -0.5574663281440735,
                "weights": [
                    0.30581074953079224,
                    -0.534522533416748,
                    0.5455885529518127,
                    0.6446699500083923
                ]
            },
            "neuron_2": {
                "bias": 0.239457368850708,
                "weights": [
                    0.5176457762718201,
                    0.5299509167671204,
                    0.5045717358589172,
                    -0.46928006410598755
                ]
            },
            "neuron_3": {
                "bias": -0.1343943476676941,
                "weights": [
                    0.41993170976638794,
                    0.25227516889572144,
                    0.13204443454742432,
                    -0.525977373123169
                ]
            }
        },
        "output": {
            "bias": 0.03304851055145264,
            "weights": [
                0.4882504343986511,
                -0.35387736558914185,
                -0.4647938311100006,
                -0.19536423683166504
            ]
        },
        "score": 81
    },
    "chromosome_4": {
        "layer_0": {
            "neuron_0": {
                "bias": -0.3900662064552307,
                "weights": [
                    0.5947151780128479,
                    0.5054780840873718,
                    1.941964030265808
                ]
            },
            "neuron_1": {
                "bias": -0.3138902485370636,
                "weights": [
                    0.474065363407135,
                    0.3297799229621887,
                    -0.5550328493118286
                ]
            },
            "neuron_2": {
                "bias": -0.35554367303848267,
                "weights": [
                    0.007455706596374512,
                    0.015915393829345703,
                    0.13413798809051514
                ]
            },
            "neuron_3": {
                "bias": 0.2500106692314148,
                "weights": [
                    0.5476394295692444,
                    -0.4981544613838196,
                    -0.33956417441368103
                ]
            }
        },
        "layer_1": {
            "neuron_0": {
                "bias": 0.5791711211204529,
                "weights": [
                    -0.22710958123207092,
                    -0.07474899291992188,
                    0.42574232816696167,
                    -0.4459196627140045
                ]
            },
            "neuron_1": {
                "bias": -0.5574663281440735,
                "weights": [
                    0.30581074953079224,
                    -0.534522533416748,
                    0.5455885529518127,
                    0.6446699500083923
                ]
            },
            "neuron_2": {
                "bias": 0.239457368850708,
                "weights": [
                    0.5176457762718201,
                    0.5299509167671204,
                    0.5045717358589172,
                    -0.46928006410598755
                ]
            },
            "neuron_3": {
                "bias": -0.1343943476676941,
                "weights": [
                    0.41993170976638794,
                    0.25227516889572144,
                    0.13204443454742432,
                    -0.525977373123169
                ]
            }
        },
        "output": {
            "bias": 0.03304851055145264,
            "weights": [
                0.4882504343986511,
                -0.35387736558914185,
                -0.4647938311100006,
                -0.19536423683166504
            ]
        },
        "score": 81
    },
    "chromosome_40": {
        "layer_0": {
            "neuron_0": {
                "bias": -0.3900662064552307,
                "weights": [
                    0.5947151780128479,
                    0.5054780840873718,
                    1.941964030265808
                ]
            },
            "neuron_1": {
                "bias": -0.3138902485370636,
                "weights": [
                    0.474065363407135,
                    0.3297799229621887,
                    0.0777825117111206
                ]
            },
            "neuron_2": {
                "bias": -0.35554367303848267,
                "weights": [
                    0.007455706596374512,
                    0.015915393829345703,
                    0.13413798809051514
                ]
            },
            "neuron_3": {
                "bias": 0.2500106692314148,
                "weights": [
                    0.5476394295692444,
                    -0.4981544613838196,
                    -0.2374577820301056
                ]
            }
        },
        "layer_1": {
            "neuron_0": {
                "bias": 0.5791711211204529,
                "weights": [
                    -0.22710958123207092,
                    -0.07474899291992188,
                    0.42574232816696167,
                    -0.2870112955570221
                ]
            },
            "neuron_1": {
                "bias": -0.5574663281440735,
                "weights": [
                    0.30581074953079224,
                    -0.534522533416748,
                    0.5455885529518127,
                    1.1342805624008179
                ]
            },
            "neuron_2": {
                "bias": 0.239457368850708,
                "weights": [
                    0.5176457762718201,
                    0.7847902178764343,
                    0.5045717358589172,
                    -0.46928006410598755
                ]
            },
            "neuron_3": {
                "bias": -0.1343943476676941,
                "weights": [
                    0.35631251335144043,
                    0.25227516889572144,
                    0.13204443454742432,
                    -0.7901983857154846
                ]
            }
        },
        "output": {
            "bias": 0.03304851055145264,
            "weights": [
                0.4882504343986511,
                -0.3976818323135376,
                -0.4647938311100006,
                -0.19536423683166504
            ]
        },
        "score": 81
    },
    "chromosome_41": {
        "layer_0": {
            "neuron_0": {
                "bias": -0.3900662064552307,
                "weights": [
                    0.5947151780128479,
                    0.5054780840873718,
                    1.941964030265808
                ]
            },
            "neuron_1": {
                "bias": -0.3138902485370636,
                "weights": [
                    0.474065363407135,
                    0.5054765343666077,
                    0.0777825117111206
                ]
            },
            "neuron_2": {
                "bias": -0.35554367303848267,
                "weights": [
                    0.007455706596374512,
                    0.015915393829345703,
                    0.13413798809051514
                ]
            },
            "neuron_3": {
                "bias": 0.2500106692314148,
                "weights": [
                    0.5476394295692444,
                    -0.4981544613838196,
                    -0.2374577820301056
                ]
            }
        },
        "layer_1": {
            "neuron_0": {
                "bias": 0.5791711211204529,
                "weights": [
                    -0.22710958123207092,
                    -0.07474899291992188,
                    0.42574232816696167,
                    -0.2870112955570221
                ]
            },
            "neuron_1": {
                "bias": -0.5574663281440735,
                "weights": [
                    0.30581074953079224,
                    -0.534522533416748,
                    0.5455885529518127,
                    0.6446699500083923
                ]
            },
            "neuron_2": {
                "bias": 0.239457368850708,
                "weights": [
                    0.5176457762718201,
                    0.5299509167671204,
                    0.5045717358589172,
                    -0.46928006410598755
                ]
            },
            "neuron_3": {
                "bias": -0.1343943476676941,
                "weights": [
                    0.41993170976638794,
                    0.25227516889572144,
                    0.13204443454742432,
                    -0.525977373123169
                ]
            }
        },
        "output": {
            "bias": 0.03304851055145264,
            "weights": [
                0.4882504343986511,
                -0.35387736558914185,
                -0.4647938311100006,
                -0.19536423683166504
            ]
        },
        "score": 81
    },
    "chromosome_42": {
        "layer_0": {
            "neuron_0": {
                "bias": -0.3900662064552307,
                "weights": [
                    0.5947151780128479,
                    0.5054780840873718,
                    1.941964030265808
                ]
            },
            "neuron_1": {
                "bias": -0.3138902485370636,
                "weights": [
                    0.474065363407135,
                    0.5054765343666077,
                    0.0777825117111206
                ]
            },
            "neuron_2": {
                "bias": -0.35554367303848267,
                "weights": [
                    0.007455706596374512,
                    0.015915393829345703,
                    0.13413798809051514
                ]
            },
            "neuron_3": {
                "bias": 0.2500106692314148,
                "weights": [
                    0.5476394295692444,
                    -0.4981544613838196,
                    -0.2374577820301056
                ]
            }
        },
        "layer_1": {
            "neuron_0": {
                "bias": 0.5791711211204529,
                "weights": [
                    -0.22710958123207092,
                    -0.07474899291992188,
                    -0.253795325756073,
                    -0.2870112955570221
                ]
            },
            "neuron_1": {
                "bias": -0.5574663281440735,
                "weights": [
                    0.30581074953079224,
                    -0.534522533416748,
                    0.5455885529518127,
                    0.6446699500083923
                ]
            },
            "neuron_2": {
                "bias": 0.239457368850708,
                "weights": [
                    0.5176457762718201,
                    0.5299509167671204,
                    0.5045717358589172,
                    -0.46928006410598755
                ]
            },
            "neuron_3": {
                "bias": -0.1343943476676941,
                "weights": [
                    0.41993170976638794,
                    0.25227516889572144,
                    0.13204443454742432,
                    -0.525977373123169
                ]
            }
        },
        "output": {
            "bias": 0.03304851055145264,
            "weights": [
                0.4882504343986511,
                -0.35387736558914185,
                -0.4647938311100006,
                -0.19536423683166504
            ]
        },
        "score": 2
    },
    "chromosome_43": {
        "layer_0": {
            "neuron_0": {
                "bias": -0.3900662064552307,
                "weights": [
                    0.5947151780128479,
                    0.5054780840873718,
                    1.941964030265808
                ]
            },
            "neuron_1": {
                "bias": -0.3138902485370636,
                "weights": [
                    0.474065363407135,
                    0.3297799229621887,
                    0.0777825117111206
                ]
            },
            "neuron_2": {
                "bias": -0.35554367303848267,
                "weights": [
                    0.007455706596374512,
                    0.015915393829345703,
                    0.13413798809051514
                ]
            },
            "neuron_3": {
                "bias": 0.2500106692314148,
                "weights": [
                    0.5476394295692444,
                    -0.4981544613838196,
                    -0.2374577820301056
                ]
            }
        },
        "layer_1": {
            "neuron_0": {
                "bias": 0.5791711211204529,
                "weights": [
                    -0.22710958123207092,
                    -0.07474899291992188,
                    0.42574232816696167,
                    -0.2870112955570221
                ]
            },
            "neuron_1": {
                "bias": -0.5574663281440735,
                "weights": [
                    0.30581074953079224,
                    -0.534522533416748,
                    0.5455885529518127,
                    0.6446699500083923
                ]
            },
            "neuron_2": {
                "bias": 0.239457368850708,
                "weights": [
                    0.5176457762718201,
                    0.7847902178764343,
                    0.5045717358589172,
                    -0.46928006410598755
                ]
            },
            "neuron_3": {
                "bias": -0.1343943476676941,
                "weights": [
                    0.35631251335144043,
                    0.25227516889572144,
                    0.13204443454742432,
                    -0.525977373123169
                ]
            }
        },
        "output": {
            "bias": 0.03304851055145264,
            "weights": [
                0.4882504343986511,
                -0.3976818323135376,
                -0.4647938311100006,
                -0.19536423683166504
            ]
        },
        "score": 81
    },
    "chromosome_44": {
        "layer_0": {
            "neuron_0": {
