{
    "chromosome_0": {
        "layer_0": {
            "neuron_0": {
                "bias": -0.3900662064552307,
                "weights": [
                    0.41172832250595093,
                    -0.3490920662879944,
                    1.2787439823150635
                ]
            },
            "neuron_1": {
                "bias": 0.16805195808410645,
                "weights": [
                    1.0391390323638916,
                    0.3297799229621887,
                    0.0777825117111206
                ]
            },
            "neuron_2": {
                "bias": -0.35554367303848267,
                "weights": [
                    0.007455706596374512,
                    0.015915393829345703,
                    0.13413798809051514
                ]
            },
            "neuron_3": {
                "bias": 0.2500106692314148,
                "weights": [
                    0.5476394295692444,
                    -0.4981544613838196,
                    -0.33956417441368103
                ]
            }
        },
        "layer_1": {
            "neuron_0": {
                "bias": 0.5791711211204529,
                "weights": [
                    -0.22710958123207092,
                    -0.07474899291992188,
                    0.3162328004837036,
                    -0.2870112955570221
                ]
            },
            "neuron_1": {
                "bias": -0.5574663281440735,
                "weights": [
                    0.30581074953079224,
                    -0.534522533416748,
                    0.5455885529518127,
                    0.6446699500083923
                ]
            },
            "neuron_2": {
                "bias": 0.239457368850708,
                "weights": [
                    0.5176457762718201,
                    0.5299509167671204,
                    0.5045717358589172,
                    -0.46928006410598755
                ]
            },
            "neuron_3": {
                "bias": -0.1343943476676941,
                "weights": [
                    0.41993170976638794,
                    0.25227516889572144,
                    0.13204443454742432,
                    -0.525977373123169
                ]
            }
        },
        "output": {
            "bias": 0.03304851055145264,
            "weights": [
                0.4882504343986511,
                -0.35387736558914185,
                -0.4647938311100006,
                -0.19536423683166504
            ]
        },
        "score": 1
    },
    "chromosome_1": {
        "layer_0": {
            "neuron_0": {
                "bias": -0.3900662064552307,
                "weights": [
                    0.41172832250595093,
                    -0.3490920662879944,
                    1.2787439823150635
                ]
            },
            "neuron_1": {
                "bias": -0.16784876585006714,
                "weights": [
                    1.0391390323638916,
                    0.3297799229621887,
                    0.0777825117111206
                ]
            },
            "neuron_2": {
                "bias": -0.35554367303848267,
                "weights": [
                    0.007455706596374512,
                    0.015915393829345703,
                    0.13413798809051514
                ]
            },
            "neuron_3": {
                "bias": 0.2500106692314148,
                "weights": [
                    0.5476394295692444,
                    -0.4981544613838196,
                    -0.33956417441368103
                ]
            }
        },
        "layer_1": {
            "neuron_0": {
                "bias": 0.5791711211204529,
                "weights": [
                    -0.22710958123207092,
                    -0.07474899291992188,
                    0.3162328004837036,
                    -0.2870112955570221
                ]
            },
            "neuron_1": {
                "bias": -0.5574663281440735,
                "weights": [
                    0.30581074953079224,
                    -0.534522533416748,
                    0.5455885529518127,
                    0.6446699500083923
                ]
            },
            "neuron_2": {
                "bias": 0.239457368850708,
                "weights": [
                    0.5176457762718201,
                    0.5299509167671204,
                    0.5045717358589172,
                    -0.46928006410598755
                ]
            },
            "neuron_3": {
                "bias": -0.1343943476676941,
                "weights": [
                    0.41993170976638794,
                    0.25227516889572144,
                    0.13204443454742432,
                    -0.525977373123169
                ]
            }
        },
        "output": {
            "bias": 0.03304851055145264,
            "weights": [
                0.4882504343986511,
                -0.35387736558914185,
                -0.4647938311100006,
                -0.19536423683166504
            ]
        },
        "score": 1
    },
    "chromosome_10": {
        "layer_0": {
            "neuron_0": {
                "bias": -0.3900662064552307,
                "weights": [
                    -0.023817509412765503,
                    -0.3490920662879944,
                    1.2787439823150635
                ]
            },
            "neuron_1": {
                "bias": 0.16805195808410645,
                "weights": [
                    0.474065363407135,
                    0.3297799229621887,
                    0.0777825117111206
                ]
            },
            "neuron_2": {
                "bias": -0.35554367303848267,
                "weights": [
                    0.007455706596374512,
                    0.015915393829345703,
                    0.13413798809051514
                ]
            },
            "neuron_3": {
                "bias": 0.2500106692314148,
                "weights": [
                    0.5476394295692444,
                    -0.4981544613838196,
                    -0.33956417441368103
                ]
            }
        },
        "layer_1": {
            "neuron_0": {
                "bias": 0.5791711211204529,
                "weights": [
                    -0.22710958123207092,
                    -0.07474899291992188,
                    0.42574232816696167,
                    -0.2870112955570221
                ]
            },
            "neuron_1": {
                "bias": -0.5574663281440735,
                "weights": [
                    0.30581074953079224,
                    -0.534522533416748,
                    0.5455885529518127,
                    0.6446699500083923
                ]
            },
            "neuron_2": {
                "bias": 0.3887428641319275,
                "weights": [
                    0.5176457762718201,
                    0.5299509167671204,
                    0.5045717358589172,
                    -0.46928006410598755
                ]
            },
            "neuron_3": {
                "bias": -0.1343943476676941,
                "weights": [
                    0.41993170976638794,
                    0.25227516889572144,
                    0.13204443454742432,
                    -0.525977373123169
                ]
            }
        },
        "output": {
            "bias": 0.03304851055145264,
            "weights": [
                0.4882504343986511,
                -0.35387736558914185,
                -0.4647938311100006,
                -0.19536423683166504
            ]
        },
        "score": 1
    },
    "chromosome_11": {
        "layer_0": {
            "neuron_0": {
                "bias": -0.3900662064552307,
                "weights": [
                    -0.023817509412765503,
                    -0.3490920662879944,
                    1.2787439823150635
                ]
            },
            "neuron_1": {
                "bias": -0.16784876585006714,
                "weights": [
                    0.474065363407135,
                    0.3297799229621887,
                    0.0777825117111206
                ]
            },
            "neuron_2": {
                "bias": -0.35554367303848267,
                "weights": [
                    0.007455706596374512,
                    0.015915393829345703,
                    0.13413798809051514
                ]
            },
            "neuron_3": {
                "bias": 0.2500106692314148,
                "weights": [
                    0.5476394295692444,
                    -0.4981544613838196,
                    -0.33956417441368103
                ]
            }
        },
        "layer_1": {
            "neuron_0": {
                "bias": 0.5791711211204529,
                "weights": [
                    -0.22710958123207092,
                    -0.07474899291992188,
                    -0.16944700479507446,
                    -0.2870112955570221
                ]
            },
            "neuron_1": {
                "bias": -0.5574663281440735,
                "weights": [
                    0.30581074953079224,
                    -0.534522533416748,
                    0.5455885529518127,
                    0.6446699500083923
                ]
            },
            "neuron_2": {
                "bias": 0.3887428641319275,
                "weights": [
                    0.5176457762718201,
                    0.5299509167671204,
                    0.5045717358589172,
                    -0.46928006410598755
                ]
            },
            "neuron_3": {
                "bias": -0.1343943476676941,
                "weights": [
                    0.41993170976638794,
                    0.25227516889572144,
                    0.13204443454742432,
                    -0.525977373123169
                ]
            }
        },
        "output": {
            "bias": 0.03304851055145264,
            "weights": [
                0.4882504343986511,
                -0.35387736558914185,
                -0.4647938311100006,
                -0.19536423683166504
            ]
        },
        "score": 1
    },
    "chromosome_12": {
        "layer_0": {
            "neuron_0": {
                "bias": 0.02933400869369507,
                "weights": [
                    -0.023817509412765503,
                    -0.3490920662879944,
                    1.2787439823150635
                ]
            },
            "neuron_1": {
                "bias": -0.3138902485370636,
                "weights": [
                    0.474065363407135,
                    0.3297799229621887,
                    -0.7295922636985779
                ]
            },
            "neuron_2": {
                "bias": -0.35554367303848267,
                "weights": [
                    0.007455706596374512,
                    0.015915393829345703,
                    0.13413798809051514
                ]
            },
            "neuron_3": {
                "bias": 0.2500106692314148,
                "weights": [
                    0.5476394295692444,
                    -0.4981544613838196,
                    -0.33956417441368103
                ]
            }
        },
        "layer_1": {
            "neuron_0": {
                "bias": 0.5791711211204529,
                "weights": [
                    -0.22710958123207092,
                    -0.07474899291992188,
                    0.42574232816696167,
                    -0.2870112955570221
                ]
            },
            "neuron_1": {
                "bias": -0.5574663281440735,
                "weights": [
                    0.30581074953079224,
                    -0.534522533416748,
                    0.5455885529518127,
                    0.6446699500083923
                ]
            },
            "neuron_2": {
                "bias": 0.3887428641319275,
                "weights": [
                    0.5176457762718201,
                    0.5299509167671204,
                    0.5045717358589172,
                    -0.46928006410598755
                ]
            },
            "neuron_3": {
                "bias": -0.1343943476676941,
                "weights": [
                    0.41993170976638794,
                    0.25227516889572144,
                    0.13204443454742432,
                    -0.525977373123169
                ]
            }
        },
        "output": {
            "bias": 0.03304851055145264,
            "weights": [
                0.4882504343986511,
                -0.35387736558914185,
                -0.4647938311100006,
                -0.19536423683166504
            ]
        },
        "score": 1
    },
    "chromosome_13": {
        "layer_0": {
            "neuron_0": {
                "bias": -0.3900662064552307,
                "weights": [
                    -0.023817509412765503,
                    -0.3490920662879944,
                    1.2787439823150635
                ]
            },
            "neuron_1": {
                "bias": -0.3138902485370636,
                "weights": [
                    0.474065363407135,
                    0.3297799229621887,
                    0.0777825117111206
                ]
            },
            "neuron_2": {
                "bias": -0.35554367303848267,
                "weights": [
                    0.007455706596374512,
                    0.015915393829345703,
                    0.13413798809051514
                ]
            },
            "neuron_3": {
                "bias": 0.2500106692314148,
                "weights": [
                    0.5476394295692444,
                    -0.4981544613838196,
                    -0.33956417441368103
                ]
            }
        },
        "layer_1": {
            "neuron_0": {
                "bias": 0.5791711211204529,
                "weights": [
                    -0.22710958123207092,
                    -0.07474899291992188,
                    0.42574232816696167,
                    -0.2870112955570221
                ]
            },
            "neuron_1": {
                "bias": -0.5574663281440735,
                "weights": [
                    0.30581074953079224,
                    -0.534522533416748,
                    0.5455885529518127,
                    0.6446699500083923
                ]
            },
            "neuron_2": {
                "bias": 0.3887428641319275,
                "weights": [
                    0.5176457762718201,
                    0.5299509167671204,
                    0.5045717358589172,
                    -0.46928006410598755
                ]
            },
            "neuron_3": {
                "bias": -0.1343943476676941,
                "weights": [
                    0.41993170976638794,
                    0.25227516889572144,
                    0.13204443454742432,
                    -0.525977373123169
                ]
            }
        },
        "output": {
            "bias": 0.03304851055145264,
            "weights": [
                0.4882504343986511,
                -0.35387736558914185,
                -0.4647938311100006,
                -0.19536423683166504
            ]
        },
        "score": 1
    },
    "chromosome_14": {
        "layer_0": {
            "neuron_0": {
                "bias": -0.3900662064552307,
                "weights": [
                    -0.023817509412765503,
                    -0.3490920662879944,
                    1.2787439823150635
                ]
            },
            "neuron_1": {
                "bias": -0.16784876585006714,
                "weights": [
                    0.474065363407135,
                    0.3297799229621887,
                    0.0777825117111206
                ]
            },
            "neuron_2": {
                "bias": -0.35554367303848267,
                "weights": [
                    0.007455706596374512,
                    0.015915393829345703,
                    0.13413798809051514
                ]
            },
            "neuron_3": {
                "bias": 0.2500106692314148,
                "weights": [
                    0.5476394295692444,
                    -0.4981544613838196,
                    -0.33956417441368103
                ]
            }
        },
        "layer_1": {
            "neuron_0": {
                "bias": 0.5791711211204529,
                "weights": [
                    -0.22710958123207092,
                    -0.07474899291992188,
                    0.42574232816696167,
                    -0.2870112955570221
                ]
            },
            "neuron_1": {
                "bias": -0.5574663281440735,
                "weights": [
                    0.30581074953079224,
                    -0.534522533416748,
                    0.5455885529518127,
                    0.6446699500083923
                ]
            },
            "neuron_2": {
                "bias": 0.3887428641319275,
                "weights": [
                    0.5176457762718201,
                    0.5299509167671204,
                    0.5045717358589172,
                    -0.46928006410598755
                ]
            },
            "neuron_3": {
                "bias": -0.1343943476676941,
                "weights": [
                    0.41993170976638794,
                    0.25227516889572144,
                    0.13204443454742432,
                    -0.525977373123169
                ]
            }
        },
        "output": {
            "bias": 0.03304851055145264,
            "weights": [
                0.4882504343986511,
                -0.35387736558914185,
                -0.4647938311100006,
                -0.19536423683166504
            ]
        },
        "score": 1
    },
    "chromosome_15": {
        "layer_0": {
            "neuron_0": {
                "bias": -0.3900662064552307,
                "weights": [
                    -0.023817509412765503,
                    -0.3490920662879944,
                    1.2787439823150635
                ]
            },
            "neuron_1": {
                "bias": -0.16784876585006714,
                "weights": [
                    0.474065363407135,
                    0.3297799229621887,
                    0.0777825117111206
                ]
            },
            "neuron_2": {
                "bias": -0.35554367303848267,
                "weights": [
                    0.007455706596374512,
                    0.015915393829345703,
                    0.13413798809051514
                ]
            },
            "neuron_3": {
                "bias": 0.2500106692314148,
                "weights": [
                    0.5476394295692444,
                    -0.4981544613838196,
                    -0.33956417441368103
                ]
            }
        },
        "layer_1": {
            "neuron_0": {
                "bias": 0.5791711211204529,
                "weights": [
                    -0.22710958123207092,
                    -0.07474899291992188,
                    0.42574232816696167,
                    -0.2870112955570221
                ]
            },
            "neuron_1": {
                "bias": -0.5574663281440735,
                "weights": [
                    0.30581074953079224,
                    -0.534522533416748,
                    0.5455885529518127,
                    0.6446699500083923
                ]
            },
            "neuron_2": {
                "bias": 0.3887428641319275,
                "weights": [
                    0.5176457762718201,
                    0.5299509167671204,
                    0.5045717358589172,
                    -0.46928006410598755
                ]
            },
            "neuron_3": {
                "bias": -0.1343943476676941,
                "weights": [
                    0.41993170976638794,
                    0.25227516889572144,
                    0.13204443454742432,
                    -0.525977373123169
                ]
            }
        },
        "output": {
            "bias": 0.03304851055145264,
            "weights": [
                0.4882504343986511,
                -0.2962135672569275,
                -0.4647938311100006,
                -0.19536423683166504
            ]
        },
        "score": 1
    },
    "chromosome_16": {
        "layer_0": {
            "neuron_0": {
                "bias": -0.3900662064552307,
                "weights": [
                    -0.023817509412765503,
                    -0.3490920662879944,
                    1.2787439823150635
                ]
            },
            "neuron_1": {
                "bias": -0.16784876585006714,
                "weights": [
                    0.474065363407135,
                    0.3297799229621887,
                    0.0777825117111206
                ]
            },
            "neuron_2": {
                "bias": -0.35554367303848267,
                "weights": [
                    0.007455706596374512,
                    0.015915393829345703,
                    0.13413798809051514
                ]
            },
            "neuron_3": {
                "bias": 0.2500106692314148,
                "weights": [
                    0.5476394295692444,
                    -0.4981544613838196,
                    -0.33956417441368103
                ]
            }
        },
        "layer_1": {
            "neuron_0": {
                "bias": 0.5791711211204529,
                "weights": [
                    -0.22710958123207092,
                    -0.07474899291992188,
                    0.42574232816696167,
                    -0.2870112955570221
                ]
            },
            "neuron_1": {
                "bias": -0.5574663281440735,
                "weights": [
                    0.30581074953079224,
                    -0.534522533416748,
                    0.5455885529518127,
                    0.6446699500083923
                ]
            },
            "neuron_2": {
                "bias": 0.3887428641319275,
                "weights": [
                    0.5176457762718201,
                    0.5299509167671204,
                    0.5045717358589172,
                    -0.46928006410598755
                ]
            },
            "neuron_3": {
                "bias": -0.1343943476676941,
                "weights": [
                    0.41993170976638794,
                    0.25227516889572144,
                    0.13204443454742432,
                    -0.525977373123169
                ]
            }
        },
        "output": {
            "bias": 0.03304851055145264,
            "weights": [
                0.4882504343986511,
                -0.35387736558914185,
                -0.4647938311100006,
                -0.19536423683166504
            ]
        },
        "score": 1
    },
    "chromosome_17": {
        "layer_0": {
            "neuron_0": {
                "bias": -0.3900662064552307,
                "weights": [
                    -0.023817509412765503,
                    -0.3490920662879944,
                    1.3785080909729004
                ]
            },
            "neuron_1": {
                "bias": -0.16784876585006714,
                "weights": [
                    0.474065363407135,
                    0.3297799229621887,
                    0.0777825117111206
                ]
            },
            "neuron_2": {
                "bias": -0.35554367303848267,
                "weights": [
                    0.007455706596374512,
                    0.015915393829345703,
                    0.13413798809051514
                ]
            },
            "neuron_3": {
                "bias": 0.2500106692314148,
                "weights": [
                    0.5476394295692444,
                    -0.4981544613838196,
                    -0.33956417441368103
                ]
            }
        },
        "layer_1": {
            "neuron_0": {
                "bias": 0.5791711211204529,
                "weights": [
                    -0.22710958123207092,
                    -0.07474899291992188,
                    0.42574232816696167,
                    -0.2870112955570221
                ]
            },
            "neuron_1": {
                "bias": -0.5574663281440735,
                "weights": [
                    0.30581074953079224,
                    -0.534522533416748,
                    0.5455885529518127,
                    0.6446699500083923
                ]
            },
            "neuron_2": {
                "bias": 0.3887428641319275,
                "weights": [
                    0.5176457762718201,
                    0.5299509167671204,
                    0.5045717358589172,
                    -0.46928006410598755
                ]
            },
            "neuron_3": {
                "bias": -0.1343943476676941,
                "weights": [
                    0.41993170976638794,
                    0.25227516889572144,
                    0.13204443454742432,
                    -0.525977373123169
                ]
            }
        },
        "output": {
            "bias": 0.03304851055145264,
            "weights": [
                0.4882504343986511,
                -0.35387736558914185,
                -0.4647938311100006,
                -0.19536423683166504
            ]
        },
        "score": 1
    },
    "chromosome_18": {
        "layer_0": {
            "neuron_0": {
                "bias": -0.3900662064552307,
                "weights": [
                    -0.023817509412765503,
                    -0.3490920662879944,
                    1.2787439823150635
                ]
            },
            "neuron_1": {
                "bias": -0.16784876585006714,
                "weights": [
                    0.474065363407135,
                    0.3297799229621887,
                    0.0777825117111206
                ]
            },
            "neuron_2": {
                "bias": -0.35554367303848267,
                "weights": [
                    0.007455706596374512,
                    0.015915393829345703,
                    0.13413798809051514
                ]
            },
            "neuron_3": {
                "bias": 0.2500106692314148,
                "weights": [
                    0.5476394295692444,
                    -0.4981544613838196,
                    -0.33956417441368103
                ]
            }
        },
        "layer_1": {
            "neuron_0": {
                "bias": 0.5791711211204529,
                "weights": [
                    -0.22710958123207092,
                    -0.07474899291992188,
                    0.42574232816696167,
                    -0.2870112955570221
                ]
            },
            "neuron_1": {
                "bias": -0.5574663281440735,
                "weights": [
                    0.30581074953079224,
                    -0.534522533416748,
                    0.5455885529518127,
                    0.6446699500083923
                ]
            },
            "neuron_2": {
                "bias": 0.3887428641319275,
                "weights": [
                    0.5176457762718201,
                    0.5299509167671204,
                    0.5045717358589172,
                    -0.46928006410598755
                ]
            },
            "neuron_3": {
                "bias": -0.1343943476676941,
                "weights": [
                    0.41993170976638794,
                    0.25227516889572144,
                    0.13204443454742432,
                    -0.525977373123169
                ]
            }
        },
        "output": {
            "bias": 0.03304851055145264,
            "weights": [
                0.4882504343986511,
                -0.35387736558914185,
                -0.4647938311100006,
                -0.19536423683166504
            ]
        },
        "score": 1
    },
    "chromosome_19": {
        "layer_0": {
            "neuron_0": {
                "bias": -0.3900662064552307,
                "weights": [
                    -0.023817509412765503,
                    0.5054780840873718,
                    1.2787439823150635
                ]
            },
            "neuron_1": {
                "bias": 0.31671759486198425,
                "weights": [
                    0.474065363407135,
                    0.3297799229621887,
                    0.0777825117111206
                ]
            },
            "neuron_2": {
                "bias": -0.35554367303848267,
                "weights": [
                    0.007455706596374512,
                    0.015915393829345703,
                    0.13413798809051514
                ]
            },
            "neuron_3": {
                "bias": 0.2500106692314148,
                "weights": [
                    0.5476394295692444,
                    -0.4981544613838196,
                    -0.33956417441368103
                ]
            }
        },
        "layer_1": {
            "neuron_0": {
                "bias": 0.5791711211204529,
                "weights": [
                    -0.22710958123207092,
                    -0.07474899291992188,
                    0.42574232816696167,
                    -0.2870112955570221
                ]
            },
            "neuron_1": {
                "bias": -0.5574663281440735,
                "weights": [
                    0.30581074953079224,
                    -0.534522533416748,
                    0.5455885529518127,
                    0.6446699500083923
                ]
            },
            "neuron_2": {
                "bias": 0.3887428641319275,
                "weights": [
                    0.5176457762718201,
                    0.5299509167671204,
                    0.5045717358589172,
                    -0.46928006410598755
                ]
            },
            "neuron_3": {
                "bias": -0.1343943476676941,
                "weights": [
                    0.41993170976638794,
                    0.25227516889572144,
                    0.13204443454742432,
                    -0.525977373123169
                ]
            }
        },
        "output": {
            "bias": 0.03304851055145264,
            "weights": [
                0.4882504343986511,
                -0.35387736558914185,
                -0.4647938311100006,
                -0.19536423683166504
            ]
        },
        "score": 1
    },
    "chromosome_2": {
        "layer_0": {
            "neuron_0": {
                "bias": -0.3900662064552307,
                "weights": [
                    0.41172832250595093,
                    -0.3490920662879944,
                    1.2787439823150635
                ]
            },
            "neuron_1": {
                "bias": -0.3138902485370636,
                "weights": [
                    1.0391390323638916,
                    0.3297799229621887,
                    0.0777825117111206
                ]
            },
            "neuron_2": {
                "bias": -0.35554367303848267,
                "weights": [
                    0.007455706596374512,
                    0.015915393829345703,
                    0.13413798809051514
                ]
            },
            "neuron_3": {
                "bias": 0.2500106692314148,
                "weights": [
                    0.5476394295692444,
                    -0.4981544613838196,
                    -0.33956417441368103
                ]
            }
        },
        "layer_1": {
            "neuron_0": {
                "bias": 0.5791711211204529,
                "weights": [
                    -0.22710958123207092,
                    -0.07474899291992188,
                    0.3162328004837036,
                    -0.2870112955570221
                ]
            },
            "neuron_1": {
                "bias": -0.5574663281440735,
                "weights": [
                    0.30581074953079224,
                    -0.534522533416748,
                    0.5455885529518127,
                    0.6446699500083923
                ]
            },
            "neuron_2": {
                "bias": 0.239457368850708,
                "weights": [
                    0.5176457762718201,
                    0.5299509167671204,
                    0.5045717358589172,
                    -0.46928006410598755
                ]
            },
            "neuron_3": {
                "bias": -0.1343943476676941,
                "weights": [
                    0.41993170976638794,
                    0.25227516889572144,
                    0.13204443454742432,
                    -0.525977373123169
                ]
            }
        },
        "output": {
            "bias": 0.03304851055145264,
            "weights": [
                0.4882504343986511,
                -0.35387736558914185,
                -0.35601213574409485,
                -0.19536423683166504
            ]
        },
        "score": 1
    },
    "chromosome_20": {
        "layer_0": {
            "neuron_0": {
                "bias": -0.3900662064552307,
                "weights": [
                    0.41172832250595093,
                    -0.3490920662879944,
                    1.2787439823150635
                ]
            },
            "neuron_1": {
                "bias": 0.16805195808410645,
                "weights": [
                    0.474065363407135,
                    0.3297799229621887,
                    0.0777825117111206
                ]
            },
            "neuron_2": {
                "bias": -0.35554367303848267,
                "weights": [
                    0.007455706596374512,
                    0.015915393829345703,
                    0.13413798809051514
                ]
            },
            "neuron_3": {
                "bias": 0.2500106692314148,
                "weights": [
                    0.5476394295692444,
                    -0.4981544613838196,
                    -0.33956417441368103
                ]
            }
        },
        "layer_1": {
            "neuron_0": {
                "bias": 0.5791711211204529,
                "weights": [
                    -0.22710958123207092,
                    -0.07474899291992188,
                    0.42574232816696167,
                    -0.2870112955570221
                ]
            },
            "neuron_1": {
                "bias": -0.5574663281440735,
                "weights": [
                    0.30581074953079224,
                    -0.534522533416748,
                    0.5455885529518127,
                    0.6446699500083923
                ]
            },
            "neuron_2": {
                "bias": 0.239457368850708,
                "weights": [
                    0.5176457762718201,
                    0.5299509167671204,
                    0.5045717358589172,
                    -0.46928006410598755
                ]
            },
            "neuron_3": {
                "bias": -0.1343943476676941,
                "weights": [
                    0.41993170976638794,
                    0.25227516889572144,
                    0.13204443454742432,
                    -0.525977373123169
                ]
            }
        },
        "output": {
            "bias": 0.03304851055145264,
            "weights": [
                0.4882504343986511,
                -0.35387736558914185,
                -0.4647938311100006,
                -0.19536423683166504
            ]
        },
        "score": 1
    },
    "chromosome_21": {
        "layer_0": {
            "neuron_0": {
                "bias": -0.3900662064552307,
                "weights": [
                    0.41172832250595093,
                    -0.3490920662879944,
                    1.2787439823150635
                ]
            },
            "neuron_1": {
                "bias": -0.16784876585006714,
                "weights": [
                    0.474065363407135,
                    0.3297799229621887,
                    0.0777825117111206
                ]
            },
            "neuron_2": {
                "bias": -0.35554367303848267,
                "weights": [
                    0.007455706596374512,
                    0.015915393829345703,
                    0.13413798809051514
                ]
            },
            "neuron_3": {
                "bias": 0.2500106692314148,
                "weights": [
                    0.5476394295692444,
                    -0.4981544613838196,
                    -0.33956417441368103
                ]
            }
        },
        "layer_1": {
            "neuron_0": {
                "bias": 0.5791711211204529,
                "weights": [
                    -0.22710958123207092,
                    -0.07474899291992188,
                    0.42574232816696167,
                    -0.2870112955570221
                ]
            },
            "neuron_1": {
                "bias": -0.5574663281440735,
                "weights": [
                    0.30581074953079224,
                    -0.534522533416748,
                    0.5455885529518127,
                    0.6446699500083923
                ]
            },
            "neuron_2": {
                "bias": 0.239457368850708,
                "weights": [
                    0.7964583039283752,
                    0.5299509167671204,
                    0.5045717358589172,
                    -0.46928006410598755
                ]
            },
            "neuron_3": {
                "bias": -0.1343943476676941,
                "weights": [
                    0.41993170976638794,
                    0.25227516889572144,
                    0.13204443454742432,
                    -0.525977373123169
                ]
            }
        },
        "output": {
            "bias": 0.03304851055145264,
            "weights": [
                0.4882504343986511,
                -0.35387736558914185,
                -0.4647938311100006,
                -0.19536423683166504
            ]
        },
        "score": 1
    },
    "chromosome_22": {
        "layer_0": {
            "neuron_0": {
                "bias": -0.3900662064552307,
                "weights": [
                    0.41172832250595093,
                    -0.3490920662879944,
                    1.2787439823150635
                ]
            },
            "neuron_1": {
                "bias": -0.3138902485370636,
                "weights": [
                    0.474065363407135,
                    0.3297799229621887,
                    0.0777825117111206
                ]
            },
            "neuron_2": {
                "bias": -0.35554367303848267,
                "weights": [
                    0.007455706596374512,
                    0.015915393829345703,
                    0.13413798809051514
                ]
            },
            "neuron_3": {
                "bias": 0.2500106692314148,
                "weights": [
                    0.5476394295692444,
                    -0.4981544613838196,
                    -0.33956417441368103
                ]
            }
        },
        "layer_1": {
            "neuron_0": {
                "bias": 0.5791711211204529,
                "weights": [
                    -0.22710958123207092,
                    -0.07474899291992188,
                    0.42574232816696167,
                    -0.2870112955570221
                ]
            },
            "neuron_1": {
                "bias": -0.5574663281440735,
                "weights": [
                    0.30581074953079224,
                    -0.534522533416748,
                    0.5455885529518127,
                    0.6446699500083923
                ]
            },
            "neuron_2": {
                "bias": 0.239457368850708,
                "weights": [
                    0.5176457762718201,
                    0.5299509167671204,
                    0.5045717358589172,
                    -0.46928006410598755
                ]
            },
            "neuron_3": {
                "bias": -0.1343943476676941,
                "weights": [
                    0.41993170976638794,
                    0.25227516889572144,
                    0.13204443454742432,
                    -0.525977373123169
                ]
            }
        },
        "output": {
            "bias": 0.03304851055145264,
            "weights": [
                0.4882504343986511,
                -0.35387736558914185,
                -0.4647938311100006,
                -0.19536423683166504
            ]
        },
        "score": 1
    },
    "chromosome_23": {
        "layer_0": {
            "neuron_0": {
                "bias": -0.3900662064552307,
                "weights": [
                    0.41172832250595093,
                    -0.3490920662879944,
                    1.2787439823150635
                ]
            },
            "neuron_1": {
                "bias": -0.3138902485370636,
                "weights": [
                    0.474065363407135,
                    0.3297799229621887,
                    0.0777825117111206
                ]
            },
            "neuron_2": {
                "bias": -0.35554367303848267,
                "weights": [
                    0.007455706596374512,
                    0.015915393829345703,
                    0.13413798809051514
                ]
            },
            "neuron_3": {
                "bias": 0.2500106692314148,
                "weights": [
                    0.5476394295692444,
                    -0.4981544613838196,
                    -0.33956417441368103
                ]
            }
        },
        "layer_1": {
            "neuron_0": {
                "bias": 0.5791711211204529,
                "weights": [
                    -0.22710958123207092,
                    -0.07474899291992188,
                    0.42574232816696167,
                    -0.2870112955570221
                ]
            },
            "neuron_1": {
                "bias": -0.5574663281440735,
                "weights": [
                    0.30581074953079224,
                    -0.534522533416748,
                    0.5455885529518127,
                    0.6446699500083923
                ]
            },
            "neuron_2": {
                "bias": 0.239457368850708,
                "weights": [
                    0.5176457762718201,
                    0.5299509167671204,
                    0.5045717358589172,
                    -0.46928006410598755
                ]
            },
            "neuron_3": {
                "bias": -0.1343943476676941,
                "weights": [
                    0.41993170976638794,
                    0.25227516889572144,
                    0.13204443454742432,
                    -0.525977373123169
                ]
            }
        },
        "output": {
            "bias": 0.03304851055145264,
            "weights": [
                0.4882504343986511,
                -0.35387736558914185,
                -0.4647938311100006,
                -0.19536423683166504
            ]
        },
        "score": 1
    },
    "chromosome_24": {
        "layer_0": {
            "neuron_0": {
                "bias": -0.3900662064552307,
                "weights": [
                    0.41172832250595093,
                    -0.3490920662879944,
                    1.2787439823150635
                ]
            },
            "neuron_1": {
                "bias": -0.16784876585006714,
                "weights": [
                    0.474065363407135,
                    0.3297799229621887,
                    0.0777825117111206
                ]
            },
            "neuron_2": {
                "bias": -0.35554367303848267,
                "weights": [
                    0.007455706596374512,
                    0.015915393829345703,
                    0.13413798809051514
                ]
            },
            "neuron_3": {
                "bias": 0.2500106692314148,
                "weights": [
                    0.5476394295692444,
                    -0.4981544613838196,
                    -0.33956417441368103
                ]
            }
        },
        "layer_1": {
            "neuron_0": {
                "bias": 0.5791711211204529,
                "weights": [
                    -0.22710958123207092,
                    -0.07474899291992188,
                    0.42574232816696167,
                    -0.2870112955570221
                ]
            },
            "neuron_1": {
                "bias": -0.5574663281440735,
                "weights": [
                    -0.24211764335632324,
                    -0.534522533416748,
                    0.5455885529518127,
                    0.6446699500083923
                ]
            },
            "neuron_2": {
                "bias": 0.239457368850708,
                "weights": [
                    0.5176457762718201,
                    0.5299509167671204,
                    0.5045717358589172,
                    -0.46928006410598755
                ]
            },
            "neuron_3": {
                "bias": -0.1343943476676941,
                "weights": [
                    0.41993170976638794,
                    0.25227516889572144,
                    0.13204443454742432,
                    -0.525977373123169
                ]
            }
        },
        "output": {
            "bias": 0.03304851055145264,
            "weights": [
                0.4882504343986511,
                -0.35387736558914185,
                -0.4647938311100006,
                -0.19536423683166504
            ]
        },
        "score": 0
    },
    "chromosome_25": {
        "layer_0": {
            "neuron_0": {
                "bias": -0.3900662064552307,
                "weights": [
                    0.41172832250595093,
                    -0.3490920662879944,
                    1.2787439823150635
                ]
            },
            "neuron_1": {
                "bias": -0.16784876585006714,
                "weights": [
                    0.474065363407135,
                    0.3297799229621887,
                    0.0777825117111206
                ]
            },
            "neuron_2": {
                "bias": -0.35554367303848267,
                "weights": [
                    0.007455706596374512,
                    0.015915393829345703,
                    0.13413798809051514
                ]
            },
            "neuron_3": {
                "bias": 0.2500106692314148,
                "weights": [
                    0.5476394295692444,
                    -0.4981544613838196,
                    -0.33956417441368103
                ]
            }
        },
        "layer_1": {
            "neuron_0": {
                "bias": 0.5791711211204529,
                "weights": [
                    -0.22710958123207092,
                    -0.07474899291992188,
                    0.42574232816696167,
                    -0.2870112955570221
                ]
            },
            "neuron_1": {
                "bias": -0.5574663281440735,
                "weights": [
                    0.30581074953079224,
                    -0.534522533416748,
                    0.5455885529518127,
                    0.6446699500083923
                ]
            },
            "neuron_2": {
                "bias": 0.239457368850708,
                "weights": [
                    0.5176457762718201,
                    0.5299509167671204,
                    0.5045717358589172,
                    -0.46928006410598755
                ]
            },
            "neuron_3": {
                "bias": -0.1343943476676941,
                "weights": [
                    0.41993170976638794,
                    0.25227516889572144,
                    0.13204443454742432,
                    -0.525977373123169
                ]
            }
        },
        "output": {
            "bias": 0.03304851055145264,
            "weights": [
                0.4882504343986511,
                -0.35387736558914185,
                -0.4647938311100006,
                -0.19536423683166504
            ]
        },
        "score": 1
    },
    "chromosome_26": {
        "layer_0": {
            "neuron_0": {
                "bias": -0.3900662064552307,
                "weights": [
                    0.41172832250595093,
                    -0.3490920662879944,
                    1.2787439823150635
                ]
            },
            "neuron_1": {
                "bias": -0.16784876585006714,
                "weights": [
                    0.474065363407135,
                    0.3297799229621887,
                    0.0777825117111206
                ]
            },
            "neuron_2": {
                "bias": -0.35554367303848267,
                "weights": [
                    0.007455706596374512,
                    0.015915393829345703,
                    0.13413798809051514
                ]
            },
            "neuron_3": {
                "bias": 0.2500106692314148,
                "weights": [
                    0.5476394295692444,
                    -0.4981544613838196,
                    -0.33956417441368103
                ]
            }
        },
        "layer_1": {
            "neuron_0": {
                "bias": 0.5791711211204529,
                "weights": [
                    -0.22710958123207092,
                    -0.07474899291992188,
                    0.42574232816696167,
                    -0.2870112955570221
                ]
            },
            "neuron_1": {
                "bias": -0.5574663281440735,
                "weights": [
                    0.30581074953079224,
                    -0.534522533416748,
                    0.5455885529518127,
                    0.6446699500083923
                ]
            },
            "neuron_2": {
                "bias": 0.239457368850708,
                "weights": [
                    0.5176457762718201,
                    0.5299509167671204,
                    0.5045717358589172,
                    -0.46928006410598755
                ]
            },
            "neuron_3": {
                "bias": -0.1343943476676941,
                "weights": [
                    0.41993170976638794,
                    0.25227516889572144,
                    0.13204443454742432,
                    -0.525977373123169
                ]
            }
        },
        "output": {
            "bias": 0.03304851055145264,
            "weights": [
                0.4882504343986511,
                -0.35387736558914185,
                -0.4647938311100006,
                -0.19536423683166504
            ]
        },
        "score": 1
    },
    "chromosome_27": {
        "layer_0": {
            "neuron_0": {
                "bias": -0.3900662064552307,
                "weights": [
                    0.41172832250595093,
                    -0.3490920662879944,
                    1.2787439823150635
                ]
            },
            "neuron_1": {
                "bias": -0.16784876585006714,
                "weights": [
                    0.474065363407135,
                    0.3297799229621887,
                    0.0777825117111206
                ]
            },
            "neuron_2": {
                "bias": -0.35554367303848267,
                "weights": [
                    0.007455706596374512,
                    0.015915393829345703,
                    0.13413798809051514
                ]
            },
            "neuron_3": {
                "bias": 0.2500106692314148,
                "weights": [
                    0.5476394295692444,
                    -0.4981544613838196,
                    -0.33956417441368103
                ]
            }
        },
        "layer_1": {
            "neuron_0": {
                "bias": 0.5791711211204529,
                "weights": [
                    -0.22710958123207092,
                    -0.07474899291992188,
                    0.42574232816696167,
                    -0.2870112955570221
                ]
            },
            "neuron_1": {
                "bias": -0.5574663281440735,
                "weights": [
                    0.30581074953079224,
                    -0.534522533416748,
                    0.5455885529518127,
                    0.6446699500083923
                ]
            },
            "neuron_2": {
                "bias": 0.239457368850708,
                "weights": [
                    0.5176457762718201,
                    0.5299509167671204,
                    0.5045717358589172,
                    -0.46928006410598755
                ]
            },
            "neuron_3": {
                "bias": -0.1343943476676941,
                "weights": [
                    0.41993170976638794,
                    0.25227516889572144,
                    0.13204443454742432,
                    -0.525977373123169
                ]
            }
        },
        "output": {
            "bias": 0.03304851055145264,
            "weights": [
                0.4882504343986511,
                -0.35387736558914185,
                -0.4647938311100006,
                -0.19536423683166504
            ]
        },
        "score": 1
    },
    "chromosome_28": {
        "layer_0": {
            "neuron_0": {
                "bias": -0.3900662064552307,
                "weights": [
                    0.41172832250595093,
                    -0.3490920662879944,
                    1.2787439823150635
                ]
            },
            "neuron_1": {
                "bias": -0.16784876585006714,
                "weights": [
                    0.474065363407135,
                    0.3297799229621887,
                    0.0777825117111206
                ]
            },
            "neuron_2": {
                "bias": -0.35554367303848267,
                "weights": [
                    0.007455706596374512,
                    0.015915393829345703,
                    0.13413798809051514
                ]
            },
            "neuron_3": {
                "bias": 0.2500106692314148,
                "weights": [
                    0.5476394295692444,
                    -0.4981544613838196,
                    -0.33956417441368103
                ]
            }
        },
        "layer_1": {
            "neuron_0": {
                "bias": 0.5791711211204529,
                "weights": [
                    -0.22710958123207092,
                    -0.07474899291992188,
                    0.42574232816696167,
                    -0.2870112955570221
                ]
            },
            "neuron_1": {
                "bias": -0.5574663281440735,
                "weights": [
                    0.30581074953079224,
                    -0.534522533416748,
                    0.5455885529518127,
                    0.6446699500083923
                ]
            },
            "neuron_2": {
                "bias": 0.239457368850708,
                "weights": [
                    0.5176457762718201,
                    0.5299509167671204,
                    0.5045717358589172,
                    -0.46928006410598755
                ]
            },
            "neuron_3": {
                "bias": -0.1343943476676941,
                "weights": [
                    0.41993170976638794,
                    0.25227516889572144,
                    0.13204443454742432,
                    -0.525977373123169
                ]
            }
        },
        "output": {
            "bias": 0.03304851055145264,
            "weights": [
                0.4882504343986511,
                -0.35387736558914185,
                -0.4647938311100006,
                -0.19536423683166504
            ]
        },
        "score": 1
    },
    "chromosome_29": {
        "layer_0": {
            "neuron_0": {
                "bias": -0.3900662064552307,
                "weights": [
                    0.41172832250595093,
                    0.5054780840873718,
                    1.2787439823150635
                ]
            },
            "neuron_1": {
                "bias": -0.3138902485370636,
                "weights": [
                    0.474065363407135,
                    0.3297799229621887,
                    0.0777825117111206
                ]
            },
            "neuron_2": {
                "bias": -0.35554367303848267,
                "weights": [
                    0.007455706596374512,
                    0.015915393829345703,
                    0.13413798809051514
                ]
            },
            "neuron_3": {
                "bias": 0.2500106692314148,
                "weights": [
                    0.5476394295692444,
                    -0.4981544613838196,
                    -0.33956417441368103
                ]
            }
        },
        "layer_1": {
            "neuron_0": {
                "bias": 0.5791711211204529,
                "weights": [
                    -0.22710958123207092,
                    -0.07474899291992188,
                    0.42574232816696167,
                    -0.2870112955570221
                ]
            },
            "neuron_1": {
                "bias": -0.5574663281440735,
                "weights": [
                    0.30581074953079224,
                    -0.534522533416748,
                    0.5455885529518127,
                    0.6446699500083923
                ]
            },
            "neuron_2": {
                "bias": 0.239457368850708,
                "weights": [
                    0.5176457762718201,
                    0.5299509167671204,
                    0.5045717358589172,
                    -0.46928006410598755
                ]
            },
            "neuron_3": {
                "bias": -0.1343943476676941,
                "weights": [
                    0.41993170976638794,
                    0.25227516889572144,
                    0.13204443454742432,
                    -0.525977373123169
                ]
            }
        },
        "output": {
            "bias": 0.03304851055145264,
            "weights": [
                0.4882504343986511,
                -0.35387736558914185,
                -0.4647938311100006,
                -0.19536423683166504
            ]
        },
        "score": 27
    },
    "chromosome_3": {
        "layer_0": {
            "neuron_0": {
                "bias": -0.3900662064552307,
                "weights": [
                    0.41172832250595093,
                    -0.3490920662879944,
                    1.2787439823150635
                ]
            },
            "neuron_1": {
                "bias": -0.3138902485370636,
                "weights": [
                    1.0391390323638916,
                    0.3297799229621887,
                    0.0777825117111206
                ]
            },
            "neuron_2": {
                "bias": -0.35554367303848267,
                "weights": [
                    0.007455706596374512,
                    0.015915393829345703,
                    0.13413798809051514
                ]
            },
            "neuron_3": {
                "bias": 0.2500106692314148,
                "weights": [
                    0.5476394295692444,
                    -0.4981544613838196,
                    -0.33956417441368103
                ]
            }
        },
        "layer_1": {
            "neuron_0": {
                "bias": 0.5791711211204529,
                "weights": [
                    -0.22710958123207092,
                    -0.07474899291992188,
                    0.3162328004837036,
                    -0.2870112955570221
                ]
            },
            "neuron_1": {
                "bias": -0.5574663281440735,
                "weights": [
                    0.30581074953079224,
                    -0.534522533416748,
                    0.5455885529518127,
                    0.6446699500083923
                ]
            },
            "neuron_2": {
                "bias": 0.239457368850708,
                "weights": [
                    0.5176457762718201,
                    0.5299509167671204,
                    0.5045717358589172,
                    -0.46928006410598755
                ]
            },
            "neuron_3": {
                "bias": -0.1343943476676941,
                "weights": [
                    0.41993170976638794,
                    0.25227516889572144,
                    0.13204443454742432,
                    -0.525977373123169
                ]
            }
        },
        "output": {
            "bias": 0.03304851055145264,
            "weights": [
                0.4882504343986511,
                -0.35387736558914185,
                -0.4647938311100006,
                -0.19536423683166504
            ]
        },
        "score": 1
    },
    "chromosome_30": {
        "layer_0": {
            "neuron_0": {
                "bias": -0.3900662064552307,
                "weights": [
                    0.41172832250595093,
                    -0.3490920662879944,
                    1.2787439823150635
                ]
            },
            "neuron_1": {
                "bias": 0.16805195808410645,
                "weights": [
                    0.474065363407135,
                    0.3297799229621887,
                    0.0777825117111206
                ]
            },
            "neuron_2": {
                "bias": -0.35554367303848267,
                "weights": [
                    0.007455706596374512,
                    0.015915393829345703,
                    0.13413798809051514
                ]
            },
            "neuron_3": {
                "bias": 0.2500106692314148,
                "weights": [
                    0.5476394295692444,
                    -0.4981544613838196,
                    -0.33956417441368103
                ]
            }
        },
        "layer_1": {
            "neuron_0": {
                "bias": 0.5791711211204529,
                "weights": [
                    -0.22710958123207092,
                    -0.07474899291992188,
                    0.42574232816696167,
                    -0.2870112955570221
                ]
            },
            "neuron_1": {
                "bias": -0.5574663281440735,
                "weights": [
                    0.30581074953079224,
                    -0.534522533416748,
                    0.5455885529518127,
                    0.6446699500083923
                ]
            },
            "neuron_2": {
                "bias": 0.239457368850708,
                "weights": [
                    0.5176457762718201,
                    0.5299509167671204,
                    0.5045717358589172,
                    -0.46928006410598755
                ]
            },
            "neuron_3": {
                "bias": -0.1343943476676941,
                "weights": [
                    0.41993170976638794,
                    0.25227516889572144,
                    0.13204443454742432,
                    -0.525977373123169
                ]
            }
        },
        "output": {
            "bias": 0.03304851055145264,
            "weights": [
                0.4882504343986511,
                -0.35387736558914185,
                -0.4647938311100006,
                -0.19536423683166504
            ]
        },
        "score": 1
    },
    "chromosome_31": {
        "layer_0": {
            "neuron_0": {
                "bias": -0.3900662064552307,
                "weights": [
                    0.41172832250595093,
                    -0.3490920662879944,
                    1.2787439823150635
                ]
            },
            "neuron_1": {
                "bias": -0.16784876585006714,
                "weights": [
                    0.474065363407135,
                    0.3297799229621887,
                    0.0777825117111206
                ]
            },
            "neuron_2": {
                "bias": -0.35554367303848267,
                "weights": [
                    0.007455706596374512,
                    0.015915393829345703,
                    0.13413798809051514
                ]
            },
            "neuron_3": {
                "bias": 0.2500106692314148,
                "weights": [
                    0.5476394295692444,
                    -0.4981544613838196,
                    -0.33956417441368103
                ]
            }
        },
        "layer_1": {
            "neuron_0": {
                "bias": 0.5791711211204529,
                "weights": [
                    -0.22710958123207092,
                    -0.07474899291992188,
                    0.42574232816696167,
                    -0.2870112955570221
                ]
            },
            "neuron_1": {
                "bias": -0.5574663281440735,
                "weights": [
                    0.30581074953079224,
                    -0.534522533416748,
                    0.5455885529518127,
                    0.6446699500083923
                ]
            },
            "neuron_2": {
                "bias": 0.239457368850708,
                "weights": [
                    0.5176457762718201,
                    0.5299509167671204,
                    0.5045717358589172,
                    -0.46928006410598755
                ]
            },
            "neuron_3": {
                "bias": -0.1343943476676941,
                "weights": [
                    0.41993170976638794,
                    0.25227516889572144,
                    0.13204443454742432,
                    -0.525977373123169
                ]
            }
        },
        "output": {
            "bias": 0.03304851055145264,
            "weights": [
                0.4882504343986511,
                -0.35387736558914185,
                -0.4647938311100006,
                -0.19536423683166504
            ]
        },
        "score": 1
    },
    "chromosome_32": {
        "layer_0": {
            "neuron_0": {
                "bias": -0.3900662064552307,
                "weights": [
                    0.41172832250595093,
                    -0.3490920662879944,
                    1.2787439823150635
                ]
            },
            "neuron_1": {
                "bias": -0.3138902485370636,
                "weights": [
                    0.474065363407135,
                    0.3297799229621887,
                    0.0777825117111206
                ]
            },
            "neuron_2": {
                "bias": -0.35554367303848267,
                "weights": [
                    0.007455706596374512,
                    0.015915393829345703,
                    0.13413798809051514
                ]
            },
            "neuron_3": {
                "bias": 0.2500106692314148,
                "weights": [
                    0.5476394295692444,
                    -0.4981544613838196,
                    -0.33956417441368103
                ]
            }
        },
        "layer_1": {
            "neuron_0": {
                "bias": 0.5791711211204529,
                "weights": [
                    -0.22710958123207092,
                    -0.07474899291992188,
                    0.42574232816696167,
                    -0.2870112955570221
                ]
            },
            "neuron_1": {
                "bias": -0.5574663281440735,
                "weights": [
                    0.30581074953079224,
                    -0.534522533416748,
                    0.5455885529518127,
                    0.6446699500083923
                ]
            },
            "neuron_2": {
                "bias": 0.239457368850708,
                "weights": [
                    0.5176457762718201,
                    0.5299509167671204,
                    0.5045717358589172,
                    -0.46928006410598755
                ]
            },
            "neuron_3": {
                "bias": -0.1343943476676941,
                "weights": [
                    0.41993170976638794,
                    0.25227516889572144,
                    0.13204443454742432,
                    -0.525977373123169
                ]
            }
        },
        "output": {
            "bias": 0.03304851055145264,
            "weights": [
                0.4882504343986511,
                -0.35387736558914185,
                -0.4647938311100006,
                -0.19536423683166504
            ]
        },
        "score": 1
    },
    "chromosome_33": {
        "layer_0": {
            "neuron_0": {
                "bias": -0.3900662064552307,
                "weights": [
                    0.41172832250595093,
                    -0.3490920662879944,
                    1.2787439823150635
                ]
            },
            "neuron_1": {
                "bias": -0.3138902485370636,
                "weights": [
                    0.474065363407135,
                    0.3297799229621887,
                    0.0777825117111206
                ]
            },
            "neuron_2": {
                "bias": -0.35554367303848267,
                "weights": [
                    0.007455706596374512,
                    0.015915393829345703,
                    0.8667100667953491
                ]
            },
            "neuron_3": {
                "bias": 0.2500106692314148,
                "weights": [
                    0.5476394295692444,
                    -0.4981544613838196,
                    -0.33956417441368103
                ]
            }
        },
        "layer_1": {
            "neuron_0": {
                "bias": 0.5791711211204529,
                "weights": [
                    -0.22710958123207092,
                    -0.07474899291992188,
                    0.42574232816696167,
                    -0.2870112955570221
                ]
            },
            "neuron_1": {
                "bias": -0.5574663281440735,
                "weights": [
                    0.30581074953079224,
                    -0.534522533416748,
                    0.5455885529518127,
                    0.6446699500083923
                ]
            },
            "neuron_2": {
                "bias": 0.239457368850708,
                "weights": [
                    0.5176457762718201,
                    0.5299509167671204,
                    0.5045717358589172,
                    -0.46928006410598755
                ]
            },
            "neuron_3": {
                "bias": -0.1343943476676941,
                "weights": [
                    0.41993170976638794,
                    0.25227516889572144,
                    0.13204443454742432,
                    -0.525977373123169
                ]
            }
        },
        "output": {
            "bias": 0.03304851055145264,
            "weights": [
                0.4882504343986511,
                -0.35387736558914185,
                -0.4647938311100006,
                -0.19536423683166504
            ]
        },
        "score": 1
    },
    "chromosome_34": {
        "layer_0": {
            "neuron_0": {
                "bias": -0.3900662064552307,
                "weights": [
                    0.41172832250595093,
                    -0.3490920662879944,
                    1.2787439823150635
                ]
            },
            "neuron_1": {
                "bias": -0.16784876585006714,
                "weights": [
                    0.474065363407135,
                    0.3297799229621887,
                    0.0777825117111206
                ]
            },
            "neuron_2": {
                "bias": -0.35554367303848267,
                "weights": [
                    0.007455706596374512,
                    0.015915393829345703,
                    0.13413798809051514
                ]
            },
            "neuron_3": {
                "bias": 0.2500106692314148,
                "weights": [
                    0.5476394295692444,
                    -0.4981544613838196,
                    -0.33956417441368103
                ]
            }
        },
        "layer_1": {
            "neuron_0": {
                "bias": 0.5791711211204529,
                "weights": [
                    -0.22710958123207092,
                    -0.07474899291992188,
                    0.42574232816696167,
                    -0.2870112955570221
                ]
            },
            "neuron_1": {
                "bias": -0.5574663281440735,
                "weights": [
                    0.30581074953079224,
                    -0.534522533416748,
                    0.5455885529518127,
                    0.6446699500083923
                ]
            },
            "neuron_2": {
                "bias": 0.239457368850708,
                "weights": [
                    0.5176457762718201,
                    0.5299509167671204,
                    0.5045717358589172,
                    -0.46928006410598755
                ]
            },
            "neuron_3": {
                "bias": -0.1343943476676941,
                "weights": [
                    0.41993170976638794,
                    0.25227516889572144,
                    0.13204443454742432,
                    -0.525977373123169
                ]
            }
        },
        "output": {
            "bias": 0.03304851055145264,
            "weights": [
                0.4882504343986511,
                -0.35387736558914185,
                -0.4647938311100006,
                -0.19536423683166504
            ]
        },
        "score": 1
    },
    "chromosome_35": {
        "layer_0": {
            "neuron_0": {
                "bias": -0.3900662064552307,
                "weights": [
                    0.41172832250595093,
                    -0.3490920662879944,
                    1.2787439823150635
                ]
            },
            "neuron_1": {
                "bias": -0.16784876585006714,
                "weights": [
                    0.474065363407135,
                    0.3297799229621887,
                    0.0777825117111206
                ]
            },
            "neuron_2": {
                "bias": -0.35554367303848267,
                "weights": [
                    0.007455706596374512,
                    0.015915393829345703,
                    0.13413798809051514
                ]
            },
            "neuron_3": {
                "bias": 0.2500106692314148,
                "weights": [
                    0.5476394295692444,
                    -0.4981544613838196,
                    -0.33956417441368103
                ]
            }
        },
        "layer_1": {
            "neuron_0": {
                "bias": 0.5791711211204529,
                "weights": [
                    -0.22710958123207092,
                    -0.07474899291992188,
                    0.42574232816696167,
                    -0.2870112955570221
                ]
            },
            "neuron_1": {
                "bias": -0.5574663281440735,
                "weights": [
                    0.30581074953079224,
                    -0.534522533416748,
                    0.5455885529518127,
                    0.6446699500083923
                ]
            },
            "neuron_2": {
                "bias": 0.239457368850708,
                "weights": [
                    0.5176457762718201,
                    0.5299509167671204,
                    0.5045717358589172,
                    -0.46928006410598755
                ]
            },
            "neuron_3": {
                "bias": -0.1343943476676941,
                "weights": [
                    0.41993170976638794,
                    0.25227516889572144,
                    0.13204443454742432,
                    -0.525977373123169
                ]
            }
        },
        "output": {
            "bias": 0.03304851055145264,
            "weights": [
                0.4882504343986511,
                -0.35387736558914185,
                -0.4647938311100006,
                -0.19536423683166504
            ]
        },
        "score": 1
    },
    "chromosome_36": {
        "layer_0": {
            "neuron_0": {
                "bias": -0.3900662064552307,
                "weights": [
                    0.41172832250595093,
                    -0.3490920662879944,
                    1.2787439823150635
                ]
            },
            "neuron_1": {
                "bias": -0.16784876585006714,
                "weights": [
                    0.474065363407135,
                    0.3297799229621887,
                    0.0777825117111206
                ]
            },
            "neuron_2": {
                "bias": -0.35554367303848267,
                "weights": [
                    0.007455706596374512,
                    0.015915393829345703,
                    0.13413798809051514
                ]
            },
            "neuron_3": {
                "bias": 0.2500106692314148,
                "weights": [
                    0.5476394295692444,
                    -0.4981544613838196,
                    -0.33956417441368103
                ]
            }
        },
        "layer_1": {
            "neuron_0": {
                "bias": 0.5791711211204529,
                "weights": [
                    -0.22710958123207092,
                    -0.07474899291992188,
                    0.42574232816696167,
                    -0.2870112955570221
                ]
            },
            "neuron_1": {
                "bias": -0.5574663281440735,
                "weights": [
                    0.30581074953079224,
                    -0.534522533416748,
                    0.5455885529518127,
                    0.6446699500083923
                ]
            },
            "neuron_2": {
                "bias": 0.239457368850708,
                "weights": [
                    0.5176457762718201,
                    0.5299509167671204,
                    0.5045717358589172,
                    -0.46928006410598755
                ]
            },
            "neuron_3": {
                "bias": -0.1343943476676941,
                "weights": [
                    0.41993170976638794,
                    0.25227516889572144,
                    0.13204443454742432,
                    -0.525977373123169
                ]
            }
        },
        "output": {
            "bias": 0.03304851055145264,
            "weights": [
                0.4882504343986511,
                -0.35387736558914185,
                -0.4647938311100006,
                -0.19536423683166504
            ]
        },
        "score": 1
    },
    "chromosome_37": {
        "layer_0": {
            "neuron_0": {
                "bias": -0.3900662064552307,
                "weights": [
                    0.41172832250595093,
                    -0.3490920662879944,
                    1.2787439823150635
                ]
            },
            "neuron_1": {
                "bias": -0.16784876585006714,
                "weights": [
                    0.474065363407135,
                    0.3297799229621887,
                    0.0777825117111206
                ]
            },
            "neuron_2": {
                "bias": -0.35554367303848267,
                "weights": [
                    0.007455706596374512,
                    0.015915393829345703,
                    0.13413798809051514
                ]
            },
            "neuron_3": {
                "bias": 0.2500106692314148,
                "weights": [
                    0.5476394295692444,
                    -0.4981544613838196,
                    -0.33956417441368103
                ]
            }
        },
        "layer_1": {
            "neuron_0": {
                "bias": 0.5791711211204529,
                "weights": [
                    -0.22710958123207092,
                    -0.07474899291992188,
                    0.42574232816696167,
                    -0.2870112955570221
                ]
            },
            "neuron_1": {
                "bias": -0.5574663281440735,
                "weights": [
                    0.30581074953079224,
                    -0.534522533416748,
                    0.5455885529518127,
                    0.6446699500083923
                ]
            },
            "neuron_2": {
                "bias": 0.239457368850708,
                "weights": [
                    0.5176457762718201,
                    0.5299509167671204,
                    0.5045717358589172,
                    -0.46928006410598755
                ]
            },
            "neuron_3": {
                "bias": -0.1343943476676941,
                "weights": [
                    0.41993170976638794,
                    0.25227516889572144,
                    0.13204443454742432,
                    -0.525977373123169
                ]
            }
        },
        "output": {
            "bias": 0.03304851055145264,
            "weights": [
                0.4882504343986511,
                -0.35387736558914185,
                -0.4647938311100006,
                -0.19536423683166504
            ]
        },
        "score": 1
    },
    "chromosome_38": {
        "layer_0": {
            "neuron_0": {
                "bias": -0.3900662064552307,
                "weights": [
                    0.41172832250595093,
                    -0.3490920662879944,
                    1.2787439823150635
                ]
            },
            "neuron_1": {
                "bias": -0.16784876585006714,
                "weights": [
                    0.474065363407135,
                    0.3297799229621887,
                    0.0777825117111206
                ]
            },
            "neuron_2": {
                "bias": -0.35554367303848267,
                "weights": [
                    0.007455706596374512,
                    0.015915393829345703,
                    0.13413798809051514
                ]
            },
            "neuron_3": {
                "bias": 0.2500106692314148,
                "weights": [
                    0.5476394295692444,
                    -0.4981544613838196,
                    -0.33956417441368103
                ]
            }
        },
        "layer_1": {
            "neuron_0": {
                "bias": 0.5791711211204529,
                "weights": [
                    -0.22710958123207092,
                    -0.07474899291992188,
                    0.42574232816696167,
                    -0.2870112955570221
                ]
            },
            "neuron_1": {
                "bias": -0.5574663281440735,
                "weights": [
                    0.30581074953079224,
                    -0.534522533416748,
                    0.5455885529518127,
                    0.6446699500083923
                ]
            },
            "neuron_2": {
                "bias": 0.239457368850708,
                "weights": [
                    0.5176457762718201,
                    0.5299509167671204,
                    0.5045717358589172,
                    -0.46928006410598755
                ]
            },
            "neuron_3": {
                "bias": -0.1343943476676941,
                "weights": [
                    0.41993170976638794,
                    0.25227516889572144,
                    0.13204443454742432,
                    -0.525977373123169
                ]
            }
        },
        "output": {
            "bias": 0.03304851055145264,
            "weights": [
                0.4882504343986511,
                -0.35387736558914185,
                -0.4647938311100006,
                -0.19536423683166504
            ]
        },
        "score": 1
    },
    "chromosome_39": {
        "layer_0": {
            "neuron_0": {
                "bias": -0.3900662064552307,
                "weights": [
                    0.4496728777885437,
                    0.5054780840873718,
                    1.2787439823150635
                ]
            },
            "neuron_1": {
                "bias": -0.3138902485370636,
                "weights": [
                    0.474065363407135,
                    0.3297799229621887,
                    0.0777825117111206
                ]
            },
            "neuron_2": {
                "bias": -0.35554367303848267,
                "weights": [
                    0.007455706596374512,
                    0.015915393829345703,
                    0.13413798809051514
                ]
            },
            "neuron_3": {
                "bias": 0.2500106692314148,
                "weights": [
                    0.5476394295692444,
                    -0.4981544613838196,
                    -0.33956417441368103
                ]
            }
        },
        "layer_1": {
            "neuron_0": {
                "bias": 0.5791711211204529,
                "weights": [
                    -0.22710958123207092,
                    -0.07474899291992188,
                    0.42574232816696167,
                    -0.2870112955570221
                ]
            },
            "neuron_1": {
                "bias": -0.5574663281440735,
                "weights": [
                    0.30581074953079224,
                    -0.534522533416748,
                    0.5455885529518127,
                    0.6446699500083923
                ]
            },
            "neuron_2": {
                "bias": 0.239457368850708,
                "weights": [
                    0.5176457762718201,
                    0.5299509167671204,
                    0.5045717358589172,
                    -0.46928006410598755
                ]
            },
            "neuron_3": {
                "bias": -0.1343943476676941,
                "weights": [
                    0.41993170976638794,
                    0.25227516889572144,
                    0.13204443454742432,
                    -0.525977373123169
                ]
            }
        },
        "output": {
            "bias": 0.03304851055145264,
            "weights": [
                0.4882504343986511,
                -0.35387736558914185,
                -0.4647938311100006,
                -0.19536423683166504
            ]
        },
        "score": 5
    },
    "chromosome_4": {
        "layer_0": {
            "neuron_0": {
                "bias": -0.3900662064552307,
                "weights": [
                    0.41172832250595093,
                    -0.3490920662879944,
                    1.2787439823150635
                ]
            },
            "neuron_1": {
                "bias": -0.16784876585006714,
                "weights": [
                    1.0391390323638916,
                    0.3297799229621887,
                    0.0777825117111206
                ]
            },
            "neuron_2": {
                "bias": -0.35554367303848267,
                "weights": [
                    0.007455706596374512,
                    0.015915393829345703,
                    0.13413798809051514
                ]
            },
            "neuron_3": {
                "bias": 0.2500106692314148,
                "weights": [
                    0.5476394295692444,
                    -0.4981544613838196,
                    -0.33956417441368103
                ]
            }
        },
        "layer_1": {
            "neuron_0": {
                "bias": 0.5791711211204529,
                "weights": [
                    -0.22710958123207092,
                    -0.07474899291992188,
                    0.3162328004837036,
                    -0.2870112955570221
                ]
            },
            "neuron_1": {
                "bias": -0.5574663281440735,
                "weights": [
                    0.30581074953079224,
                    -0.534522533416748,
                    0.5455885529518127,
                    0.6446699500083923
                ]
            },
            "neuron_2": {
                "bias": 0.239457368850708,
                "weights": [
                    0.5176457762718201,
                    0.5299509167671204,
                    0.5045717358589172,
                    -0.46928006410598755
                ]
            },
            "neuron_3": {
                "bias": -0.1343943476676941,
                "weights": [
                    0.41993170976638794,
                    0.25227516889572144,
                    0.13204443454742432,
                    -0.525977373123169
                ]
            }
        },
        "output": {
            "bias": 0.03304851055145264,
            "weights": [
                0.4882504343986511,
                -0.35387736558914185,
                -0.4647938311100006,
                -0.19536423683166504
            ]
        },
        "score": 1
    },
    "chromosome_40": {
        "layer_0": {
            "neuron_0": {
                "bias": -0.3900662064552307,
                "weights": [
                    0.41172832250595093,
                    -0.3490920662879944,
                    1.2787439823150635
                ]
            },
            "neuron_1": {
                "bias": 0.16805195808410645,
                "weights": [
                    0.474065363407135,
                    0.3297799229621887,
                    0.0777825117111206
                ]
            },
            "neuron_2": {
                "bias": -0.35554367303848267,
                "weights": [
                    0.007455706596374512,
                    0.015915393829345703,
                    0.13413798809051514
                ]
            },
            "neuron_3": {
                "bias": 0.2500106692314148,
                "weights": [
                    0.5476394295692444,
                    -0.4981544613838196,
                    -0.33956417441368103
                ]
            }
        },
        "layer_1": {
            "neuron_0": {
                "bias": 0.5791711211204529,
                "weights": [
                    -0.22710958123207092,
                    -0.07474899291992188,
                    -0.3449445962905884,
                    -0.2870112955570221
                ]
            },
            "neuron_1": {
                "bias": -0.5574663281440735,
                "weights": [
                    0.30581074953079224,
                    -0.534522533416748,
                    0.5455885529518127,
                    0.6446699500083923
                ]
            },
            "neuron_2": {
                "bias": 0.239457368850708,
                "weights": [
                    0.5176457762718201,
                    0.5299509167671204,
                    0.5045717358589172,
                    -0.46928006410598755
                ]
            },
            "neuron_3": {
                "bias": -0.1343943476676941,
                "weights": [
                    0.41993170976638794,
                    0.25227516889572144,
                    0.13204443454742432,
                    -0.525977373123169
                ]
            }
        },
        "output": {
            "bias": 0.03304851055145264,
            "weights": [
                0.4882504343986511,
                -0.35387736558914185,
                -0.4647938311100006,
                -0.19536423683166504
            ]
        },
        "score": 1
    },
    "chromosome_41": {
        "layer_0": {
            "neuron_0": {
                "bias": -0.3900662064552307,
                "weights": [
                    0.41172832250595093,
                    -0.10482901334762573,
                    1.2787439823150635
                ]
            },
            "neuron_1": {
                "bias": -0.16784876585006714,
                "weights": [
                    0.474065363407135,
                    0.3297799229621887,
                    0.0777825117111206
                ]
            },
            "neuron_2": {
                "bias": -0.35554367303848267,
                "weights": [
                    0.007455706596374512,
                    0.015915393829345703,
                    0.13413798809051514
                ]
            },
            "neuron_3": {
                "bias": 0.2500106692314148,
                "weights": [
                    0.5476394295692444,
                    -0.4981544613838196,
                    -0.33956417441368103
                ]
            }
        },
        "layer_1": {
            "neuron_0": {
                "bias": 0.5791711211204529,
                "weights": [
                    -0.22710958123207092,
                    -0.07474899291992188,
                    -0.3449445962905884,
                    -0.2870112955570221
                ]
            },
            "neuron_1": {
                "bias": -0.5574663281440735,
                "weights": [
                    0.30581074953079224,
                    -0.534522533416748,
                    0.5455885529518127,
                    0.6446699500083923
                ]
            },
            "neuron_2": {
                "bias": 0.239457368850708,
                "weights": [
                    0.5176457762718201,
                    0.5299509167671204,
                    0.5045717358589172,
                    -0.46928006410598755
                ]
            },
            "neuron_3": {
                "bias": -0.1343943476676941,
                "weights": [
                    0.41993170976638794,
                    0.25227516889572144,
                    0.13204443454742432,
                    -0.525977373123169
                ]
            }
        },
        "output": {
            "bias": 0.03304851055145264,
            "weights": [
                0.4882504343986511,
                -0.35387736558914185,
                -0.4647938311100006,
                -0.19536423683166504
            ]
        },
        "score": 1
    },
    "chromosome_42": {
        "layer_0": {
            "neuron_0": {
                "bias": -0.3900662064552307,
                "weights": [
                    0.41172832250595093,
                    -0.3490920662879944,
                    1.2787439823150635
                ]
            },
            "neuron_1": {
                "bias": -0.3138902485370636,
                "weights": [
                    0.474065363407135,
                    0.3297799229621887,
                    0.0777825117111206
                ]
            },
            "neuron_2": {
                "bias": -0.35554367303848267,
                "weights": [
                    0.007455706596374512,
                    0.015915393829345703,
                    0.13413798809051514
                ]
            },
            "neuron_3": {
                "bias": 0.2500106692314148,
                "weights": [
                    0.5476394295692444,
                    -0.4981544613838196,
                    -0.33956417441368103
                ]
            }
        },
        "layer_1": {
            "neuron_0": {
                "bias": 0.5791711211204529,
                "weights": [
                    -0.22710958123207092,
                    -0.07474899291992188,
                    -0.3449445962905884,
                    -0.2870112955570221
                ]
            },
            "neuron_1": {
                "bias": -0.5574663281440735,
                "weights": [
                    0.30581074953079224,
                    -0.534522533416748,
                    0.5455885529518127,
                    0.6446699500083923
                ]
            },
            "neuron_2": {
                "bias": 0.239457368850708,
                "weights": [
                    0.5176457762718201,
                    0.5299509167671204,
                    0.5045717358589172,
                    -0.46928006410598755
                ]
            },
            "neuron_3": {
                "bias": -0.1343943476676941,
                "weights": [
                    0.41993170976638794,
                    0.25227516889572144,
                    0.13204443454742432,
                    -0.525977373123169
                ]
            }
        },
        "output": {
            "bias": 0.03304851055145264,
            "weights": [
                0.4882504343986511,
                -0.35387736558914185,
                -0.4647938311100006,
                -0.19536423683166504
            ]
        },
        "score": 1
    },
    "chromosome_43": {
        "layer_0": {
            "neuron_0": {
                "bias": -0.3900662064552307,
                "weights": [
                    0.41172832250595093,
                    -0.3490920662879944,
                    1.2787439823150635
                ]
            },
            "neuron_1": {
                "bias": -0.3138902485370636,
                "weights": [
                    0.474065363407135,
                    0.3297799229621887,
                    0.0777825117111206
                ]
            },
            "neuron_2": {
                "bias": -0.35554367303848267,
                "weights": [
                    0.007455706596374512,
                    0.015915393829345703,
                    0.13413798809051514
                ]
            },
            "neuron_3": {
                "bias": 0.2500106692314148,
                "weights": [
                    0.5476394295692444,
                    -0.4981544613838196,
                    -0.33956417441368103
                ]
            }
        },
        "layer_1": {
            "neuron_0": {
                "bias": 0.5791711211204529,
                "weights": [
                    -0.22710958123207092,
                    -0.07474899291992188,
                    -0.3449445962905884,
                    -0.2870112955570221
                ]
            },
            "neuron_1": {
                "bias": -0.5574663281440735,
                "weights": [
                    0.30581074953079224,
                    -0.534522533416748,
                    0.5455885529518127,
                    0.6446699500083923
                ]
            },
            "neuron_2": {
                "bias": 0.239457368850708,
                "weights": [
                    0.5176457762718201,
                    0.5299509167671204,
                    0.5045717358589172,
                    -0.46928006410598755
                ]
            },
            "neuron_3": {
                "bias": -0.1343943476676941,
                "weights": [
                    0.41993170976638794,
                    0.25227516889572144,
                    0.13204443454742432,
                    -0.525977373123169
                ]
            }
        },
        "output": {
            "bias": 0.03304851055145264,
            "weights": [
                0.4882504343986511,
                -0.35387736558914185,
                -0.4647938311100006,
                -0.19536423683166504
