{
    "chromosome_0": {
        "layer_0": {
            "neuron_0": {
                "bias": -0.3900662064552307,
                "weights": [
                    0.5947151780128479,
                    1.028188705444336,
                    1.941964030265808
                ]
            },
            "neuron_1": {
                "bias": -0.3138902485370636,
                "weights": [
                    0.9274279475212097,
                    0.5054765343666077,
                    0.0777825117111206
                ]
            },
            "neuron_2": {
                "bias": -0.35554367303848267,
                "weights": [
                    0.003885030746459961,
                    0.4505367875099182,
                    0.13413798809051514
                ]
            },
            "neuron_3": {
                "bias": 0.2500106692314148,
                "weights": [
                    0.6704297065734863,
                    0.031207144260406494,
                    -0.33956417441368103
                ]
            }
        },
        "layer_1": {
            "neuron_0": {
                "bias": 1.0724730491638184,
                "weights": [
                    -0.22710958123207092,
                    -0.07474899291992188,
                    0.42574232816696167,
                    -0.2870112955570221
                ]
            },
            "neuron_1": {
                "bias": -0.5574663281440735,
                "weights": [
                    0.30581074953079224,
                    -0.534522533416748,
                    0.5455885529518127,
                    1.3122649192810059
                ]
            },
            "neuron_2": {
                "bias": 0.239457368850708,
                "weights": [
                    0.5176457762718201,
                    -0.14930963516235352,
                    0.5045717358589172,
                    -0.46928006410598755
                ]
            },
            "neuron_3": {
                "bias": 0.4298941493034363,
                "weights": [
                    1.1382076740264893,
                    0.25227516889572144,
                    0.23509782552719116,
                    -0.525977373123169
                ]
            }
        },
        "output": {
            "bias": 0.03304851055145264,
            "weights": [
                0.4882504343986511,
                -0.35387736558914185,
                -0.4647938311100006,
                0.0685463547706604
            ]
        }
    },
    "chromosome_1": {
        "layer_0": {
            "neuron_0": {
                "bias": -0.3900662064552307,
                "weights": [
                    0.5947151780128479,
                    1.028188705444336,
                    1.941964030265808
                ]
            },
            "neuron_1": {
                "bias": -0.3138902485370636,
                "weights": [
                    0.9274279475212097,
                    0.5054765343666077,
                    0.0777825117111206
                ]
            },
            "neuron_2": {
                "bias": -0.35554367303848267,
                "weights": [
                    0.003885030746459961,
                    0.4505367875099182,
                    0.13413798809051514
                ]
            },
            "neuron_3": {
                "bias": 0.2500106692314148,
                "weights": [
                    0.6704297065734863,
                    0.4754721522331238,
                    -0.33956417441368103
                ]
            }
        },
        "layer_1": {
            "neuron_0": {
                "bias": 1.0724730491638184,
                "weights": [
                    -0.22710958123207092,
                    -0.07474899291992188,
                    0.42574232816696167,
                    -0.2870112955570221
                ]
            },
            "neuron_1": {
                "bias": -0.5574663281440735,
                "weights": [
                    0.30581074953079224,
                    -0.534522533416748,
                    0.5455885529518127,
                    1.3122649192810059
                ]
            },
            "neuron_2": {
                "bias": 0.239457368850708,
                "weights": [
                    0.5176457762718201,
                    -0.14930963516235352,
                    0.5045717358589172,
                    -0.46928006410598755
                ]
            },
            "neuron_3": {
                "bias": 0.4298941493034363,
                "weights": [
                    1.1382076740264893,
                    0.25227516889572144,
                    0.23509782552719116,
                    -0.525977373123169
                ]
            }
        },
        "output": {
            "bias": 0.03304851055145264,
            "weights": [
                0.4882504343986511,
                -0.35387736558914185,
                -0.4647938311100006,
                0.0685463547706604
            ]
        }
    },
    "chromosome_10": {
        "layer_0": {
            "neuron_0": {
                "bias": -0.3900662064552307,
                "weights": [
                    0.5947151780128479,
                    1.028188705444336,
                    1.941964030265808
                ]
            },
            "neuron_1": {
                "bias": -0.3138902485370636,
                "weights": [
                    0.9274279475212097,
                    0.5054765343666077,
                    0.0777825117111206
                ]
            },
            "neuron_2": {
                "bias": -0.35554367303848267,
                "weights": [
                    0.003885030746459961,
                    0.4505367875099182,
                    0.13413798809051514
                ]
            },
            "neuron_3": {
                "bias": 0.2500106692314148,
                "weights": [
                    0.6704297065734863,
                    0.031207144260406494,
                    -0.33956417441368103
                ]
            }
        },
        "layer_1": {
            "neuron_0": {
                "bias": 0.5791711211204529,
                "weights": [
                    -0.22710958123207092,
                    -0.07474899291992188,
                    0.42574232816696167,
                    -0.2870112955570221
                ]
            },
            "neuron_1": {
                "bias": -0.5574663281440735,
                "weights": [
                    0.30581074953079224,
                    -0.534522533416748,
                    0.5455885529518127,
                    1.3122649192810059
                ]
            },
            "neuron_2": {
                "bias": 0.239457368850708,
                "weights": [
                    0.5176457762718201,
                    -0.14930963516235352,
                    0.5045717358589172,
                    0.0016449689865112305
                ]
            },
            "neuron_3": {
                "bias": 0.4298941493034363,
                "weights": [
                    1.1382076740264893,
                    0.25227516889572144,
                    0.23509782552719116,
                    -0.9454317092895508
                ]
            }
        },
        "output": {
            "bias": 0.03304851055145264,
            "weights": [
                0.4882504343986511,
                -0.03030550479888916,
                -0.795500636100769,
                0.0685463547706604
            ]
        }
    },
    "chromosome_11": {
        "layer_0": {
            "neuron_0": {
                "bias": -0.3900662064552307,
                "weights": [
                    0.5947151780128479,
                    1.028188705444336,
                    1.941964030265808
                ]
            },
            "neuron_1": {
                "bias": -0.3138902485370636,
                "weights": [
                    0.9274279475212097,
                    0.5054765343666077,
                    0.0777825117111206
                ]
            },
            "neuron_2": {
                "bias": -0.35554367303848267,
                "weights": [
                    0.003885030746459961,
                    0.4505367875099182,
                    0.13413798809051514
                ]
            },
            "neuron_3": {
                "bias": 0.2500106692314148,
                "weights": [
                    0.6704297065734863,
                    0.4754721522331238,
                    -0.33956417441368103
                ]
            }
        },
        "layer_1": {
            "neuron_0": {
                "bias": 0.5791711211204529,
                "weights": [
                    -0.22710958123207092,
                    -0.07474899291992188,
                    0.42574232816696167,
                    -0.2870112955570221
                ]
            },
            "neuron_1": {
                "bias": -0.5574663281440735,
                "weights": [
                    0.30581074953079224,
                    -0.534522533416748,
                    0.5455885529518127,
                    1.3122649192810059
                ]
            },
            "neuron_2": {
                "bias": 0.239457368850708,
                "weights": [
                    0.5176457762718201,
                    -0.14930963516235352,
                    0.5045717358589172,
                    -0.46928006410598755
                ]
            },
            "neuron_3": {
                "bias": 0.4298941493034363,
                "weights": [
                    1.1382076740264893,
                    0.25227516889572144,
                    0.23509782552719116,
                    -0.9454317092895508
                ]
            }
        },
        "output": {
            "bias": 0.03304851055145264,
            "weights": [
                0.4882504343986511,
                -0.35387736558914185,
                -0.795500636100769,
                0.0685463547706604
            ]
        }
    },
    "chromosome_12": {
        "layer_0": {
            "neuron_0": {
                "bias": -0.3900662064552307,
                "weights": [
                    0.5947151780128479,
                    1.028188705444336,
                    1.941964030265808
                ]
            },
            "neuron_1": {
                "bias": -0.3138902485370636,
                "weights": [
                    0.9274279475212097,
                    0.5054765343666077,
                    0.0777825117111206
                ]
            },
            "neuron_2": {
                "bias": -0.35554367303848267,
                "weights": [
                    0.003885030746459961,
                    0.4505367875099182,
                    0.13413798809051514
                ]
            },
            "neuron_3": {
                "bias": 0.2500106692314148,
                "weights": [
                    0.6704297065734863,
                    -0.573543131351471,
                    -0.33956417441368103
                ]
            }
        },
        "layer_1": {
            "neuron_0": {
                "bias": 0.5791711211204529,
                "weights": [
                    -0.22710958123207092,
                    -0.07474899291992188,
                    0.42574232816696167,
                    -0.2870112955570221
                ]
            },
            "neuron_1": {
                "bias": -0.5574663281440735,
                "weights": [
                    0.30581074953079224,
                    -0.534522533416748,
                    0.5455885529518127,
                    1.3122649192810059
                ]
            },
            "neuron_2": {
                "bias": 0.239457368850708,
                "weights": [
                    0.5176457762718201,
                    -0.14930963516235352,
                    0.5045717358589172,
                    -0.46928006410598755
                ]
            },
            "neuron_3": {
                "bias": 0.4298941493034363,
                "weights": [
                    1.1382076740264893,
                    0.25227516889572144,
                    0.13204443454742432,
                    -0.9454317092895508
                ]
            }
        },
        "output": {
            "bias": 0.03304851055145264,
            "weights": [
                0.4882504343986511,
                -0.35387736558914185,
                -0.795500636100769,
                0.0685463547706604
            ]
        }
    },
    "chromosome_13": {
        "layer_0": {
            "neuron_0": {
                "bias": -0.3900662064552307,
                "weights": [
                    0.5947151780128479,
                    1.028188705444336,
                    1.941964030265808
                ]
            },
            "neuron_1": {
                "bias": -0.3138902485370636,
                "weights": [
                    0.9274279475212097,
                    0.5054765343666077,
                    0.0777825117111206
                ]
            },
            "neuron_2": {
                "bias": -0.35554367303848267,
                "weights": [
                    0.003885030746459961,
                    0.4505367875099182,
                    0.13413798809051514
                ]
            },
            "neuron_3": {
                "bias": 0.2500106692314148,
                "weights": [
                    0.6704297065734863,
                    0.135817289352417,
                    -0.33956417441368103
                ]
            }
        },
        "layer_1": {
            "neuron_0": {
                "bias": 0.5791711211204529,
                "weights": [
                    -0.22710958123207092,
                    -0.07474899291992188,
                    0.42574232816696167,
                    -0.2870112955570221
                ]
            },
            "neuron_1": {
                "bias": -0.5574663281440735,
                "weights": [
                    0.30581074953079224,
                    -0.534522533416748,
                    0.5455885529518127,
                    1.3122649192810059
                ]
            },
            "neuron_2": {
                "bias": 0.239457368850708,
                "weights": [
                    0.5176457762718201,
                    -0.14930963516235352,
                    0.5045717358589172,
                    -0.46928006410598755
                ]
            },
            "neuron_3": {
                "bias": 0.4298941493034363,
                "weights": [
                    1.1382076740264893,
                    0.25227516889572144,
                    0.23509782552719116,
                    -0.9454317092895508
                ]
            }
        },
        "output": {
            "bias": 0.03304851055145264,
            "weights": [
                0.4882504343986511,
                -0.35387736558914185,
                -0.795500636100769,
                0.0685463547706604
            ]
        }
    },
    "chromosome_14": {
        "layer_0": {
            "neuron_0": {
                "bias": -0.3900662064552307,
                "weights": [
                    0.5947151780128479,
                    1.028188705444336,
                    1.941964030265808
                ]
            },
            "neuron_1": {
                "bias": -0.3138902485370636,
                "weights": [
                    0.9274279475212097,
                    0.5054765343666077,
                    0.0777825117111206
                ]
            },
            "neuron_2": {
                "bias": -0.35554367303848267,
                "weights": [
                    0.003885030746459961,
                    0.4505367875099182,
                    0.13413798809051514
                ]
            },
            "neuron_3": {
                "bias": 0.2500106692314148,
                "weights": [
                    0.6704297065734863,
                    0.031207144260406494,
                    -0.33956417441368103
                ]
            }
        },
        "layer_1": {
            "neuron_0": {
                "bias": 0.5791711211204529,
                "weights": [
                    -0.22710958123207092,
                    -0.07474899291992188,
                    0.42574232816696167,
                    -0.2870112955570221
                ]
            },
            "neuron_1": {
                "bias": -0.5574663281440735,
                "weights": [
                    0.30581074953079224,
                    -0.534522533416748,
                    0.5455885529518127,
                    1.3122649192810059
                ]
            },
            "neuron_2": {
                "bias": 0.239457368850708,
                "weights": [
                    0.5176457762718201,
                    -0.14930963516235352,
                    0.5045717358589172,
                    -0.46928006410598755
                ]
            },
            "neuron_3": {
                "bias": 0.4298941493034363,
                "weights": [
                    1.1382076740264893,
                    0.25227516889572144,
                    0.23509782552719116,
                    -0.9454317092895508
                ]
            }
        },
        "output": {
            "bias": 0.03304851055145264,
            "weights": [
                0.4882504343986511,
                -0.35387736558914185,
                -0.795500636100769,
                0.0685463547706604
            ]
        }
    },
    "chromosome_15": {
        "layer_0": {
            "neuron_0": {
                "bias": -0.3900662064552307,
                "weights": [
                    0.5947151780128479,
                    1.028188705444336,
                    1.941964030265808
                ]
            },
            "neuron_1": {
                "bias": -0.3138902485370636,
                "weights": [
                    0.9274279475212097,
                    0.5054765343666077,
                    0.0777825117111206
                ]
            },
            "neuron_2": {
                "bias": -0.35554367303848267,
                "weights": [
                    0.5317893624305725,
                    0.4505367875099182,
                    0.13413798809051514
                ]
            },
            "neuron_3": {
                "bias": 0.2500106692314148,
                "weights": [
                    0.6704297065734863,
                    -0.573543131351471,
                    -0.33956417441368103
                ]
            }
        },
        "layer_1": {
            "neuron_0": {
                "bias": 0.5791711211204529,
                "weights": [
                    -0.22710958123207092,
                    -0.07474899291992188,
                    0.42574232816696167,
                    -0.2870112955570221
                ]
            },
            "neuron_1": {
                "bias": -0.5574663281440735,
                "weights": [
                    0.1522602140903473,
                    -0.534522533416748,
                    0.5455885529518127,
                    1.3122649192810059
                ]
            },
            "neuron_2": {
                "bias": 0.239457368850708,
                "weights": [
                    0.5176457762718201,
                    -0.14930963516235352,
                    0.5045717358589172,
                    -0.46928006410598755
                ]
            },
            "neuron_3": {
                "bias": 0.4298941493034363,
                "weights": [
                    1.1382076740264893,
                    0.25227516889572144,
                    0.13204443454742432,
                    -0.9454317092895508
                ]
            }
        },
        "output": {
            "bias": 0.03304851055145264,
            "weights": [
                0.4882504343986511,
                -0.35387736558914185,
                -0.795500636100769,
                0.0685463547706604
            ]
        }
    },
    "chromosome_16": {
        "layer_0": {
            "neuron_0": {
                "bias": -0.3900662064552307,
                "weights": [
                    0.5947151780128479,
                    1.028188705444336,
                    1.941964030265808
                ]
            },
            "neuron_1": {
                "bias": -0.3138902485370636,
                "weights": [
                    0.9274279475212097,
                    0.5054765343666077,
                    0.0777825117111206
                ]
            },
            "neuron_2": {
                "bias": -0.35554367303848267,
                "weights": [
                    0.003885030746459961,
                    0.4505367875099182,
                    0.13413798809051514
                ]
            },
            "neuron_3": {
                "bias": 0.2500106692314148,
                "weights": [
                    0.6704297065734863,
                    -0.573543131351471,
                    -0.33956417441368103
                ]
            }
        },
        "layer_1": {
            "neuron_0": {
                "bias": 0.5791711211204529,
                "weights": [
                    -0.22710958123207092,
                    -0.07474899291992188,
                    0.42574232816696167,
                    -0.2870112955570221
                ]
            },
            "neuron_1": {
                "bias": -0.5574663281440735,
                "weights": [
                    0.30581074953079224,
                    -0.534522533416748,
                    0.5455885529518127,
                    1.3122649192810059
                ]
            },
            "neuron_2": {
                "bias": 0.239457368850708,
                "weights": [
                    0.5176457762718201,
                    -0.14930963516235352,
                    0.5045717358589172,
                    -0.14962249994277954
                ]
            },
            "neuron_3": {
                "bias": 0.4298941493034363,
                "weights": [
                    1.1382076740264893,
                    0.25227516889572144,
                    0.13204443454742432,
                    -0.9454317092895508
                ]
            }
        },
        "output": {
            "bias": 0.03304851055145264,
            "weights": [
                0.4882504343986511,
                -0.35387736558914185,
                -0.795500636100769,
                0.0685463547706604
            ]
        }
    },
    "chromosome_17": {
        "layer_0": {
            "neuron_0": {
                "bias": -0.3900662064552307,
                "weights": [
                    0.5947151780128479,
                    1.028188705444336,
                    1.941964030265808
                ]
            },
            "neuron_1": {
                "bias": -0.3138902485370636,
                "weights": [
                    0.9274279475212097,
                    0.5054765343666077,
                    0.0777825117111206
                ]
            },
            "neuron_2": {
                "bias": -0.35554367303848267,
                "weights": [
                    0.003885030746459961,
                    0.4505367875099182,
                    0.13413798809051514
                ]
            },
            "neuron_3": {
                "bias": 0.2500106692314148,
                "weights": [
                    0.6704297065734863,
                    -0.573543131351471,
                    -0.33956417441368103
                ]
            }
        },
        "layer_1": {
            "neuron_0": {
                "bias": 0.5791711211204529,
                "weights": [
                    -0.22710958123207092,
                    -0.07474899291992188,
                    0.42574232816696167,
                    -0.2870112955570221
                ]
            },
            "neuron_1": {
                "bias": -0.5574663281440735,
                "weights": [
                    0.30581074953079224,
                    -0.534522533416748,
                    0.5455885529518127,
                    1.3122649192810059
                ]
            },
            "neuron_2": {
                "bias": 0.239457368850708,
                "weights": [
                    0.5176457762718201,
                    -0.14930963516235352,
                    0.5045717358589172,
                    -0.14962249994277954
                ]
            },
            "neuron_3": {
                "bias": 0.4298941493034363,
                "weights": [
                    1.1382076740264893,
                    0.25227516889572144,
                    0.13204443454742432,
                    -0.9454317092895508
                ]
            }
        },
        "output": {
            "bias": 0.03304851055145264,
            "weights": [
                0.4882504343986511,
                -0.35387736558914185,
                -0.795500636100769,
                0.0685463547706604
            ]
        }
    },
    "chromosome_18": {
        "layer_0": {
            "neuron_0": {
                "bias": -0.3900662064552307,
                "weights": [
                    0.5947151780128479,
                    1.028188705444336,
                    1.941964030265808
                ]
            },
            "neuron_1": {
                "bias": -0.3138902485370636,
                "weights": [
                    0.9274279475212097,
                    0.5054765343666077,
                    0.0777825117111206
                ]
            },
            "neuron_2": {
                "bias": -0.35554367303848267,
                "weights": [
                    0.003885030746459961,
                    0.4505367875099182,
                    0.13413798809051514
                ]
            },
            "neuron_3": {
                "bias": 0.2500106692314148,
                "weights": [
                    0.6704297065734863,
                    -0.573543131351471,
                    -0.33956417441368103
                ]
            }
        },
        "layer_1": {
            "neuron_0": {
                "bias": 0.5791711211204529,
                "weights": [
                    -0.22710958123207092,
                    -0.07474899291992188,
                    0.42574232816696167,
                    -0.2870112955570221
                ]
            },
            "neuron_1": {
                "bias": -0.5574663281440735,
                "weights": [
                    0.30581074953079224,
                    -0.534522533416748,
                    0.5455885529518127,
                    1.3122649192810059
                ]
            },
            "neuron_2": {
                "bias": 0.239457368850708,
                "weights": [
                    0.5176457762718201,
                    -0.14930963516235352,
                    0.5045717358589172,
                    -0.18734031915664673
                ]
            },
            "neuron_3": {
                "bias": 0.4298941493034363,
                "weights": [
                    1.1382076740264893,
                    0.25227516889572144,
                    0.13204443454742432,
                    -0.9454317092895508
                ]
            }
        },
        "output": {
            "bias": 0.03304851055145264,
            "weights": [
                0.4882504343986511,
                -0.35387736558914185,
                -0.795500636100769,
                0.0685463547706604
            ]
        }
    },
    "chromosome_19": {
        "layer_0": {
            "neuron_0": {
                "bias": -0.3900662064552307,
                "weights": [
                    0.5947151780128479,
                    1.028188705444336,
                    1.941964030265808
                ]
            },
            "neuron_1": {
                "bias": -0.3138902485370636,
                "weights": [
                    0.9274279475212097,
                    0.5054765343666077,
                    0.0777825117111206
                ]
            },
            "neuron_2": {
                "bias": -0.35554367303848267,
                "weights": [
                    0.003885030746459961,
                    0.4505367875099182,
                    0.13413798809051514
                ]
            },
            "neuron_3": {
                "bias": 0.2500106692314148,
                "weights": [
                    0.6704297065734863,
                    0.031207144260406494,
                    -0.33956417441368103
                ]
            }
        },
        "layer_1": {
            "neuron_0": {
                "bias": 0.5791711211204529,
                "weights": [
                    -0.22710958123207092,
                    -0.07474899291992188,
                    0.42574232816696167,
                    -0.2870112955570221
                ]
            },
            "neuron_1": {
                "bias": -0.5574663281440735,
                "weights": [
                    0.30581074953079224,
                    -0.534522533416748,
                    0.5455885529518127,
                    1.3122649192810059
                ]
            },
            "neuron_2": {
                "bias": 0.239457368850708,
                "weights": [
                    0.5176457762718201,
                    -0.14930963516235352,
                    0.5045717358589172,
                    -0.46928006410598755
                ]
            },
            "neuron_3": {
                "bias": 0.4298941493034363,
                "weights": [
                    1.1382076740264893,
                    0.25227516889572144,
                    0.23509782552719116,
                    -0.9454317092895508
                ]
            }
        },
        "output": {
            "bias": 0.03304851055145264,
            "weights": [
                0.4882504343986511,
                -0.35387736558914185,
                -0.795500636100769,
                0.0685463547706604
            ]
        }
    },
    "chromosome_2": {
        "layer_0": {
            "neuron_0": {
                "bias": -0.3900662064552307,
                "weights": [
                    0.5947151780128479,
                    1.028188705444336,
                    1.941964030265808
                ]
            },
            "neuron_1": {
                "bias": -0.3138902485370636,
                "weights": [
                    0.9274279475212097,
                    0.5054765343666077,
                    0.0777825117111206
                ]
            },
            "neuron_2": {
                "bias": -0.35554367303848267,
                "weights": [
                    0.003885030746459961,
                    0.4505367875099182,
                    0.13413798809051514
                ]
            },
            "neuron_3": {
                "bias": 0.2500106692314148,
                "weights": [
                    0.6704297065734863,
                    -0.573543131351471,
                    -0.33956417441368103
                ]
            }
        },
        "layer_1": {
            "neuron_0": {
                "bias": 1.0724730491638184,
                "weights": [
                    -0.22710958123207092,
                    -0.07474899291992188,
                    0.42574232816696167,
                    -0.2870112955570221
                ]
            },
            "neuron_1": {
                "bias": -0.5574663281440735,
                "weights": [
                    0.30581074953079224,
                    -0.534522533416748,
                    0.5455885529518127,
                    1.3122649192810059
                ]
            },
            "neuron_2": {
                "bias": 0.239457368850708,
                "weights": [
                    0.5176457762718201,
                    -0.14930963516235352,
                    0.5045717358589172,
                    -0.46928006410598755
                ]
            },
            "neuron_3": {
                "bias": 0.4298941493034363,
                "weights": [
                    1.1382076740264893,
                    0.25227516889572144,
                    0.13204443454742432,
                    -0.525977373123169
                ]
            }
        },
        "output": {
            "bias": 0.03304851055145264,
            "weights": [
                0.4882504343986511,
                -0.35387736558914185,
                -0.2953086793422699,
                0.0685463547706604
            ]
        }
    },
    "chromosome_20": {
        "layer_0": {
            "neuron_0": {
                "bias": -0.3900662064552307,
                "weights": [
                    0.5947151780128479,
                    1.028188705444336,
                    1.941964030265808
                ]
            },
            "neuron_1": {
                "bias": -0.3138902485370636,
                "weights": [
                    1.5037434101104736,
                    0.5054765343666077,
                    0.0777825117111206
                ]
            },
            "neuron_2": {
                "bias": -0.35554367303848267,
                "weights": [
                    0.003885030746459961,
                    0.4505367875099182,
                    0.13413798809051514
                ]
            },
            "neuron_3": {
                "bias": 0.2500106692314148,
                "weights": [
                    0.6704297065734863,
                    0.031207144260406494,
                    -0.33956417441368103
                ]
            }
        },
        "layer_1": {
            "neuron_0": {
                "bias": 0.5791711211204529,
                "weights": [
                    -0.22710958123207092,
                    -0.07474899291992188,
                    0.42574232816696167,
                    -0.2870112955570221
                ]
            },
            "neuron_1": {
                "bias": -0.5574663281440735,
                "weights": [
                    0.30581074953079224,
                    -0.534522533416748,
                    0.5455885529518127,
                    1.3122649192810059
                ]
            },
            "neuron_2": {
                "bias": 0.239457368850708,
                "weights": [
                    0.5176457762718201,
                    -0.14930963516235352,
                    0.5045717358589172,
                    -0.46928006410598755
                ]
            },
            "neuron_3": {
                "bias": 0.4298941493034363,
                "weights": [
                    1.1382076740264893,
                    0.25227516889572144,
                    0.23509782552719116,
                    -0.525977373123169
                ]
            }
        },
        "output": {
            "bias": 0.03304851055145264,
            "weights": [
                0.4882504343986511,
                -0.35387736558914185,
                -0.4647938311100006,
                0.0685463547706604
            ]
        }
    },
    "chromosome_21": {
        "layer_0": {
            "neuron_0": {
                "bias": -0.3900662064552307,
                "weights": [
                    0.5947151780128479,
                    1.028188705444336,
                    1.941964030265808
                ]
            },
            "neuron_1": {
                "bias": -0.3138902485370636,
                "weights": [
                    1.5037434101104736,
                    0.5054765343666077,
                    0.0777825117111206
                ]
            },
            "neuron_2": {
                "bias": -0.35554367303848267,
                "weights": [
                    0.003885030746459961,
                    0.4505367875099182,
                    -0.23909848928451538
                ]
            },
            "neuron_3": {
                "bias": 0.2500106692314148,
                "weights": [
                    0.6704297065734863,
                    0.4754721522331238,
                    -0.33956417441368103
                ]
            }
        },
        "layer_1": {
            "neuron_0": {
                "bias": 0.5791711211204529,
                "weights": [
                    -0.22710958123207092,
                    -0.07474899291992188,
                    0.42574232816696167,
                    -0.2870112955570221
                ]
            },
            "neuron_1": {
                "bias": -0.5574663281440735,
                "weights": [
                    0.30581074953079224,
                    -0.534522533416748,
                    0.5455885529518127,
                    1.3122649192810059
                ]
            },
            "neuron_2": {
                "bias": 0.239457368850708,
                "weights": [
                    0.5176457762718201,
                    -0.14930963516235352,
                    0.5045717358589172,
                    -0.46928006410598755
                ]
            },
            "neuron_3": {
                "bias": 0.4298941493034363,
                "weights": [
                    1.1382076740264893,
                    0.25227516889572144,
                    0.23509782552719116,
                    -0.525977373123169
                ]
            }
        },
        "output": {
            "bias": 0.03304851055145264,
            "weights": [
                0.4882504343986511,
                -0.35387736558914185,
                -0.4647938311100006,
                0.0685463547706604
            ]
        }
    },
    "chromosome_22": {
        "layer_0": {
            "neuron_0": {
                "bias": -0.3900662064552307,
                "weights": [
                    0.5947151780128479,
                    1.028188705444336,
                    1.941964030265808
                ]
            },
            "neuron_1": {
                "bias": -0.3138902485370636,
                "weights": [
                    1.5037434101104736,
                    0.5054765343666077,
                    0.0777825117111206
                ]
            },
            "neuron_2": {
                "bias": -0.35554367303848267,
                "weights": [
                    0.003885030746459961,
                    0.4505367875099182,
                    0.13413798809051514
                ]
            },
            "neuron_3": {
                "bias": 0.2500106692314148,
                "weights": [
                    0.6704297065734863,
                    -0.573543131351471,
                    -0.33956417441368103
                ]
            }
        },
        "layer_1": {
            "neuron_0": {
                "bias": 0.5791711211204529,
                "weights": [
                    -0.22710958123207092,
                    -0.07474899291992188,
                    0.42574232816696167,
                    -0.2870112955570221
                ]
            },
            "neuron_1": {
                "bias": -0.5574663281440735,
                "weights": [
                    0.30581074953079224,
                    -0.534522533416748,
                    0.5455885529518127,
                    1.3122649192810059
                ]
            },
            "neuron_2": {
                "bias": 0.239457368850708,
                "weights": [
                    0.5176457762718201,
                    -0.14930963516235352,
                    0.5045717358589172,
                    -0.46928006410598755
                ]
            },
            "neuron_3": {
                "bias": 0.4298941493034363,
                "weights": [
                    1.1382076740264893,
                    0.25227516889572144,
                    0.13204443454742432,
                    -0.525977373123169
                ]
            }
        },
        "output": {
            "bias": 0.03304851055145264,
            "weights": [
                0.4882504343986511,
                -0.35387736558914185,
                -0.4647938311100006,
                0.0685463547706604
            ]
        }
    },
    "chromosome_23": {
        "layer_0": {
            "neuron_0": {
                "bias": -0.3900662064552307,
                "weights": [
                    0.5947151780128479,
                    1.028188705444336,
                    1.941964030265808
                ]
            },
            "neuron_1": {
                "bias": -0.3138902485370636,
                "weights": [
                    1.5037434101104736,
                    0.5054765343666077,
                    0.22108525037765503
                ]
            },
            "neuron_2": {
                "bias": -0.35554367303848267,
                "weights": [
                    0.003885030746459961,
                    0.4505367875099182,
                    0.13413798809051514
                ]
            },
            "neuron_3": {
                "bias": 0.2500106692314148,
                "weights": [
                    0.6704297065734863,
                    0.031207144260406494,
                    -0.33956417441368103
                ]
            }
        },
        "layer_1": {
            "neuron_0": {
                "bias": 0.5791711211204529,
                "weights": [
                    -0.22710958123207092,
                    -0.07474899291992188,
                    0.42574232816696167,
                    -0.2870112955570221
                ]
            },
            "neuron_1": {
                "bias": -0.5574663281440735,
                "weights": [
                    0.30581074953079224,
                    -0.534522533416748,
                    0.5455885529518127,
                    1.3122649192810059
                ]
            },
            "neuron_2": {
                "bias": 0.239457368850708,
                "weights": [
                    0.5176457762718201,
                    -0.14930963516235352,
                    0.5045717358589172,
                    -0.46928006410598755
                ]
            },
            "neuron_3": {
                "bias": 0.4298941493034363,
                "weights": [
                    1.1382076740264893,
                    0.25227516889572144,
                    0.23509782552719116,
                    -0.525977373123169
                ]
            }
        },
        "output": {
            "bias": 0.03304851055145264,
            "weights": [
                0.4882504343986511,
                -0.35387736558914185,
                -0.4647938311100006,
                0.0685463547706604
            ]
        }
    },
    "chromosome_24": {
        "layer_0": {
            "neuron_0": {
                "bias": -0.3900662064552307,
                "weights": [
                    0.5947151780128479,
                    1.028188705444336,
                    1.941964030265808
                ]
            },
            "neuron_1": {
                "bias": -0.3138902485370636,
                "weights": [
                    1.5037434101104736,
                    0.5054765343666077,
                    0.0777825117111206
                ]
            },
            "neuron_2": {
                "bias": -0.35554367303848267,
                "weights": [
                    0.003885030746459961,
                    0.4505367875099182,
                    0.13413798809051514
                ]
            },
            "neuron_3": {
                "bias": 0.2500106692314148,
                "weights": [
                    0.6704297065734863,
                    0.031207144260406494,
                    -0.33956417441368103
                ]
            }
        },
        "layer_1": {
            "neuron_0": {
                "bias": 0.5791711211204529,
                "weights": [
                    -0.22710958123207092,
                    -0.07474899291992188,
                    0.42574232816696167,
                    -0.2870112955570221
                ]
            },
            "neuron_1": {
                "bias": -0.5574663281440735,
                "weights": [
                    0.30581074953079224,
                    -0.534522533416748,
                    0.5455885529518127,
                    1.3122649192810059
                ]
            },
            "neuron_2": {
                "bias": 0.239457368850708,
                "weights": [
                    0.5176457762718201,
                    -0.14930963516235352,
                    0.5045717358589172,
                    -0.46928006410598755
                ]
            },
            "neuron_3": {
                "bias": 0.4298941493034363,
                "weights": [
                    1.1382076740264893,
                    0.25227516889572144,
                    0.23509782552719116,
                    -0.525977373123169
                ]
            }
        },
        "output": {
            "bias": 0.03304851055145264,
            "weights": [
                0.4882504343986511,
                -0.35387736558914185,
                -0.4647938311100006,
                0.0685463547706604
            ]
        }
    },
    "chromosome_25": {
        "layer_0": {
            "neuron_0": {
                "bias": -0.3900662064552307,
                "weights": [
                    0.5947151780128479,
                    1.028188705444336,
                    1.941964030265808
                ]
            },
            "neuron_1": {
                "bias": -0.3138902485370636,
                "weights": [
                    1.5037434101104736,
                    0.5054765343666077,
                    0.0777825117111206
                ]
            },
            "neuron_2": {
                "bias": -0.35554367303848267,
                "weights": [
                    0.003885030746459961,
                    0.4505367875099182,
                    0.13413798809051514
                ]
            },
            "neuron_3": {
                "bias": 0.2500106692314148,
                "weights": [
                    0.6704297065734863,
                    -0.573543131351471,
                    -0.33956417441368103
                ]
            }
        },
        "layer_1": {
            "neuron_0": {
                "bias": 0.5791711211204529,
                "weights": [
                    -0.22710958123207092,
                    -0.07474899291992188,
                    0.42574232816696167,
                    -0.2870112955570221
                ]
            },
            "neuron_1": {
                "bias": -0.5574663281440735,
                "weights": [
                    0.1522602140903473,
                    -0.534522533416748,
                    0.5455885529518127,
                    1.3122649192810059
                ]
            },
            "neuron_2": {
                "bias": 0.239457368850708,
                "weights": [
                    0.5176457762718201,
                    -0.14930963516235352,
                    0.5045717358589172,
                    -0.46928006410598755
                ]
            },
            "neuron_3": {
                "bias": 0.4298941493034363,
                "weights": [
                    1.1382076740264893,
                    0.25227516889572144,
                    0.13204443454742432,
                    -0.525977373123169
                ]
            }
        },
        "output": {
            "bias": 0.03304851055145264,
            "weights": [
                0.4882504343986511,
                -0.35387736558914185,
                -0.4647938311100006,
                0.0685463547706604
            ]
        }
    },
    "chromosome_26": {
        "layer_0": {
            "neuron_0": {
                "bias": -0.3900662064552307,
                "weights": [
                    0.5947151780128479,
                    1.028188705444336,
                    1.941964030265808
                ]
            },
            "neuron_1": {
                "bias": -0.3138902485370636,
                "weights": [
                    1.5037434101104736,
                    0.5054765343666077,
                    0.0777825117111206
                ]
            },
            "neuron_2": {
                "bias": -0.35554367303848267,
                "weights": [
                    0.003885030746459961,
                    0.4505367875099182,
                    0.13413798809051514
                ]
            },
            "neuron_3": {
                "bias": 0.2500106692314148,
                "weights": [
                    0.6704297065734863,
                    -0.573543131351471,
                    -0.33956417441368103
                ]
            }
        },
        "layer_1": {
            "neuron_0": {
                "bias": 0.5791711211204529,
                "weights": [
                    -0.22710958123207092,
                    -0.07474899291992188,
                    0.42574232816696167,
                    -0.2870112955570221
                ]
            },
            "neuron_1": {
                "bias": -0.5574663281440735,
                "weights": [
                    0.30581074953079224,
                    -0.534522533416748,
                    0.5455885529518127,
                    1.3122649192810059
                ]
            },
            "neuron_2": {
                "bias": 0.239457368850708,
                "weights": [
                    0.5176457762718201,
                    -0.14930963516235352,
                    0.5045717358589172,
                    -0.14962249994277954
                ]
            },
            "neuron_3": {
                "bias": 0.4298941493034363,
                "weights": [
                    1.1382076740264893,
                    0.25227516889572144,
                    0.13204443454742432,
                    -0.525977373123169
                ]
            }
        },
        "output": {
            "bias": 0.03304851055145264,
            "weights": [
                0.4882504343986511,
                -0.35387736558914185,
                -0.4647938311100006,
                0.0685463547706604
            ]
        }
    },
    "chromosome_27": {
        "layer_0": {
            "neuron_0": {
                "bias": -0.3900662064552307,
                "weights": [
                    0.5947151780128479,
                    1.028188705444336,
                    1.941964030265808
                ]
            },
            "neuron_1": {
                "bias": -0.3138902485370636,
                "weights": [
                    1.5037434101104736,
                    0.5054765343666077,
                    0.0777825117111206
                ]
            },
            "neuron_2": {
                "bias": -0.35554367303848267,
                "weights": [
                    0.003885030746459961,
                    0.4505367875099182,
                    0.13413798809051514
                ]
            },
            "neuron_3": {
                "bias": 0.2500106692314148,
                "weights": [
                    0.6704297065734863,
                    -0.573543131351471,
                    -0.33956417441368103
                ]
            }
        },
        "layer_1": {
            "neuron_0": {
                "bias": 0.5791711211204529,
                "weights": [
                    -0.22710958123207092,
                    -0.07474899291992188,
                    0.42574232816696167,
                    -0.2870112955570221
                ]
            },
            "neuron_1": {
                "bias": -0.5574663281440735,
                "weights": [
                    0.30581074953079224,
                    -0.534522533416748,
                    0.5455885529518127,
                    1.3122649192810059
                ]
            },
            "neuron_2": {
                "bias": 0.239457368850708,
                "weights": [
                    0.5176457762718201,
                    -0.14930963516235352,
                    0.5045717358589172,
                    -0.14962249994277954
                ]
            },
            "neuron_3": {
                "bias": 0.4298941493034363,
                "weights": [
                    1.1382076740264893,
                    0.25227516889572144,
                    0.13204443454742432,
                    -0.525977373123169
                ]
            }
        },
        "output": {
            "bias": 0.03304851055145264,
            "weights": [
                0.4882504343986511,
                -0.35387736558914185,
                -0.4647938311100006,
                0.0685463547706604
            ]
        }
    },
    "chromosome_28": {
        "layer_0": {
            "neuron_0": {
                "bias": -0.3900662064552307,
                "weights": [
                    0.5947151780128479,
                    1.028188705444336,
                    1.941964030265808
                ]
            },
            "neuron_1": {
                "bias": -0.3138902485370636,
                "weights": [
                    1.5037434101104736,
                    0.5054765343666077,
                    0.0777825117111206
                ]
            },
            "neuron_2": {
                "bias": -0.35554367303848267,
                "weights": [
                    0.003885030746459961,
                    0.4505367875099182,
                    0.13413798809051514
                ]
            },
            "neuron_3": {
                "bias": 0.2500106692314148,
                "weights": [
                    0.6704297065734863,
                    -0.573543131351471,
                    -0.33956417441368103
                ]
            }
        },
        "layer_1": {
            "neuron_0": {
                "bias": 0.5791711211204529,
                "weights": [
                    -0.22710958123207092,
                    -0.07474899291992188,
                    0.42574232816696167,
                    -0.2870112955570221
                ]
            },
            "neuron_1": {
                "bias": -0.5574663281440735,
                "weights": [
                    0.30581074953079224,
                    -0.534522533416748,
                    0.5455885529518127,
                    1.3122649192810059
                ]
            },
            "neuron_2": {
                "bias": 0.239457368850708,
                "weights": [
                    0.5176457762718201,
                    -0.14930963516235352,
                    0.5045717358589172,
                    -0.46928006410598755
                ]
            },
            "neuron_3": {
                "bias": 0.4298941493034363,
                "weights": [
                    1.1382076740264893,
                    0.25227516889572144,
                    0.13204443454742432,
                    -0.525977373123169
                ]
            }
        },
        "output": {
            "bias": 0.03304851055145264,
            "weights": [
                0.5309250950813293,
                -0.35387736558914185,
                -0.4647938311100006,
                0.0685463547706604
            ]
        }
    },
    "chromosome_29": {
        "layer_0": {
            "neuron_0": {
                "bias": -0.3900662064552307,
                "weights": [
                    0.5947151780128479,
                    1.028188705444336,
                    1.941964030265808
                ]
            },
            "neuron_1": {
                "bias": -0.3138902485370636,
                "weights": [
                    1.5037434101104736,
                    0.5054765343666077,
                    0.0777825117111206
                ]
            },
            "neuron_2": {
                "bias": -0.35554367303848267,
                "weights": [
                    0.003885030746459961,
                    0.4505367875099182,
                    0.13413798809051514
                ]
            },
            "neuron_3": {
                "bias": 0.2500106692314148,
                "weights": [
                    0.6704297065734863,
                    0.031207144260406494,
                    -0.33956417441368103
                ]
            }
        },
        "layer_1": {
            "neuron_0": {
                "bias": 0.5791711211204529,
                "weights": [
                    -0.22710958123207092,
                    -0.07474899291992188,
                    0.42574232816696167,
                    -0.48353341221809387
                ]
            },
            "neuron_1": {
                "bias": -0.5574663281440735,
                "weights": [
                    0.30581074953079224,
                    -0.534522533416748,
                    1.0450544357299805,
                    1.3122649192810059
                ]
            },
            "neuron_2": {
                "bias": 0.239457368850708,
                "weights": [
                    0.5176457762718201,
                    -0.14930963516235352,
                    0.5045717358589172,
                    -0.46928006410598755
                ]
            },
            "neuron_3": {
                "bias": 0.4298941493034363,
                "weights": [
                    1.1382076740264893,
                    0.25227516889572144,
                    0.23509782552719116,
                    -0.525977373123169
                ]
            }
        },
        "output": {
            "bias": 0.03304851055145264,
            "weights": [
                0.4882504343986511,
                -0.35387736558914185,
                -0.4647938311100006,
                0.0685463547706604
            ]
        }
    },
    "chromosome_3": {
        "layer_0": {
            "neuron_0": {
                "bias": -0.3900662064552307,
                "weights": [
                    0.5947151780128479,
                    1.028188705444336,
                    1.941964030265808
                ]
            },
            "neuron_1": {
                "bias": -0.3138902485370636,
                "weights": [
                    0.9274279475212097,
                    0.5054765343666077,
                    0.0777825117111206
                ]
            },
            "neuron_2": {
                "bias": -0.35554367303848267,
                "weights": [
                    0.003885030746459961,
                    0.4505367875099182,
                    0.13413798809051514
                ]
            },
            "neuron_3": {
                "bias": 0.2500106692314148,
                "weights": [
                    0.6704297065734863,
                    0.031207144260406494,
                    -0.33956417441368103
                ]
            }
        },
        "layer_1": {
            "neuron_0": {
                "bias": 1.0724730491638184,
                "weights": [
                    -0.22710958123207092,
                    -0.07474899291992188,
                    0.42574232816696167,
                    -0.2870112955570221
                ]
            },
            "neuron_1": {
                "bias": -0.5574663281440735,
                "weights": [
                    0.30581074953079224,
                    -0.534522533416748,
                    0.5455885529518127,
                    1.3122649192810059
                ]
            },
            "neuron_2": {
                "bias": 0.239457368850708,
                "weights": [
                    0.5176457762718201,
                    -0.14930963516235352,
                    0.5045717358589172,
                    -0.46928006410598755
                ]
            },
            "neuron_3": {
                "bias": 0.4298941493034363,
                "weights": [
                    1.1382076740264893,
                    0.25227516889572144,
                    0.23509782552719116,
                    -0.525977373123169
                ]
            }
        },
        "output": {
            "bias": 0.03304851055145264,
            "weights": [
                0.4882504343986511,
                -0.35387736558914185,
                -0.4647938311100006,
                0.0685463547706604
            ]
        }
    },
    "chromosome_30": {
        "layer_0": {
            "neuron_0": {
                "bias": -0.3900662064552307,
                "weights": [
                    0.5947151780128479,
                    1.028188705444336,
                    1.941964030265808
                ]
            },
            "neuron_1": {
                "bias": -0.3138902485370636,
                "weights": [
                    0.9274279475212097,
                    0.5054765343666077,
                    0.0777825117111206
                ]
            },
            "neuron_2": {
                "bias": -0.35554367303848267,
                "weights": [
                    0.003885030746459961,
                    0.4505367875099182,
                    0.13413798809051514
                ]
            },
            "neuron_3": {
                "bias": 0.2500106692314148,
                "weights": [
                    0.6704297065734863,
                    0.031207144260406494,
                    -0.33956417441368103
                ]
            }
        },
        "layer_1": {
            "neuron_0": {
                "bias": 0.5791711211204529,
                "weights": [
                    -0.22710958123207092,
                    -0.07474899291992188,
                    0.42574232816696167,
                    -0.2870112955570221
                ]
            },
            "neuron_1": {
                "bias": -0.5574663281440735,
                "weights": [
                    0.30581074953079224,
                    -0.534522533416748,
                    0.5455885529518127,
                    1.3122649192810059
                ]
            },
            "neuron_2": {
                "bias": 0.2621585726737976,
                "weights": [
                    0.5176457762718201,
                    -0.14930963516235352,
                    0.5045717358589172,
                    -0.46928006410598755
                ]
            },
            "neuron_3": {
                "bias": 0.4298941493034363,
                "weights": [
                    1.1382076740264893,
                    0.25227516889572144,
                    0.23509782552719116,
                    -0.14337539672851563
                ]
            }
        },
        "output": {
            "bias": 0.03304851055145264,
            "weights": [
                0.4882504343986511,
                -0.35387736558914185,
                -0.4647938311100006,
                0.0685463547706604
            ]
        }
    },
    "chromosome_31": {
        "layer_0": {
            "neuron_0": {
                "bias": -0.030604541301727295,
                "weights": [
                    0.5947151780128479,
                    1.028188705444336,
                    1.941964030265808
                ]
            },
            "neuron_1": {
                "bias": -0.3138902485370636,
                "weights": [
                    0.9274279475212097,
                    0.5054765343666077,
                    0.0777825117111206
                ]
            },
            "neuron_2": {
                "bias": -0.35554367303848267,
                "weights": [
                    0.003885030746459961,
                    0.4505367875099182,
                    0.13413798809051514
                ]
            },
            "neuron_3": {
                "bias": 0.2500106692314148,
                "weights": [
                    0.6704297065734863,
                    0.4754721522331238,
                    -0.33956417441368103
                ]
            }
        },
        "layer_1": {
            "neuron_0": {
                "bias": 0.5791711211204529,
                "weights": [
                    -0.22710958123207092,
                    -0.07474899291992188,
                    0.42574232816696167,
                    -0.2870112955570221
                ]
            },
            "neuron_1": {
                "bias": -0.5574663281440735,
                "weights": [
                    0.30581074953079224,
                    -0.534522533416748,
                    0.5053749084472656,
                    1.3122649192810059
                ]
            },
            "neuron_2": {
                "bias": 0.6054869294166565,
                "weights": [
                    0.5176457762718201,
                    -0.14930963516235352,
                    0.5045717358589172,
                    -0.46928006410598755
                ]
            },
            "neuron_3": {
                "bias": 0.4298941493034363,
                "weights": [
                    1.1382076740264893,
                    0.25227516889572144,
                    0.23509782552719116,
                    -0.525977373123169
                ]
            }
        },
        "output": {
            "bias": 0.03304851055145264,
            "weights": [
                0.4882504343986511,
                -0.35387736558914185,
                -0.4647938311100006,
                0.0685463547706604
            ]
        }
    },
    "chromosome_32": {
        "layer_0": {
            "neuron_0": {
                "bias": -0.3900662064552307,
                "weights": [
                    0.5947151780128479,
                    1.028188705444336,
                    1.941964030265808
                ]
            },
            "neuron_1": {
                "bias": -0.3138902485370636,
                "weights": [
                    0.9274279475212097,
                    0.5054765343666077,
                    0.0777825117111206
                ]
            },
            "neuron_2": {
                "bias": -0.35554367303848267,
                "weights": [
                    0.003885030746459961,
                    0.4505367875099182,
                    0.13413798809051514
                ]
            },
            "neuron_3": {
                "bias": 0.2500106692314148,
                "weights": [
                    0.6704297065734863,
                    -0.573543131351471,
                    -0.33956417441368103
                ]
            }
        },
        "layer_1": {
            "neuron_0": {
                "bias": 0.5791711211204529,
                "weights": [
                    -0.22710958123207092,
                    -0.07474899291992188,
                    0.42574232816696167,
                    -0.2870112955570221
                ]
            },
            "neuron_1": {
                "bias": -0.5574663281440735,
                "weights": [
                    0.30581074953079224,
                    -0.534522533416748,
                    0.5455885529518127,
                    1.3122649192810059
                ]
            },
            "neuron_2": {
                "bias": 0.2621585726737976,
                "weights": [
                    0.5176457762718201,
                    -0.14930963516235352,
                    0.5045717358589172,
                    -0.46928006410598755
                ]
            },
            "neuron_3": {
                "bias": 0.4298941493034363,
                "weights": [
                    1.1382076740264893,
                    0.25227516889572144,
                    0.13204443454742432,
                    -0.525977373123169
                ]
            }
        },
        "output": {
            "bias": 0.03304851055145264,
            "weights": [
                0.4882504343986511,
                -0.35387736558914185,
                -0.4647938311100006,
                0.0685463547706604
            ]
        }
    },
    "chromosome_33": {
        "layer_0": {
            "neuron_0": {
                "bias": -0.3900662064552307,
                "weights": [
                    0.5947151780128479,
                    1.028188705444336,
                    1.941964030265808
                ]
            },
            "neuron_1": {
                "bias": -0.3138902485370636,
                "weights": [
                    0.9274279475212097,
                    0.5054765343666077,
                    0.0777825117111206
                ]
            },
            "neuron_2": {
                "bias": -0.35554367303848267,
                "weights": [
                    0.003885030746459961,
                    0.4505367875099182,
                    0.13413798809051514
                ]
            },
            "neuron_3": {
                "bias": 0.2500106692314148,
                "weights": [
                    0.6704297065734863,
                    0.43900036811828613,
                    -0.33956417441368103
                ]
            }
        },
        "layer_1": {
            "neuron_0": {
                "bias": 0.5791711211204529,
                "weights": [
                    -0.22710958123207092,
                    -0.07474899291992188,
                    0.42574232816696167,
                    -0.2870112955570221
                ]
            },
            "neuron_1": {
                "bias": -0.5574663281440735,
                "weights": [
                    0.30581074953079224,
                    -0.534522533416748,
                    0.5455885529518127,
                    1.3122649192810059
                ]
            },
            "neuron_2": {
                "bias": 0.2621585726737976,
                "weights": [
                    0.5176457762718201,
                    -0.14930963516235352,
                    0.5045717358589172,
                    -0.46928006410598755
                ]
            },
            "neuron_3": {
                "bias": 0.4298941493034363,
                "weights": [
                    1.1382076740264893,
                    0.25227516889572144,
                    0.23509782552719116,
                    -0.525977373123169
                ]
            }
        },
        "output": {
            "bias": 0.03304851055145264,
            "weights": [
                0.4882504343986511,
                -0.35387736558914185,
                -0.4647938311100006,
                0.0685463547706604
            ]
        }
    },
    "chromosome_34": {
        "layer_0": {
            "neuron_0": {
                "bias": -0.3900662064552307,
                "weights": [
                    0.5947151780128479,
                    1.028188705444336,
                    1.941964030265808
                ]
            },
            "neuron_1": {
                "bias": -0.3138902485370636,
                "weights": [
                    0.9274279475212097,
                    0.5054765343666077,
                    0.0777825117111206
                ]
            },
            "neuron_2": {
                "bias": -0.35554367303848267,
                "weights": [
                    0.003885030746459961,
                    0.4505367875099182,
                    0.13413798809051514
                ]
            },
            "neuron_3": {
                "bias": 0.2500106692314148,
                "weights": [
                    0.6704297065734863,
                    0.031207144260406494,
                    -0.33956417441368103
                ]
            }
        },
        "layer_1": {
            "neuron_0": {
                "bias": 0.5791711211204529,
                "weights": [
                    -0.22710958123207092,
                    -0.07474899291992188,
                    0.42574232816696167,
                    -0.2870112955570221
                ]
            },
            "neuron_1": {
                "bias": -0.5574663281440735,
                "weights": [
                    0.30581074953079224,
                    -0.534522533416748,
                    0.5455885529518127,
                    1.3122649192810059
                ]
            },
            "neuron_2": {
                "bias": 0.2621585726737976,
                "weights": [
                    0.5176457762718201,
                    -0.14930963516235352,
                    0.5045717358589172,
                    -0.46928006410598755
                ]
            },
            "neuron_3": {
                "bias": 0.4298941493034363,
                "weights": [
                    1.1382076740264893,
                    0.25227516889572144,
                    0.23509782552719116,
                    -0.525977373123169
                ]
            }
        },
        "output": {
            "bias": 0.03304851055145264,
            "weights": [
                0.4882504343986511,
                -0.35387736558914185,
                -0.4647938311100006,
                0.0685463547706604
            ]
        }
    },
    "chromosome_35": {
        "layer_0": {
            "neuron_0": {
                "bias": -0.3900662064552307,
                "weights": [
                    0.5947151780128479,
                    1.028188705444336,
                    1.941964030265808
                ]
            },
            "neuron_1": {
                "bias": -0.3138902485370636,
                "weights": [
                    0.9274279475212097,
                    0.5054765343666077,
                    0.0777825117111206
                ]
            },
            "neuron_2": {
                "bias": -0.35554367303848267,
                "weights": [
                    0.003885030746459961,
                    0.4505367875099182,
                    0.13413798809051514
                ]
            },
            "neuron_3": {
                "bias": 0.2500106692314148,
                "weights": [
                    0.6704297065734863,
                    -0.573543131351471,
                    -0.33956417441368103
                ]
            }
        },
        "layer_1": {
            "neuron_0": {
                "bias": 0.5791711211204529,
                "weights": [
                    -0.22710958123207092,
                    -0.07474899291992188,
                    0.42574232816696167,
                    -0.2870112955570221
                ]
            },
            "neuron_1": {
                "bias": -0.5574663281440735,
                "weights": [
                    0.1522602140903473,
                    -0.534522533416748,
                    0.5455885529518127,
                    1.3122649192810059
                ]
            },
            "neuron_2": {
                "bias": 0.2621585726737976,
                "weights": [
                    0.5176457762718201,
                    -0.14930963516235352,
                    0.5045717358589172,
                    -0.46928006410598755
                ]
            },
            "neuron_3": {
                "bias": 0.8520432710647583,
                "weights": [
                    1.1382076740264893,
                    0.25227516889572144,
                    0.13204443454742432,
                    -0.525977373123169
                ]
            }
        },
        "output": {
            "bias": 0.03304851055145264,
            "weights": [
                0.4882504343986511,
                -0.35387736558914185,
                -0.4647938311100006,
                0.0685463547706604
            ]
        }
    },
    "chromosome_36": {
        "layer_0": {
            "neuron_0": {
                "bias": -0.3900662064552307,
                "weights": [
                    0.5947151780128479,
                    1.028188705444336,
                    1.941964030265808
                ]
            },
            "neuron_1": {
                "bias": -0.3138902485370636,
                "weights": [
                    0.9274279475212097,
                    0.5054765343666077,
                    0.0777825117111206
                ]
            },
            "neuron_2": {
                "bias": -0.35554367303848267,
                "weights": [
                    0.003885030746459961,
                    0.4505367875099182,
                    0.13413798809051514
                ]
            },
            "neuron_3": {
                "bias": 0.2500106692314148,
                "weights": [
                    0.6704297065734863,
                    -0.573543131351471,
                    -0.33956417441368103
                ]
            }
        },
        "layer_1": {
            "neuron_0": {
                "bias": 0.5791711211204529,
                "weights": [
                    -0.22710958123207092,
                    -0.07474899291992188,
                    0.42574232816696167,
                    -0.2870112955570221
                ]
            },
            "neuron_1": {
                "bias": -0.5574663281440735,
                "weights": [
                    0.30581074953079224,
                    -0.534522533416748,
                    0.5455885529518127,
                    1.3122649192810059
                ]
            },
            "neuron_2": {
                "bias": 0.2621585726737976,
                "weights": [
                    0.5176457762718201,
                    -0.14930963516235352,
                    0.5045717358589172,
                    -0.14962249994277954
                ]
            },
            "neuron_3": {
                "bias": 0.4298941493034363,
                "weights": [
                    1.1382076740264893,
                    0.25227516889572144,
                    0.13204443454742432,
                    -0.525977373123169
                ]
            }
        },
        "output": {
            "bias": 0.03304851055145264,
            "weights": [
                0.4882504343986511,
                -0.35387736558914185,
                -0.4647938311100006,
                0.0685463547706604
            ]
        }
    },
    "chromosome_37": {
        "layer_0": {
            "neuron_0": {
                "bias": -0.3900662064552307,
                "weights": [
                    0.5947151780128479,
                    1.028188705444336,
                    1.941964030265808
                ]
            },
            "neuron_1": {
                "bias": -0.3138902485370636,
                "weights": [
                    0.9274279475212097,
                    0.5054765343666077,
                    0.0777825117111206
                ]
            },
            "neuron_2": {
                "bias": -0.35554367303848267,
                "weights": [
                    0.003885030746459961,
                    0.4505367875099182,
                    0.13413798809051514
                ]
            },
            "neuron_3": {
                "bias": 0.2500106692314148,
                "weights": [
                    0.6704297065734863,
                    -0.573543131351471,
                    -0.33956417441368103
                ]
            }
        },
        "layer_1": {
            "neuron_0": {
                "bias": 0.5791711211204529,
                "weights": [
                    -0.22710958123207092,
                    -0.07474899291992188,
                    0.42574232816696167,
                    -0.2870112955570221
                ]
            },
            "neuron_1": {
                "bias": -0.5574663281440735,
                "weights": [
                    0.30581074953079224,
                    -0.534522533416748,
                    0.5455885529518127,
                    1.3122649192810059
                ]
            },
            "neuron_2": {
                "bias": 0.2621585726737976,
                "weights": [
                    0.5176457762718201,
                    -0.14930963516235352,
                    0.5045717358589172,
                    -0.14962249994277954
                ]
            },
            "neuron_3": {
                "bias": 0.4298941493034363,
                "weights": [
                    1.1382076740264893,
                    0.25227516889572144,
                    0.13204443454742432,
                    -0.525977373123169
                ]
            }
        },
        "output": {
            "bias": 0.03304851055145264,
            "weights": [
                0.4882504343986511,
                -0.35387736558914185,
                -0.4647938311100006,
                0.0685463547706604
            ]
        }
    },
    "chromosome_38": {
        "layer_0": {
            "neuron_0": {
                "bias": -0.3900662064552307,
                "weights": [
                    0.5947151780128479,
                    1.028188705444336,
                    1.941964030265808
                ]
            },
            "neuron_1": {
                "bias": -0.3138902485370636,
                "weights": [
                    0.9274279475212097,
                    0.5054765343666077,
                    0.0777825117111206
                ]
            },
            "neuron_2": {
                "bias": -0.35554367303848267,
                "weights": [
                    0.003885030746459961,
                    0.4505367875099182,
                    0.13413798809051514
                ]
            },
            "neuron_3": {
                "bias": 0.2500106692314148,
                "weights": [
                    0.6704297065734863,
                    -0.573543131351471,
                    -0.33956417441368103
                ]
            }
        },
        "layer_1": {
            "neuron_0": {
                "bias": 0.807823121547699,
                "weights": [
                    -0.22710958123207092,
                    -0.07474899291992188,
                    0.42574232816696167,
                    -0.2870112955570221
                ]
            },
            "neuron_1": {
                "bias": -0.5574663281440735,
                "weights": [
                    0.30581074953079224,
                    -0.534522533416748,
                    0.5455885529518127,
                    1.3122649192810059
                ]
            },
            "neuron_2": {
                "bias": 0.2621585726737976,
                "weights": [
                    0.5176457762718201,
                    -0.14930963516235352,
                    0.5045717358589172,
                    -0.46928006410598755
                ]
            },
            "neuron_3": {
                "bias": 0.4298941493034363,
                "weights": [
                    1.1382076740264893,
                    0.25227516889572144,
                    0.13204443454742432,
                    -0.525977373123169
                ]
            }
        },
        "output": {
            "bias": 0.03304851055145264,
            "weights": [
                0.4882504343986511,
                -0.35387736558914185,
                -0.4647938311100006,
                0.0685463547706604
            ]
        }
    },
    "chromosome_39": {
        "layer_0": {
            "neuron_0": {
                "bias": -0.3900662064552307,
                "weights": [
                    0.5947151780128479,
                    1.028188705444336,
                    1.941964030265808
                ]
            },
            "neuron_1": {
                "bias": -0.3138902485370636,
                "weights": [
                    0.9274279475212097,
                    0.5054765343666077,
                    0.0777825117111206
                ]
            },
            "neuron_2": {
                "bias": -0.35554367303848267,
                "weights": [
                    0.003885030746459961,
                    0.4505367875099182,
                    0.13413798809051514
                ]
            },
            "neuron_3": {
                "bias": 0.2500106692314148,
                "weights": [
                    0.6704297065734863,
                    0.031207144260406494,
                    -0.33956417441368103
                ]
            }
        },
        "layer_1": {
            "neuron_0": {
                "bias": 0.5791711211204529,
                "weights": [
                    -0.22710958123207092,
                    -0.07474899291992188,
                    0.42574232816696167,
                    -0.2870112955570221
                ]
            },
            "neuron_1": {
                "bias": -0.5574663281440735,
                "weights": [
                    0.30581074953079224,
                    -0.534522533416748,
                    0.5455885529518127,
                    1.3122649192810059
                ]
            },
            "neuron_2": {
                "bias": 0.2621585726737976,
                "weights": [
                    0.5176457762718201,
                    -0.14930963516235352,
                    0.5045717358589172,
                    -0.46928006410598755
                ]
            },
            "neuron_3": {
                "bias": 0.4298941493034363,
                "weights": [
                    1.1382076740264893,
                    0.25227516889572144,
                    0.23509782552719116,
                    -0.525977373123169
                ]
            }
        },
        "output": {
            "bias": 0.03304851055145264,
            "weights": [
                0.4882504343986511,
                -0.35387736558914185,
                -0.4647938311100006,
                0.0685463547706604
            ]
        }
    },
    "chromosome_4": {
        "layer_0": {
            "neuron_0": {
                "bias": -0.3900662064552307,
                "weights": [
                    0.5947151780128479,
                    1.028188705444336,
                    1.941964030265808
                ]
            },
            "neuron_1": {
                "bias": -0.3138902485370636,
                "weights": [
                    0.9274279475212097,
                    0.5054765343666077,
                    0.0777825117111206
                ]
            },
            "neuron_2": {
                "bias": -0.35554367303848267,
                "weights": [
                    0.003885030746459961,
                    0.4505367875099182,
                    0.13413798809051514
                ]
            },
            "neuron_3": {
                "bias": 0.2500106692314148,
                "weights": [
                    0.6704297065734863,
                    0.031207144260406494,
                    -0.33956417441368103
                ]
            }
        },
        "layer_1": {
            "neuron_0": {
                "bias": 1.0724730491638184,
                "weights": [
                    -0.22710958123207092,
                    -0.07474899291992188,
                    0.42574232816696167,
                    -0.2870112955570221
                ]
            },
            "neuron_1": {
                "bias": -0.5574663281440735,
                "weights": [
                    0.30581074953079224,
                    -0.534522533416748,
                    0.5455885529518127,
                    1.3122649192810059
                ]
            },
            "neuron_2": {
                "bias": 0.239457368850708,
                "weights": [
                    0.5176457762718201,
                    -0.14930963516235352,
                    0.5045717358589172,
                    -0.46928006410598755
                ]
            },
            "neuron_3": {
                "bias": 0.4298941493034363,
                "weights": [
                    1.1382076740264893,
                    0.25227516889572144,
                    0.23509782552719116,
                    -0.525977373123169
                ]
            }
        },
        "output": {
            "bias": 0.03304851055145264,
            "weights": [
                0.4882504343986511,
                -0.35387736558914185,
                -0.4647938311100006,
                0.0685463547706604
            ]
        }
    },
    "chromosome_40": {
        "layer_0": {
            "neuron_0": {
                "bias": -0.3900662064552307,
                "weights": [
                    0.5947151780128479,
                    1.028188705444336,
                    1.941964030265808
                ]
            },
            "neuron_1": {
                "bias": -0.3138902485370636,
                "weights": [
                    0.9274279475212097,
                    0.5054765343666077,
                    0.0777825117111206
                ]
            },
            "neuron_2": {
                "bias": -0.35554367303848267,
                "weights": [
                    0.003885030746459961,
                    0.4505367875099182,
                    0.13413798809051514
                ]
            },
            "neuron_3": {
                "bias": 0.2500106692314148,
                "weights": [
                    0.6704297065734863,
                    0.031207144260406494,
                    -0.33956417441368103
                ]
            }
        },
        "layer_1": {
            "neuron_0": {
                "bias": 0.5791711211204529,
                "weights": [
                    -0.22710958123207092,
                    -0.07474899291992188,
                    0.42574232816696167,
                    -0.2870112955570221
                ]
            },
            "neuron_1": {
                "bias": -0.5574663281440735,
                "weights": [
                    0.30581074953079224,
                    -0.534522533416748,
                    0.5455885529518127,
                    1.3122649192810059
                ]
            },
            "neuron_2": {
                "bias": 0.239457368850708,
                "weights": [
                    0.5176457762718201,
                    -0.14930963516235352,
                    0.5045717358589172,
                    -0.46928006410598755
                ]
            },
            "neuron_3": {
                "bias": 0.4298941493034363,
                "weights": [
                    1.1382076740264893,
                    0.25227516889572144,
                    0.23509782552719116,
                    -0.525977373123169
                ]
            }
        },
        "output": {
            "bias": 0.03304851055145264,
            "weights": [
                0.4882504343986511,
                -0.35387736558914185,
                -0.4647938311100006,
                0.0685463547706604
            ]
        }
    },
    "chromosome_41": {
        "layer_0": {
            "neuron_0": {
                "bias": -0.3900662064552307,
                "weights": [
                    0.5947151780128479,
                    1.028188705444336,
                    1.941964030265808
                ]
            },
            "neuron_1": {
                "bias": -0.3138902485370636,
                "weights": [
                    0.9274279475212097,
                    0.5054765343666077,
                    0.0777825117111206
                ]
            },
            "neuron_2": {
                "bias": -0.35554367303848267,
                "weights": [
                    0.003885030746459961,
                    0.4505367875099182,
                    0.13413798809051514
                ]
            },
            "neuron_3": {
                "bias": 0.2500106692314148,
                "weights": [
                    0.6704297065734863,
                    0.4754721522331238,
                    -0.33956417441368103
                ]
            }
        },
        "layer_1": {
            "neuron_0": {
                "bias": 0.5791711211204529,
                "weights": [
                    -0.22710958123207092,
                    -0.07474899291992188,
                    0.42574232816696167,
                    -0.2870112955570221
                ]
            },
            "neuron_1": {
                "bias": -0.5574663281440735,
                "weights": [
                    0.30581074953079224,
                    -0.534522533416748,
                    0.5455885529518127,
                    1.3122649192810059
                ]
            },
            "neuron_2": {
                "bias": 0.239457368850708,
                "weights": [
                    0.5176457762718201,
                    -0.14930963516235352,
                    0.5045717358589172,
                    -0.46928006410598755
                ]
            },
            "neuron_3": {
                "bias": 0.4298941493034363,
                "weights": [
                    1.1382076740264893,
                    0.25227516889572144,
                    0.23509782552719116,
                    -0.525977373123169
                ]
            }
        },
        "output": {
            "bias": 0.03304851055145264,
            "weights": [
                0.4882504343986511,
                -0.35387736558914185,
                -0.4647938311100006,
                0.0685463547706604
            ]
        }
    },
    "chromosome_42": {
        "layer_0": {
            "neuron_0": {
                "bias": -0.3900662064552307,
                "weights": [
                    0.5947151780128479,
                    1.028188705444336,
                    1.941964030265808
                ]
            },
            "neuron_1": {
                "bias": -0.3138902485370636,
                "weights": [
                    0.9274279475212097,
                    0.5054765343666077,
                    -0.1670369803905487
                ]
            },
            "neuron_2": {
                "bias": -0.35554367303848267,
                "weights": [
                    0.003885030746459961,
                    0.4505367875099182,
                    0.13413798809051514
                ]
            },
            "neuron_3": {
                "bias": 0.2500106692314148,
                "weights": [
                    0.6704297065734863,
                    -0.573543131351471,
                    -0.33956417441368103
                ]
            }
        },
        "layer_1": {
            "neuron_0": {
                "bias": 0.5791711211204529,
                "weights": [
                    -0.22710958123207092,
                    -0.07474899291992188,
                    0.42574232816696167,
                    -0.2870112955570221
                ]
            },
            "neuron_1": {
                "bias": -0.5574663281440735,
                "weights": [
                    0.30581074953079224,
                    -0.534522533416748,
                    0.5455885529518127,
                    1.3122649192810059
                ]
            },
            "neuron_2": {
                "bias": 0.239457368850708,
                "weights": [
                    0.5176457762718201,
                    -0.14930963516235352,
                    0.5045717358589172,
                    -0.46928006410598755
                ]
            },
            "neuron_3": {
                "bias": 0.4298941493034363,
                "weights": [
                    1.1382076740264893,
                    0.25227516889572144,
                    0.13204443454742432,
                    -0.525977373123169
                ]
            }
        },
        "output": {
            "bias": 0.03304851055145264,
            "weights": [
                0.4882504343986511,
                -0.35387736558914185,
                -0.4647938311100006,
                0.0685463547706604
            ]
        }
    },
    "chromosome_43": {
        "layer_0": {
            "neuron_0": {
                "bias": -0.3900662064552307,
                "weights": [
                    0.5947151780128479,
                    1.028188705444336,
                    1.941964030265808
                ]
            },
            "neuron_1": {
                "bias": -0.3138902485370636,
                "weights": [
                    0.9274279475212097,
                    0.5054765343666077,
                    0.0777825117111206
                ]
            },
            "neuron_2": {
                "bias": -0.35554367303848267,
                "weights": [
                    0.003885030746459961,
                    0.4505367875099182,
                    0.13413798809051514
                ]
            },
            "neuron_3": {
                "bias": 0.2500106692314148,
                "weights": [
                    0.6704297065734863,
                    0.031207144260406494,
                    -0.33956417441368103
                ]
            }
        },
        "layer_1": {
            "neuron_0": {
                "bias": 0.5791711211204529,
                "weights": [
                    -0.22710958123207092,
                    -0.07474899291992188,
                    0.42574232816696167,
                    -0.2870112955570221
                ]
            },
            "neuron_1": {
                "bias": -0.5574663281440735,
                "weights": [
                    0.30581074953079224,
                    -0.534522533416748,
                    0.5455885529518127,
                    1.3122649192810059
                ]
            },
            "neuron_2": {
                "bias": 0.239457368850708,
                "weights": [
                    0.5176457762718201,
                    -0.14930963516235352,
                    0.5045717358589172,
                    -0.46928006410598755
                ]
            },
            "neuron_3": {
                "bias": 0.4298941493034363,
                "weights": [
                    1.1382076740264893,
                    0.25227516889572144,
                    0.23509782552719116,
                    -0.525977373123169
                ]
            }
        },
        "output": {
            "bias": 0.03304851055145264,
            "weights": [
                0.4882504343986511,
                -0.35387736558914185,
                -0.4647938311100006,
                0.0685463547706604
            ]
        }
    },
    "chromosome_44": {
        "layer_0": {
            "neuron_0": {
                "bias": -0.3900662064552307,
                "weights": [
                    0.5947151780128479,
                    1.028188705444336,
                    1.941964030265808
                ]
            },
            "neuron_1": {
                "bias": -0.3138902485370636,
                "weights": [
                    0.9274279475212097,
                    0.5054765343666077,
                    0.0777825117111206
                ]
            },
            "neuron_2": {
                "bias": -0.35554367303848267,
                "weights": [
                    0.003885030746459961,
                    0.4505367875099182,
                    0.13413798809051514
                ]
            },
            "neuron_3": {
                "bias": 0.2500106692314148,
                "weights": [
                    0.6704297065734863,
                    0.031207144260406494,
                    -0.33956417441368103
                ]
            }
