{
    "chromosome_0": {
        "layer_0": {
            "neuron_0": {
                "bias": -0.3900662064552307,
                "weights": [
                    0.12896817922592163,
                    -0.3490920662879944,
                    -0.027365922927856445
                ]
            },
            "neuron_1": {
                "bias": -0.16784876585006714,
                "weights": [
                    -0.604293942451477,
                    0.3297799229621887,
                    -0.1999359130859375
                ]
            },
            "neuron_2": {
                "bias": -0.35554367303848267,
                "weights": [
                    0.5261055827140808,
                    0.015915393829345703,
                    -0.2953428626060486
                ]
            },
            "neuron_3": {
                "bias": 0.2500106692314148,
                "weights": [
                    0.665050208568573,
                    -0.5914334654808044,
                    -0.5129459500312805
                ]
            }
        },
        "layer_1": {
            "neuron_0": {
                "bias": 0.09277933835983276,
                "weights": [
                    0.6882503628730774,
                    -0.07474899291992188,
                    0.2603076100349426,
                    -0.2870112955570221
                ]
            },
            "neuron_1": {
                "bias": -0.5574663281440735,
                "weights": [
                    0.30581074953079224,
                    -0.5873317718505859,
                    0.5455885529518127,
                    -0.38835716247558594
                ]
            },
            "neuron_2": {
                "bias": -0.27060455083847046,
                "weights": [
                    0.49183934926986694,
                    0.5299509167671204,
                    -0.4775688648223877,
                    -0.46928006410598755
                ]
            },
            "neuron_3": {
                "bias": -0.1343943476676941,
                "weights": [
                    0.41993170976638794,
                    0.5173894762992859,
                    0.13204443454742432,
                    -0.17558211088180542
                ]
            }
        },
        "output": {
            "bias": -0.19015169143676758,
            "weights": [
                -0.6952146887779236,
                -0.35387736558914185,
                -0.4360353350639343,
                -0.19536423683166504
            ]
        },
        "score": 2
    },
    "chromosome_1": {
        "layer_0": {
            "neuron_0": {
                "bias": -0.33110445737838745,
                "weights": [
                    0.12896817922592163,
                    0.6603930592536926,
                    -0.027365922927856445
                ]
            },
            "neuron_1": {
                "bias": -0.2773125171661377,
                "weights": [
                    -0.604293942451477,
                    0.5634480118751526,
                    -0.1999359130859375
                ]
            },
            "neuron_2": {
                "bias": -0.5486220717430115,
                "weights": [
                    0.5261055827140808,
                    0.0775688886642456,
                    -0.2953428626060486
                ]
            },
            "neuron_3": {
                "bias": 0.5301217436790466,
                "weights": [
                    0.665050208568573,
                    0.21638542413711548,
                    -0.5129459500312805
                ]
            }
        },
        "layer_1": {
            "neuron_0": {
                "bias": 0.09277933835983276,
                "weights": [
                    0.6882503628730774,
                    -0.5678487420082092,
                    0.2603076100349426,
                    0.41719716787338257
                ]
            },
            "neuron_1": {
                "bias": 0.2503097653388977,
                "weights": [
                    0.3352915644645691,
                    -0.5873317718505859,
                    -0.023093342781066895,
                    -0.38835716247558594
                ]
            },
            "neuron_2": {
                "bias": -0.27060455083847046,
                "weights": [
                    0.49183934926986694,
                    0.03676563501358032,
                    -0.4775688648223877,
                    -0.22168338298797607
                ]
            },
            "neuron_3": {
                "bias": 0.11080968379974365,
                "weights": [
                    0.3968169093132019,
                    0.5173894762992859,
                    -0.16639608144760132,
                    -0.17558211088180542
                ]
            }
        },
        "output": {
            "bias": -0.19015169143676758,
            "weights": [
                -0.6952146887779236,
                0.323969304561615,
                -0.4360353350639343,
                -0.04223453998565674
            ]
        },
        "score": 0
    },
    "chromosome_10": {
        "layer_0": {
            "neuron_0": {
                "bias": -0.3900662064552307,
                "weights": [
                    -0.46868187189102173,
                    -0.3490920662879944,
                    0.34614402055740356
                ]
            },
            "neuron_1": {
                "bias": -0.16784876585006714,
                "weights": [
                    -0.29530012607574463,
                    0.3297799229621887,
                    -0.31004056334495544
                ]
            },
            "neuron_2": {
                "bias": -0.35554367303848267,
                "weights": [
                    0.15464645624160767,
                    0.015915393829345703,
                    -0.5200811624526978
                ]
            },
            "neuron_3": {
                "bias": 0.2500106692314148,
                "weights": [
                    0.4090365767478943,
                    -0.5914334654808044,
                    0.39040809869766235
                ]
            }
        },
        "layer_1": {
            "neuron_0": {
                "bias": 0.24026918411254883,
                "weights": [
                    0.44672077894210815,
                    -0.07474899291992188,
                    0.6134800314903259,
                    -0.2870112955570221
                ]
            },
            "neuron_1": {
                "bias": -0.5574663281440735,
                "weights": [
                    0.30581074953079224,
                    0.4946592450141907,
                    0.5455885529518127,
                    -0.17331767082214355
                ]
            },
            "neuron_2": {
                "bias": 0.20937836170196533,
                "weights": [
                    -0.6821405291557312,
                    0.5299509167671204,
                    0.12435376644134521,
                    -0.46928006410598755
                ]
            },
            "neuron_3": {
                "bias": -0.1343943476676941,
                "weights": [
                    0.41993170976638794,
                    -0.1846400499343872,
                    0.13204443454742432,
                    0.6281777024269104
                ]
            }
        },
        "output": {
            "bias": 0.12478101253509521,
            "weights": [
                -0.28820765018463135,
                -0.35387736558914185,
                -0.18745994567871094,
                -0.19536423683166504
            ]
        },
        "score": 0
    },
    "chromosome_11": {
        "layer_0": {
            "neuron_0": {
                "bias": -0.33110445737838745,
                "weights": [
                    -0.46868187189102173,
                    0.6603930592536926,
                    0.34614402055740356
                ]
            },
            "neuron_1": {
                "bias": -0.2773125171661377,
                "weights": [
                    -0.29530012607574463,
                    0.5634480118751526,
                    -0.31004056334495544
                ]
            },
            "neuron_2": {
                "bias": -0.5486220717430115,
                "weights": [
                    0.15464645624160767,
                    0.0775688886642456,
                    -0.5200811624526978
                ]
            },
            "neuron_3": {
                "bias": 0.5301217436790466,
                "weights": [
                    0.4090365767478943,
                    0.21638542413711548,
                    0.39040809869766235
                ]
            }
        },
        "layer_1": {
            "neuron_0": {
                "bias": 0.24026918411254883,
                "weights": [
                    0.44672077894210815,
                    -0.5678487420082092,
                    0.6134800314903259,
                    0.41719716787338257
                ]
            },
            "neuron_1": {
                "bias": 0.2503097653388977,
                "weights": [
                    0.3352915644645691,
                    0.4946592450141907,
                    -0.023093342781066895,
                    -0.17331767082214355
                ]
            },
            "neuron_2": {
                "bias": 0.20937836170196533,
                "weights": [
                    -0.6821405291557312,
                    0.03676563501358032,
                    0.12435376644134521,
                    -0.22168338298797607
                ]
            },
            "neuron_3": {
                "bias": 0.11080968379974365,
                "weights": [
                    0.3968169093132019,
                    -0.1846400499343872,
                    -0.16639608144760132,
                    0.6281777024269104
                ]
            }
        },
        "output": {
            "bias": 0.12478101253509521,
            "weights": [
                -0.28820765018463135,
                0.323969304561615,
                -0.18745994567871094,
                -0.04223453998565674
            ]
        },
        "score": 1
    },
    "chromosome_12": {
        "layer_0": {
            "neuron_0": {
                "bias": -0.3900662064552307,
                "weights": [
                    -0.46868187189102173,
                    -0.3490920662879944,
                    0.34614402055740356
                ]
            },
            "neuron_1": {
                "bias": -0.16784876585006714,
                "weights": [
                    -0.29530012607574463,
                    0.3297799229621887,
                    -0.31004056334495544
                ]
            },
            "neuron_2": {
                "bias": -0.35554367303848267,
                "weights": [
                    0.15464645624160767,
                    0.015915393829345703,
                    -0.5200811624526978
                ]
            },
            "neuron_3": {
                "bias": 0.2500106692314148,
                "weights": [
                    0.4090365767478943,
                    -0.5914334654808044,
                    0.39040809869766235
                ]
            }
        },
        "layer_1": {
            "neuron_0": {
                "bias": 0.24026918411254883,
                "weights": [
                    0.44672077894210815,
                    -0.07474899291992188,
                    0.6134800314903259,
                    -0.2870112955570221
                ]
            },
            "neuron_1": {
                "bias": -0.5574663281440735,
                "weights": [
                    0.30581074953079224,
                    0.4946592450141907,
                    0.5455885529518127,
                    -0.17331767082214355
                ]
            },
            "neuron_2": {
                "bias": 0.20937836170196533,
                "weights": [
                    -0.6821405291557312,
                    0.5299509167671204,
                    0.12435376644134521,
                    -0.46928006410598755
                ]
            },
            "neuron_3": {
                "bias": -0.1343943476676941,
                "weights": [
                    0.41993170976638794,
                    -0.1846400499343872,
                    0.13204443454742432,
                    0.6281777024269104
                ]
            }
        },
        "output": {
            "bias": 0.12478101253509521,
            "weights": [
                -0.28820765018463135,
                -0.35387736558914185,
                -0.18745994567871094,
                -0.19536423683166504
            ]
        },
        "score": 0
    },
    "chromosome_13": {
        "layer_0": {
            "neuron_0": {
                "bias": -0.33110445737838745,
                "weights": [
                    -0.46868187189102173,
                    0.6603930592536926,
                    0.34614402055740356
                ]
            },
            "neuron_1": {
                "bias": -0.29699844121932983,
                "weights": [
                    -0.29530012607574463,
                    0.5634480118751526,
                    -0.31004056334495544
                ]
            },
            "neuron_2": {
                "bias": -0.5486220717430115,
                "weights": [
                    0.15464645624160767,
                    0.0775688886642456,
                    -0.5200811624526978
                ]
            },
            "neuron_3": {
                "bias": 0.5301217436790466,
                "weights": [
                    0.4090365767478943,
                    0.21638542413711548,
                    0.39040809869766235
                ]
            }
        },
        "layer_1": {
            "neuron_0": {
                "bias": 0.24026918411254883,
                "weights": [
                    0.44672077894210815,
                    -0.5678487420082092,
                    0.6134800314903259,
                    0.41719716787338257
                ]
            },
            "neuron_1": {
                "bias": 0.2503097653388977,
                "weights": [
                    0.3352915644645691,
                    0.4946592450141907,
                    -0.023093342781066895,
                    -0.17331767082214355
                ]
            },
            "neuron_2": {
                "bias": 0.20937836170196533,
                "weights": [
                    -0.6821405291557312,
                    0.03676563501358032,
                    0.12435376644134521,
                    -0.22168338298797607
                ]
            },
            "neuron_3": {
                "bias": 0.11080968379974365,
                "weights": [
                    0.3968169093132019,
                    -0.1846400499343872,
                    -0.16639608144760132,
                    0.6281777024269104
                ]
            }
        },
        "output": {
            "bias": 0.12478101253509521,
            "weights": [
                -0.28820765018463135,
                0.323969304561615,
                -0.18745994567871094,
                -0.04223453998565674
            ]
        },
        "score": 1
    },
    "chromosome_14": {
        "layer_0": {
            "neuron_0": {
                "bias": 0.21382182836532593,
                "weights": [
                    -0.46868187189102173,
                    0.3609698414802551,
                    0.34614402055740356
                ]
            },
            "neuron_1": {
                "bias": 0.29410386085510254,
                "weights": [
                    -0.29530012607574463,
                    0.5588763356208801,
                    -0.31004056334495544
                ]
            },
            "neuron_2": {
                "bias": 0.1534501314163208,
                "weights": [
                    0.15464645624160767,
                    -0.5417859554290771,
                    -0.5200811624526978
                ]
            },
            "neuron_3": {
                "bias": -0.1662251353263855,
                "weights": [
                    0.4090365767478943,
                    -0.36186710000038147,
                    0.39040809869766235
                ]
            }
        },
        "layer_1": {
            "neuron_0": {
                "bias": 0.24026918411254883,
                "weights": [
                    0.44672077894210815,
                    0.1482803225517273,
                    0.6134800314903259,
                    -0.16524243354797363
                ]
            },
            "neuron_1": {
                "bias": -0.3929288387298584,
                "weights": [
                    0.15554368495941162,
                    0.4946592450141907,
                    0.6821405291557312,
                    -0.17331767082214355
                ]
            },
            "neuron_2": {
                "bias": 0.20937836170196533,
                "weights": [
                    -0.6821405291557312,
                    -0.5532364845275879,
                    0.12435376644134521,
                    0.45441144704818726
                ]
            },
            "neuron_3": {
                "bias": 0.3620380759239197,
                "weights": [
                    -0.29085662961006165,
                    -0.1846400499343872,
                    0.08111518621444702,
                    0.6281777024269104
                ]
            }
        },
        "output": {
            "bias": 0.12478101253509521,
            "weights": [
                -0.28820765018463135,
                0.07936340570449829,
                -0.18745994567871094,
                -0.6540696620941162
            ]
        },
        "score": 0
    },
    "chromosome_15": {
        "layer_0": {
            "neuron_0": {
                "bias": -0.33110445737838745,
                "weights": [
                    -0.46868187189102173,
                    0.6603930592536926,
                    0.34614402055740356
                ]
            },
            "neuron_1": {
                "bias": -0.2773125171661377,
                "weights": [
                    -0.29530012607574463,
                    0.5634480118751526,
                    -0.31004056334495544
                ]
            },
            "neuron_2": {
                "bias": -0.5486220717430115,
                "weights": [
                    0.15464645624160767,
                    0.0775688886642456,
                    -0.5200811624526978
                ]
            },
            "neuron_3": {
                "bias": 0.5301217436790466,
                "weights": [
                    0.4090365767478943,
                    0.21638542413711548,
                    0.39040809869766235
                ]
            }
        },
        "layer_1": {
            "neuron_0": {
                "bias": 0.24026918411254883,
                "weights": [
                    0.44672077894210815,
                    -0.5678487420082092,
                    0.6134800314903259,
                    0.41719716787338257
                ]
            },
            "neuron_1": {
                "bias": 0.2503097653388977,
                "weights": [
                    0.3352915644645691,
                    0.4946592450141907,
                    -0.023093342781066895,
                    -0.17331767082214355
                ]
            },
            "neuron_2": {
                "bias": 0.20937836170196533,
                "weights": [
                    -0.6821405291557312,
                    0.03676563501358032,
                    0.12435376644134521,
                    -0.22168338298797607
                ]
            },
            "neuron_3": {
                "bias": 0.11080968379974365,
                "weights": [
                    0.3968169093132019,
                    -0.1846400499343872,
                    -0.16639608144760132,
                    0.6281777024269104
                ]
            }
        },
        "output": {
            "bias": 0.12478101253509521,
            "weights": [
                -0.28820765018463135,
                0.323969304561615,
                -0.18745994567871094,
                -0.04223453998565674
            ]
        },
        "score": 1
    },
    "chromosome_16": {
        "layer_0": {
            "neuron_0": {
                "bias": -0.3900662064552307,
                "weights": [
                    -0.46868187189102173,
                    -0.3490920662879944,
                    0.34614402055740356
                ]
            },
            "neuron_1": {
                "bias": -0.16784876585006714,
                "weights": [
                    -0.29530012607574463,
                    0.3297799229621887,
                    -0.31004056334495544
                ]
            },
            "neuron_2": {
                "bias": -0.35554367303848267,
                "weights": [
                    0.15464645624160767,
                    0.015915393829345703,
                    -0.5200811624526978
                ]
            },
            "neuron_3": {
                "bias": 0.2500106692314148,
                "weights": [
                    0.4090365767478943,
                    -1.3708466291427612,
                    0.39040809869766235
                ]
            }
        },
        "layer_1": {
            "neuron_0": {
                "bias": 0.24026918411254883,
                "weights": [
                    0.44672077894210815,
                    -0.07474899291992188,
                    0.6134800314903259,
                    -0.2870112955570221
                ]
            },
            "neuron_1": {
                "bias": -0.5574663281440735,
                "weights": [
                    0.30581074953079224,
                    0.4946592450141907,
                    0.5455885529518127,
                    -0.17331767082214355
                ]
            },
            "neuron_2": {
                "bias": 0.20937836170196533,
                "weights": [
                    -0.6821405291557312,
                    0.5299509167671204,
                    0.12435376644134521,
                    -0.46928006410598755
                ]
            },
            "neuron_3": {
                "bias": -0.1343943476676941,
                "weights": [
                    0.41993170976638794,
                    -0.1846400499343872,
                    0.13204443454742432,
                    0.6281777024269104
                ]
            }
        },
        "output": {
            "bias": 0.12478101253509521,
            "weights": [
                -0.28820765018463135,
                -0.35387736558914185,
                -0.18745994567871094,
                -0.19536423683166504
            ]
        },
        "score": 0
    },
    "chromosome_17": {
        "layer_0": {
            "neuron_0": {
                "bias": -0.33110445737838745,
                "weights": [
                    -0.46868187189102173,
                    0.6603930592536926,
                    0.34614402055740356
                ]
            },
            "neuron_1": {
                "bias": -0.2773125171661377,
                "weights": [
                    -0.29530012607574463,
                    0.5634480118751526,
                    -0.31004056334495544
                ]
            },
            "neuron_2": {
                "bias": -0.5486220717430115,
                "weights": [
                    0.15464645624160767,
                    0.0775688886642456,
                    -0.5200811624526978
                ]
            },
            "neuron_3": {
                "bias": 0.5301217436790466,
                "weights": [
                    0.4090365767478943,
                    0.21638542413711548,
                    0.39040809869766235
                ]
            }
        },
        "layer_1": {
            "neuron_0": {
                "bias": 0.24026918411254883,
                "weights": [
                    0.44672077894210815,
                    -0.5678487420082092,
                    0.6134800314903259,
                    0.41719716787338257
                ]
            },
            "neuron_1": {
                "bias": 0.2503097653388977,
                "weights": [
                    0.3352915644645691,
                    0.4946592450141907,
                    -0.023093342781066895,
                    -0.17331767082214355
                ]
            },
            "neuron_2": {
                "bias": 0.20937836170196533,
                "weights": [
                    -0.6821405291557312,
                    0.03676563501358032,
                    0.12435376644134521,
                    -0.22168338298797607
                ]
            },
            "neuron_3": {
                "bias": 0.11080968379974365,
                "weights": [
                    0.3968169093132019,
                    -0.1846400499343872,
                    -0.16639608144760132,
                    0.6281777024269104
                ]
            }
        },
        "output": {
            "bias": 0.12478101253509521,
            "weights": [
                -0.28820765018463135,
                0.323969304561615,
                -0.18745994567871094,
                -0.04223453998565674
            ]
        },
        "score": 1
    },
    "chromosome_18": {
        "layer_0": {
            "neuron_0": {
                "bias": -0.33110445737838745,
                "weights": [
                    -0.46868187189102173,
                    0.6603930592536926,
                    0.34614402055740356
                ]
            },
            "neuron_1": {
                "bias": -0.2773125171661377,
                "weights": [
                    -0.29530012607574463,
                    0.5634480118751526,
                    -0.31004056334495544
                ]
            },
            "neuron_2": {
                "bias": -0.5486220717430115,
                "weights": [
                    0.15464645624160767,
                    0.0775688886642456,
                    -0.5200811624526978
                ]
            },
            "neuron_3": {
                "bias": 0.5301217436790466,
                "weights": [
                    0.4090365767478943,
                    0.21638542413711548,
                    0.39040809869766235
                ]
            }
        },
        "layer_1": {
            "neuron_0": {
                "bias": 0.24026918411254883,
                "weights": [
                    0.44672077894210815,
                    -0.5678487420082092,
                    0.6134800314903259,
                    0.41719716787338257
                ]
            },
            "neuron_1": {
                "bias": 0.2503097653388977,
                "weights": [
                    0.3352915644645691,
                    0.4946592450141907,
                    -0.023093342781066895,
                    -0.17331767082214355
                ]
            },
            "neuron_2": {
                "bias": 0.20937836170196533,
                "weights": [
                    -0.6821405291557312,
                    0.03676563501358032,
                    0.12435376644134521,
                    -0.22168338298797607
                ]
            },
            "neuron_3": {
                "bias": 0.11080968379974365,
                "weights": [
                    0.3968169093132019,
                    -0.1846400499343872,
                    -0.16639608144760132,
                    0.6281777024269104
                ]
            }
        },
        "output": {
            "bias": 0.12478101253509521,
            "weights": [
                -0.28820765018463135,
                0.323969304561615,
                -0.18745994567871094,
                0.4533731937408447
            ]
        },
        "score": 0
    },
    "chromosome_19": {
        "layer_0": {
            "neuron_0": {
                "bias": -0.33110445737838745,
                "weights": [
                    -0.46868187189102173,
                    0.6603930592536926,
                    0.34614402055740356
                ]
            },
            "neuron_1": {
                "bias": -0.2773125171661377,
                "weights": [
                    -0.29530012607574463,
                    0.5634480118751526,
                    -0.31004056334495544
                ]
            },
            "neuron_2": {
                "bias": -0.5486220717430115,
                "weights": [
                    0.15464645624160767,
                    0.0775688886642456,
                    -0.5200811624526978
                ]
            },
            "neuron_3": {
                "bias": 0.5301217436790466,
                "weights": [
                    0.4090365767478943,
                    0.21638542413711548,
                    0.39040809869766235
                ]
            }
        },
        "layer_1": {
            "neuron_0": {
                "bias": 0.24026918411254883,
                "weights": [
                    0.44672077894210815,
                    -0.5678487420082092,
                    0.6134800314903259,
                    0.41719716787338257
                ]
            },
            "neuron_1": {
                "bias": 0.2503097653388977,
                "weights": [
                    0.3352915644645691,
                    0.4946592450141907,
                    -0.023093342781066895,
                    -0.17331767082214355
                ]
            },
            "neuron_2": {
                "bias": 0.20937836170196533,
                "weights": [
                    -0.6821405291557312,
                    0.03676563501358032,
                    0.12435376644134521,
                    -0.22168338298797607
                ]
            },
            "neuron_3": {
                "bias": 0.11080968379974365,
                "weights": [
                    0.3968169093132019,
                    -0.1846400499343872,
                    -0.16639608144760132,
                    0.6281777024269104
                ]
            }
        },
        "output": {
            "bias": 0.12478101253509521,
            "weights": [
                -0.28820765018463135,
                0.323969304561615,
                -0.18745994567871094,
                -0.04223453998565674
            ]
        },
        "score": 1
    },
    "chromosome_2": {
        "layer_0": {
            "neuron_0": {
                "bias": -0.3900662064552307,
                "weights": [
                    0.12896817922592163,
                    -0.3490920662879944,
                    -0.027365922927856445
                ]
            },
            "neuron_1": {
                "bias": -0.16784876585006714,
                "weights": [
                    -0.604293942451477,
                    0.3297799229621887,
                    -0.1999359130859375
                ]
            },
            "neuron_2": {
                "bias": -0.35554367303848267,
                "weights": [
                    0.5261055827140808,
                    0.015915393829345703,
                    -0.2953428626060486
                ]
            },
            "neuron_3": {
                "bias": 0.2500106692314148,
                "weights": [
                    0.665050208568573,
                    -0.5914334654808044,
                    -0.5129459500312805
                ]
            }
        },
        "layer_1": {
            "neuron_0": {
                "bias": 0.09277933835983276,
                "weights": [
                    0.6882503628730774,
                    -0.07474899291992188,
                    0.2603076100349426,
                    -0.2870112955570221
                ]
            },
            "neuron_1": {
                "bias": -0.5574663281440735,
                "weights": [
                    0.30581074953079224,
                    -0.5873317718505859,
                    0.5455885529518127,
                    -0.38835716247558594
                ]
            },
            "neuron_2": {
                "bias": -0.27060455083847046,
                "weights": [
                    0.49183934926986694,
                    0.5299509167671204,
                    -0.4775688648223877,
                    -0.46928006410598755
                ]
            },
            "neuron_3": {
                "bias": -0.1343943476676941,
                "weights": [
                    0.41993170976638794,
                    0.5173894762992859,
                    0.13204443454742432,
                    -0.17558211088180542
                ]
            }
        },
        "output": {
            "bias": -0.19015169143676758,
            "weights": [
                -0.6952146887779236,
                -0.35387736558914185,
                -0.4360353350639343,
                -0.19536423683166504
            ]
        },
        "score": 2
    },
    "chromosome_20": {
        "layer_0": {
            "neuron_0": {
                "bias": -0.3900662064552307,
                "weights": [
                    0.12896817922592163,
                    -0.3490920662879944,
                    -0.027365922927856445
                ]
            },
            "neuron_1": {
                "bias": -0.16784876585006714,
                "weights": [
                    -0.604293942451477,
                    0.3297799229621887,
                    -0.1999359130859375
                ]
            },
            "neuron_2": {
                "bias": -0.35554367303848267,
                "weights": [
                    0.5261055827140808,
                    0.015915393829345703,
                    -0.2953428626060486
                ]
            },
            "neuron_3": {
                "bias": 0.2500106692314148,
                "weights": [
                    0.665050208568573,
                    -0.4981544613838196,
                    -0.5129459500312805
                ]
            }
        },
        "layer_1": {
            "neuron_0": {
                "bias": 0.09277933835983276,
                "weights": [
                    0.6882503628730774,
                    -0.07474899291992188,
                    0.2603076100349426,
                    -0.2870112955570221
                ]
            },
            "neuron_1": {
                "bias": -0.5574663281440735,
                "weights": [
                    0.30581074953079224,
                    -0.5873317718505859,
                    0.5455885529518127,
                    -0.38835716247558594
                ]
            },
            "neuron_2": {
                "bias": -0.27060455083847046,
                "weights": [
                    0.49183934926986694,
                    0.5299509167671204,
                    -0.4775688648223877,
                    -0.46928006410598755
                ]
            },
            "neuron_3": {
                "bias": -0.1343943476676941,
                "weights": [
                    0.41993170976638794,
                    0.5173894762992859,
                    0.13204443454742432,
                    -0.17558211088180542
                ]
            }
        },
        "output": {
            "bias": -0.19015169143676758,
            "weights": [
                -0.6952146887779236,
                -0.35387736558914185,
                0.10457170009613037,
                -0.19536423683166504
            ]
        },
        "score": 2
    },
    "chromosome_21": {
        "layer_0": {
            "neuron_0": {
                "bias": -0.33110445737838745,
                "weights": [
                    0.12896817922592163,
                    0.6603930592536926,
                    -0.027365922927856445
                ]
            },
            "neuron_1": {
                "bias": -0.2773125171661377,
                "weights": [
                    -0.604293942451477,
                    0.5634480118751526,
                    -0.1999359130859375
                ]
            },
            "neuron_2": {
                "bias": -0.5486220717430115,
                "weights": [
                    0.5261055827140808,
                    0.0775688886642456,
                    -0.2953428626060486
                ]
            },
            "neuron_3": {
                "bias": 0.5301217436790466,
                "weights": [
                    0.665050208568573,
                    0.21638542413711548,
                    -0.5129459500312805
                ]
            }
        },
        "layer_1": {
            "neuron_0": {
                "bias": 0.09277933835983276,
                "weights": [
                    0.6882503628730774,
                    -0.5678487420082092,
                    0.2603076100349426,
                    0.41719716787338257
                ]
            },
            "neuron_1": {
                "bias": 0.2503097653388977,
                "weights": [
                    0.3352915644645691,
                    -0.5873317718505859,
                    -0.023093342781066895,
                    -0.38835716247558594
                ]
            },
            "neuron_2": {
                "bias": -0.27060455083847046,
                "weights": [
                    0.49183934926986694,
                    0.03676563501358032,
                    -0.4775688648223877,
                    -0.22168338298797607
                ]
            },
            "neuron_3": {
                "bias": 0.11080968379974365,
                "weights": [
                    0.3968169093132019,
                    0.5173894762992859,
                    -0.16639608144760132,
                    -0.17558211088180542
                ]
            }
        },
        "output": {
            "bias": -0.19015169143676758,
            "weights": [
                -0.6952146887779236,
                0.323969304561615,
                0.10457170009613037,
                -0.04223453998565674
            ]
        },
        "score": 0
    },
    "chromosome_22": {
        "layer_0": {
            "neuron_0": {
                "bias": -0.3900662064552307,
                "weights": [
                    0.12896817922592163,
                    -0.3490920662879944,
                    -0.027365922927856445
                ]
            },
            "neuron_1": {
                "bias": -0.16784876585006714,
                "weights": [
                    -0.604293942451477,
                    0.3297799229621887,
                    -0.1999359130859375
                ]
            },
            "neuron_2": {
                "bias": -0.35554367303848267,
                "weights": [
                    0.5261055827140808,
                    0.015915393829345703,
                    -0.2953428626060486
                ]
            },
            "neuron_3": {
                "bias": 0.2500106692314148,
                "weights": [
                    0.665050208568573,
                    -0.5914334654808044,
                    -0.5129459500312805
                ]
            }
        },
        "layer_1": {
            "neuron_0": {
                "bias": 0.09277933835983276,
                "weights": [
                    0.6882503628730774,
                    -0.07474899291992188,
                    0.2603076100349426,
                    -0.2870112955570221
                ]
            },
            "neuron_1": {
                "bias": -0.5574663281440735,
                "weights": [
                    0.30581074953079224,
                    -0.5873317718505859,
                    0.5455885529518127,
                    -0.38835716247558594
                ]
            },
            "neuron_2": {
                "bias": -0.27060455083847046,
                "weights": [
                    0.49183934926986694,
                    0.5299509167671204,
                    -0.4775688648223877,
                    -0.46928006410598755
                ]
            },
            "neuron_3": {
                "bias": -0.1343943476676941,
                "weights": [
                    0.41993170976638794,
                    0.5173894762992859,
                    0.13204443454742432,
                    -0.17558211088180542
                ]
            }
        },
        "output": {
            "bias": -0.19015169143676758,
            "weights": [
                -0.6952146887779236,
                -0.35387736558914185,
                0.10457170009613037,
                -0.19536423683166504
            ]
        },
        "score": 2
    },
    "chromosome_23": {
        "layer_0": {
            "neuron_0": {
                "bias": -0.33110445737838745,
                "weights": [
                    0.12896817922592163,
                    0.6603930592536926,
                    -0.027365922927856445
                ]
            },
            "neuron_1": {
                "bias": -0.2773125171661377,
                "weights": [
                    -0.604293942451477,
                    0.5634480118751526,
                    -0.1999359130859375
                ]
            },
            "neuron_2": {
                "bias": -0.5486220717430115,
                "weights": [
                    0.5261055827140808,
                    0.0775688886642456,
                    -0.2953428626060486
                ]
            },
            "neuron_3": {
                "bias": 0.5301217436790466,
                "weights": [
                    0.665050208568573,
                    0.21638542413711548,
                    -0.5129459500312805
                ]
            }
        },
        "layer_1": {
            "neuron_0": {
                "bias": 0.09277933835983276,
                "weights": [
                    0.6882503628730774,
                    -0.5678487420082092,
                    0.2603076100349426,
                    0.41719716787338257
                ]
            },
            "neuron_1": {
                "bias": 0.2503097653388977,
                "weights": [
                    0.3352915644645691,
                    -0.5873317718505859,
                    -0.023093342781066895,
                    -0.38835716247558594
                ]
            },
            "neuron_2": {
                "bias": -0.27060455083847046,
                "weights": [
                    0.49183934926986694,
                    0.03676563501358032,
                    -0.4775688648223877,
                    -0.22168338298797607
                ]
            },
            "neuron_3": {
                "bias": 0.11080968379974365,
                "weights": [
                    0.3968169093132019,
                    0.5173894762992859,
                    -0.16639608144760132,
                    -0.17558211088180542
                ]
            }
        },
        "output": {
            "bias": 0.20377492904663086,
            "weights": [
                -0.6952146887779236,
                0.323969304561615,
                0.10457170009613037,
                -0.04223453998565674
            ]
        },
        "score": 0
    },
    "chromosome_24": {
        "layer_0": {
            "neuron_0": {
                "bias": 0.21382182836532593,
                "weights": [
                    0.12896817922592163,
                    0.3609698414802551,
                    -0.027365922927856445
                ]
            },
            "neuron_1": {
                "bias": 0.29410386085510254,
                "weights": [
                    -0.604293942451477,
                    0.5588763356208801,
                    -0.1999359130859375
                ]
            },
            "neuron_2": {
                "bias": 0.1534501314163208,
                "weights": [
                    0.5261055827140808,
                    -0.5417859554290771,
                    -0.2953428626060486
                ]
            },
            "neuron_3": {
                "bias": -0.1662251353263855,
                "weights": [
                    0.665050208568573,
                    -0.36186710000038147,
                    -0.5129459500312805
                ]
            }
        },
        "layer_1": {
            "neuron_0": {
                "bias": 0.09277933835983276,
                "weights": [
                    0.6882503628730774,
                    0.1482803225517273,
                    0.2603076100349426,
                    -0.16524243354797363
                ]
            },
            "neuron_1": {
                "bias": -0.3929288387298584,
                "weights": [
                    0.15554368495941162,
                    -0.5873317718505859,
                    0.6821405291557312,
                    -0.38835716247558594
                ]
            },
            "neuron_2": {
                "bias": -0.27060455083847046,
                "weights": [
                    0.49183934926986694,
                    -0.5532364845275879,
                    -0.4775688648223877,
                    0.45441144704818726
                ]
            },
            "neuron_3": {
                "bias": 0.3620380759239197,
                "weights": [
                    -0.29085662961006165,
                    0.5173894762992859,
                    0.08111518621444702,
                    -0.17558211088180542
                ]
            }
        },
        "output": {
            "bias": -0.19015169143676758,
            "weights": [
                -0.6952146887779236,
                0.07936340570449829,
                0.10457170009613037,
                -0.6540696620941162
            ]
        },
        "score": 0
    },
    "chromosome_25": {
        "layer_0": {
            "neuron_0": {
                "bias": -0.33110445737838745,
                "weights": [
                    0.12896817922592163,
                    0.6603930592536926,
                    -0.027365922927856445
                ]
            },
            "neuron_1": {
                "bias": -0.2773125171661377,
                "weights": [
                    -0.604293942451477,
                    0.5634480118751526,
                    -0.1999359130859375
                ]
            },
            "neuron_2": {
                "bias": -0.5486220717430115,
                "weights": [
                    0.5261055827140808,
                    0.0775688886642456,
                    -0.2953428626060486
                ]
            },
            "neuron_3": {
                "bias": 0.5301217436790466,
                "weights": [
                    0.665050208568573,
                    0.21638542413711548,
                    -0.5129459500312805
                ]
            }
        },
        "layer_1": {
            "neuron_0": {
                "bias": 0.09277933835983276,
                "weights": [
                    0.6882503628730774,
                    -0.5678487420082092,
                    0.2603076100349426,
                    0.41719716787338257
                ]
            },
            "neuron_1": {
                "bias": 0.2503097653388977,
                "weights": [
                    0.3352915644645691,
                    -0.5873317718505859,
                    -0.023093342781066895,
                    -0.38835716247558594
                ]
            },
            "neuron_2": {
                "bias": -0.27060455083847046,
                "weights": [
                    0.49183934926986694,
                    0.03676563501358032,
                    -0.4775688648223877,
                    -0.22168338298797607
                ]
            },
            "neuron_3": {
                "bias": 0.11080968379974365,
                "weights": [
                    0.3968169093132019,
                    0.5173894762992859,
                    -0.16639608144760132,
                    -0.17558211088180542
                ]
            }
        },
        "output": {
            "bias": -0.19015169143676758,
            "weights": [
                -0.6952146887779236,
                0.323969304561615,
                -0.6021395921707153,
                -0.04223453998565674
            ]
        },
        "score": 0
    },
    "chromosome_26": {
        "layer_0": {
            "neuron_0": {
                "bias": -0.3900662064552307,
                "weights": [
                    0.12896817922592163,
                    -0.3490920662879944,
                    -0.027365922927856445
                ]
            },
            "neuron_1": {
                "bias": -0.16784876585006714,
                "weights": [
                    -0.604293942451477,
                    0.3297799229621887,
                    -0.1999359130859375
                ]
            },
            "neuron_2": {
                "bias": -0.35554367303848267,
                "weights": [
                    0.5261055827140808,
                    0.015915393829345703,
                    -0.2953428626060486
                ]
            },
            "neuron_3": {
                "bias": 0.2500106692314148,
                "weights": [
                    0.665050208568573,
                    -1.3708466291427612,
                    -0.5129459500312805
                ]
            }
        },
        "layer_1": {
            "neuron_0": {
                "bias": 0.09277933835983276,
                "weights": [
                    0.6882503628730774,
                    -0.07474899291992188,
                    0.2603076100349426,
                    -0.2870112955570221
                ]
            },
            "neuron_1": {
                "bias": -0.5574663281440735,
                "weights": [
                    0.30581074953079224,
                    -0.5873317718505859,
                    0.5455885529518127,
                    -0.38835716247558594
                ]
            },
            "neuron_2": {
                "bias": -0.27060455083847046,
                "weights": [
                    0.49183934926986694,
                    0.5299509167671204,
                    -0.4775688648223877,
                    -0.46928006410598755
                ]
            },
            "neuron_3": {
                "bias": -0.1343943476676941,
                "weights": [
                    0.41993170976638794,
                    0.5173894762992859,
                    0.13204443454742432,
                    -0.17558211088180542
                ]
            }
        },
        "output": {
            "bias": -0.19015169143676758,
            "weights": [
                -0.6952146887779236,
                -0.35387736558914185,
                0.10457170009613037,
                -0.19536423683166504
            ]
        },
        "score": 1
    },
    "chromosome_27": {
        "layer_0": {
            "neuron_0": {
                "bias": -0.33110445737838745,
                "weights": [
                    0.12896817922592163,
                    0.6603930592536926,
                    -0.027365922927856445
                ]
            },
            "neuron_1": {
                "bias": -0.2773125171661377,
                "weights": [
                    -0.604293942451477,
                    0.5634480118751526,
                    -0.1999359130859375
                ]
            },
            "neuron_2": {
                "bias": -0.5486220717430115,
                "weights": [
                    0.5261055827140808,
                    0.0775688886642456,
                    -0.2953428626060486
                ]
            },
            "neuron_3": {
                "bias": 0.5301217436790466,
                "weights": [
                    0.665050208568573,
                    0.21638542413711548,
                    -0.5129459500312805
                ]
            }
        },
        "layer_1": {
            "neuron_0": {
                "bias": 0.09277933835983276,
                "weights": [
                    0.6882503628730774,
                    -0.5678487420082092,
                    0.2603076100349426,
                    0.41719716787338257
                ]
            },
            "neuron_1": {
                "bias": 0.2503097653388977,
                "weights": [
                    0.3352915644645691,
                    -0.5873317718505859,
                    -0.023093342781066895,
                    -0.38835716247558594
                ]
            },
            "neuron_2": {
                "bias": -0.27060455083847046,
                "weights": [
                    0.49183934926986694,
                    0.03676563501358032,
                    -0.4775688648223877,
                    -0.22168338298797607
                ]
            },
            "neuron_3": {
                "bias": 0.11080968379974365,
                "weights": [
                    0.3968169093132019,
                    0.5173894762992859,
                    -0.16639608144760132,
                    -0.17558211088180542
                ]
            }
        },
        "output": {
            "bias": -0.19015169143676758,
            "weights": [
                -0.6952146887779236,
                0.323969304561615,
                0.10457170009613037,
                -0.04223453998565674
            ]
        },
        "score": 0
    },
    "chromosome_28": {
        "layer_0": {
            "neuron_0": {
                "bias": -0.33110445737838745,
                "weights": [
                    0.12896817922592163,
                    0.6603930592536926,
                    -0.027365922927856445
                ]
            },
            "neuron_1": {
                "bias": -0.2773125171661377,
                "weights": [
                    -0.604293942451477,
                    0.5634480118751526,
                    -0.1999359130859375
                ]
            },
            "neuron_2": {
                "bias": -0.5486220717430115,
                "weights": [
                    0.5261055827140808,
                    0.0775688886642456,
                    -0.2953428626060486
                ]
            },
            "neuron_3": {
                "bias": 0.5301217436790466,
                "weights": [
                    0.665050208568573,
                    0.21638542413711548,
                    -0.5129459500312805
                ]
            }
        },
        "layer_1": {
            "neuron_0": {
                "bias": 0.09277933835983276,
                "weights": [
                    0.6882503628730774,
                    -0.5678487420082092,
                    0.2603076100349426,
                    0.41719716787338257
                ]
            },
            "neuron_1": {
                "bias": 0.2503097653388977,
                "weights": [
                    0.3352915644645691,
                    -0.5873317718505859,
                    -0.023093342781066895,
                    -0.38835716247558594
                ]
            },
            "neuron_2": {
                "bias": -0.27060455083847046,
                "weights": [
                    0.49183934926986694,
                    0.03676563501358032,
                    -0.4775688648223877,
                    -1.0315907001495361
                ]
            },
            "neuron_3": {
                "bias": 0.11080968379974365,
                "weights": [
                    0.3968169093132019,
                    0.5173894762992859,
                    -0.16639608144760132,
                    -0.17558211088180542
                ]
            }
        },
        "output": {
            "bias": -0.19015169143676758,
            "weights": [
                -0.6952146887779236,
                0.323969304561615,
                0.10457170009613037,
                0.4533731937408447
            ]
        },
        "score": 0
    },
    "chromosome_29": {
        "layer_0": {
            "neuron_0": {
                "bias": -0.33110445737838745,
                "weights": [
                    0.12896817922592163,
                    0.6603930592536926,
                    -0.027365922927856445
                ]
            },
            "neuron_1": {
                "bias": -0.2773125171661377,
                "weights": [
                    -0.604293942451477,
                    0.5634480118751526,
                    -0.1999359130859375
                ]
            },
            "neuron_2": {
                "bias": -0.5486220717430115,
                "weights": [
                    0.5261055827140808,
                    0.0775688886642456,
                    -0.2953428626060486
                ]
            },
            "neuron_3": {
                "bias": 0.5301217436790466,
                "weights": [
                    0.665050208568573,
                    0.21638542413711548,
                    -0.5129459500312805
                ]
            }
        },
        "layer_1": {
            "neuron_0": {
                "bias": 0.09277933835983276,
                "weights": [
                    0.6882503628730774,
                    -0.5678487420082092,
                    0.2603076100349426,
                    0.41719716787338257
                ]
            },
            "neuron_1": {
                "bias": 0.2503097653388977,
                "weights": [
                    0.3352915644645691,
                    -0.5873317718505859,
                    -0.023093342781066895,
                    -0.38835716247558594
                ]
            },
            "neuron_2": {
                "bias": -0.27060455083847046,
                "weights": [
                    0.49183934926986694,
                    0.03676563501358032,
                    -0.4775688648223877,
                    -0.22168338298797607
                ]
            },
            "neuron_3": {
                "bias": 0.11080968379974365,
                "weights": [
                    0.3968169093132019,
                    0.5173894762992859,
                    -0.16639608144760132,
                    -0.17558211088180542
                ]
            }
        },
        "output": {
            "bias": -0.19015169143676758,
            "weights": [
                -0.6952146887779236,
                0.323969304561615,
                0.10457170009613037,
                -0.04223453998565674
            ]
        },
        "score": 0
    },
    "chromosome_3": {
        "layer_0": {
            "neuron_0": {
                "bias": -0.33110445737838745,
                "weights": [
                    0.12896817922592163,
                    0.6603930592536926,
                    -0.027365922927856445
                ]
            },
            "neuron_1": {
                "bias": -0.2773125171661377,
                "weights": [
                    -0.604293942451477,
                    0.5634480118751526,
                    -0.1999359130859375
                ]
            },
            "neuron_2": {
                "bias": -0.5486220717430115,
                "weights": [
                    0.5261055827140808,
                    0.0775688886642456,
                    -0.2953428626060486
                ]
            },
            "neuron_3": {
                "bias": 0.5301217436790466,
                "weights": [
                    0.665050208568573,
                    0.21638542413711548,
                    -0.5129459500312805
                ]
            }
        },
        "layer_1": {
            "neuron_0": {
                "bias": 0.09277933835983276,
                "weights": [
                    0.6882503628730774,
                    -0.5678487420082092,
                    0.2603076100349426,
                    0.41719716787338257
                ]
            },
            "neuron_1": {
                "bias": 0.2503097653388977,
                "weights": [
                    0.3352915644645691,
                    -0.5873317718505859,
                    -0.023093342781066895,
                    -0.38835716247558594
                ]
            },
            "neuron_2": {
                "bias": -0.27060455083847046,
                "weights": [
                    0.49183934926986694,
                    0.03676563501358032,
                    -0.4775688648223877,
                    -0.22168338298797607
                ]
            },
            "neuron_3": {
                "bias": 0.11080968379974365,
                "weights": [
                    0.3968169093132019,
                    0.5173894762992859,
                    -0.16639608144760132,
                    -0.17558211088180542
                ]
            }
        },
        "output": {
            "bias": -0.19015169143676758,
            "weights": [
                -0.6952146887779236,
                0.323969304561615,
                -0.4360353350639343,
                -0.04223453998565674
            ]
        },
        "score": 0
    },
    "chromosome_30": {
        "layer_0": {
            "neuron_0": {
                "bias": -0.3900662064552307,
                "weights": [
                    -0.6712027192115784,
                    -0.3490920662879944,
                    -0.14285409450531006
                ]
            },
            "neuron_1": {
                "bias": -0.16784876585006714,
                "weights": [
                    0.35246747732162476,
                    0.3297799229621887,
                    -0.42608416080474854
                ]
            },
            "neuron_2": {
                "bias": -0.35554367303848267,
                "weights": [
                    -0.2372356355190277,
                    0.015915393829345703,
                    -0.6864558458328247
                ]
            },
            "neuron_3": {
                "bias": 0.2500106692314148,
                "weights": [
                    -0.46030759811401367,
                    -0.5914334654808044,
                    0.47453540563583374
                ]
            }
        },
        "layer_1": {
            "neuron_0": {
                "bias": 0.2891903519630432,
                "weights": [
                    0.2777825593948364,
                    -0.07474899291992188,
                    -0.11743217706680298,
                    -0.2870112955570221
                ]
            },
            "neuron_1": {
                "bias": -0.5574663281440735,
                "weights": [
                    0.30581074953079224,
                    0.2705191373825073,
                    0.5455885529518127,
                    0.6709890961647034
                ]
            },
            "neuron_2": {
                "bias": 0.08504593372344971,
                "weights": [
                    0.23078405857086182,
                    0.5299509167671204,
                    0.6293314099311829,
                    -0.46928006410598755
                ]
            },
            "neuron_3": {
                "bias": -0.1343943476676941,
                "weights": [
                    0.41993170976638794,
                    0.2550523281097412,
                    0.13204443454742432,
                    0.614249050617218
                ]
            }
        },
        "output": {
            "bias": 0.3573381304740906,
            "weights": [
                0.6442427039146423,
                -0.35387736558914185,
                0.29282206296920776,
                -0.19536423683166504
            ]
        },
        "score": 0
    },
    "chromosome_31": {
        "layer_0": {
            "neuron_0": {
                "bias": -0.33110445737838745,
                "weights": [
                    -0.6712027192115784,
                    0.6603930592536926,
                    -0.14285409450531006
                ]
            },
            "neuron_1": {
                "bias": -0.2773125171661377,
                "weights": [
                    0.35246747732162476,
                    0.5634480118751526,
                    -0.42608416080474854
                ]
            },
            "neuron_2": {
                "bias": -0.5486220717430115,
                "weights": [
                    -0.2372356355190277,
                    0.0775688886642456,
                    -0.6864558458328247
                ]
            },
            "neuron_3": {
                "bias": 0.5301217436790466,
                "weights": [
                    -0.46030759811401367,
                    0.21638542413711548,
                    0.47453540563583374
                ]
            }
        },
        "layer_1": {
            "neuron_0": {
                "bias": 0.2891903519630432,
                "weights": [
                    0.2777825593948364,
                    -0.5678487420082092,
                    -0.11743217706680298,
                    0.41719716787338257
                ]
            },
            "neuron_1": {
                "bias": 0.2503097653388977,
                "weights": [
                    0.3352915644645691,
                    0.2705191373825073,
                    -0.023093342781066895,
                    0.6709890961647034
                ]
            },
            "neuron_2": {
                "bias": 0.08504593372344971,
                "weights": [
                    0.23078405857086182,
                    0.03676563501358032,
                    0.6293314099311829,
                    -0.22168338298797607
                ]
            },
            "neuron_3": {
                "bias": 0.11080968379974365,
                "weights": [
                    0.3968169093132019,
                    0.2550523281097412,
                    -0.16639608144760132,
                    0.614249050617218
                ]
            }
        },
        "output": {
            "bias": 0.3573381304740906,
            "weights": [
                0.6442427039146423,
                0.323969304561615,
                0.29282206296920776,
                -0.04223453998565674
            ]
        },
        "score": 0
    },
    "chromosome_32": {
        "layer_0": {
            "neuron_0": {
                "bias": -0.3900662064552307,
                "weights": [
                    -0.6712027192115784,
                    -0.3490920662879944,
                    -0.14285409450531006
                ]
            },
            "neuron_1": {
                "bias": -0.16784876585006714,
                "weights": [
                    0.35246747732162476,
                    0.3297799229621887,
                    -0.42608416080474854
                ]
            },
            "neuron_2": {
                "bias": -0.35554367303848267,
                "weights": [
                    -0.2372356355190277,
                    0.015915393829345703,
                    -0.6864558458328247
                ]
            },
            "neuron_3": {
                "bias": 0.2500106692314148,
                "weights": [
                    -0.46030759811401367,
                    -0.5914334654808044,
                    0.47453540563583374
                ]
            }
        },
        "layer_1": {
            "neuron_0": {
                "bias": 0.2891903519630432,
                "weights": [
                    0.2777825593948364,
                    -0.07474899291992188,
                    -0.11743217706680298,
                    -0.2870112955570221
                ]
            },
            "neuron_1": {
                "bias": -0.5574663281440735,
                "weights": [
                    0.30581074953079224,
                    0.2705191373825073,
                    0.5455885529518127,
                    0.6709890961647034
                ]
            },
            "neuron_2": {
                "bias": 0.08504593372344971,
                "weights": [
                    0.23078405857086182,
                    0.5299509167671204,
                    0.6293314099311829,
                    -0.46928006410598755
                ]
            },
            "neuron_3": {
                "bias": -0.1343943476676941,
                "weights": [
                    0.41993170976638794,
                    0.2550523281097412,
                    0.13204443454742432,
                    0.614249050617218
                ]
            }
        },
        "output": {
            "bias": 0.3573381304740906,
            "weights": [
                0.6442427039146423,
                -0.35387736558914185,
                0.29282206296920776,
                -0.19536423683166504
            ]
        },
        "score": 0
    },
    "chromosome_33": {
        "layer_0": {
            "neuron_0": {
                "bias": -0.33110445737838745,
                "weights": [
                    -0.6712027192115784,
                    0.6603930592536926,
                    -0.14285409450531006
                ]
            },
            "neuron_1": {
                "bias": -0.2773125171661377,
                "weights": [
                    0.35246747732162476,
                    0.5634480118751526,
                    -0.42608416080474854
                ]
            },
            "neuron_2": {
                "bias": -0.5486220717430115,
                "weights": [
                    -0.2372356355190277,
                    0.0775688886642456,
                    -0.6864558458328247
                ]
            },
            "neuron_3": {
                "bias": 0.5301217436790466,
                "weights": [
                    -0.46030759811401367,
                    0.21638542413711548,
                    0.47453540563583374
                ]
            }
        },
        "layer_1": {
            "neuron_0": {
                "bias": 0.2891903519630432,
                "weights": [
                    0.2777825593948364,
                    -0.5678487420082092,
                    -0.11743217706680298,
                    0.41719716787338257
                ]
            },
            "neuron_1": {
                "bias": 0.2503097653388977,
                "weights": [
                    0.3352915644645691,
                    0.2705191373825073,
                    -0.023093342781066895,
                    0.6709890961647034
                ]
            },
            "neuron_2": {
                "bias": 0.08504593372344971,
                "weights": [
                    0.23078405857086182,
                    0.03676563501358032,
                    0.6293314099311829,
                    -0.22168338298797607
                ]
            },
            "neuron_3": {
                "bias": 0.11080968379974365,
                "weights": [
                    0.3968169093132019,
                    0.2550523281097412,
                    -0.16639608144760132,
                    0.614249050617218
                ]
            }
        },
        "output": {
            "bias": 0.3573381304740906,
            "weights": [
                0.6442427039146423,
                0.323969304561615,
                0.29282206296920776,
                -0.04223453998565674
            ]
        },
        "score": 0
    },
    "chromosome_34": {
        "layer_0": {
            "neuron_0": {
                "bias": 0.21382182836532593,
                "weights": [
                    -0.6712027192115784,
                    0.3609698414802551,
                    -0.14285409450531006
                ]
            },
            "neuron_1": {
                "bias": 0.29410386085510254,
                "weights": [
                    0.35246747732162476,
                    0.5588763356208801,
                    -0.42608416080474854
                ]
            },
            "neuron_2": {
                "bias": 0.1534501314163208,
                "weights": [
                    -0.2372356355190277,
                    -0.5417859554290771,
                    -0.6864558458328247
                ]
            },
            "neuron_3": {
                "bias": -0.1662251353263855,
                "weights": [
                    -0.46030759811401367,
                    -0.36186710000038147,
                    0.47453540563583374
                ]
            }
        },
        "layer_1": {
            "neuron_0": {
                "bias": 0.2891903519630432,
                "weights": [
                    0.2777825593948364,
                    0.1482803225517273,
                    -0.11743217706680298,
                    -0.16524243354797363
                ]
            },
            "neuron_1": {
                "bias": -0.3929288387298584,
                "weights": [
                    0.15554368495941162,
                    0.2705191373825073,
                    0.6821405291557312,
                    0.6709890961647034
                ]
            },
            "neuron_2": {
                "bias": 0.08504593372344971,
                "weights": [
                    0.23078405857086182,
                    -0.5532364845275879,
                    0.6293314099311829,
                    0.45441144704818726
                ]
            },
            "neuron_3": {
                "bias": 0.3620380759239197,
                "weights": [
                    -0.29085662961006165,
                    0.2550523281097412,
                    0.08111518621444702,
                    0.614249050617218
                ]
            }
        },
        "output": {
            "bias": 0.3573381304740906,
            "weights": [
                0.6442427039146423,
                0.07936340570449829,
                0.29282206296920776,
                -0.6540696620941162
            ]
        },
        "score": 1
    },
    "chromosome_35": {
        "layer_0": {
            "neuron_0": {
                "bias": -0.33110445737838745,
                "weights": [
                    -0.6712027192115784,
                    0.6603930592536926,
                    -0.14285409450531006
                ]
            },
            "neuron_1": {
                "bias": -0.2773125171661377,
                "weights": [
                    0.35246747732162476,
                    0.5634480118751526,
                    -0.42608416080474854
                ]
            },
            "neuron_2": {
                "bias": -0.5486220717430115,
                "weights": [
                    -0.2372356355190277,
                    0.0775688886642456,
                    -0.6864558458328247
                ]
            },
            "neuron_3": {
                "bias": 0.5301217436790466,
                "weights": [
                    -0.46030759811401367,
                    0.21638542413711548,
                    0.47453540563583374
                ]
            }
        },
        "layer_1": {
            "neuron_0": {
                "bias": 0.2891903519630432,
                "weights": [
                    0.2777825593948364,
                    -0.5678487420082092,
                    -0.11743217706680298,
                    0.41719716787338257
                ]
            },
            "neuron_1": {
                "bias": 0.2503097653388977,
                "weights": [
                    0.3352915644645691,
                    0.2705191373825073,
                    -0.023093342781066895,
                    0.6709890961647034
                ]
            },
            "neuron_2": {
                "bias": 0.08504593372344971,
                "weights": [
                    0.23078405857086182,
                    0.03676563501358032,
                    0.6293314099311829,
                    -0.22168338298797607
                ]
            },
            "neuron_3": {
                "bias": 0.11080968379974365,
                "weights": [
                    0.3968169093132019,
                    0.2550523281097412,
                    -0.16639608144760132,
                    0.614249050617218
                ]
            }
        },
        "output": {
            "bias": 0.3573381304740906,
            "weights": [
                0.6442427039146423,
                0.323969304561615,
                0.29282206296920776,
                -0.04223453998565674
            ]
        },
        "score": 0
    },
    "chromosome_36": {
        "layer_0": {
            "neuron_0": {
                "bias": -0.3900662064552307,
                "weights": [
                    -0.6712027192115784,
                    -0.3490920662879944,
                    -0.14285409450531006
                ]
            },
            "neuron_1": {
                "bias": -0.16784876585006714,
                "weights": [
                    0.35246747732162476,
                    0.3297799229621887,
                    -0.42608416080474854
                ]
            },
            "neuron_2": {
                "bias": -0.35554367303848267,
                "weights": [
                    -0.2372356355190277,
                    0.015915393829345703,
                    -0.6864558458328247
                ]
            },
            "neuron_3": {
                "bias": 0.2500106692314148,
                "weights": [
                    -0.46030759811401367,
                    -1.3708466291427612,
                    0.47453540563583374
                ]
            }
        },
        "layer_1": {
            "neuron_0": {
                "bias": 0.2891903519630432,
                "weights": [
                    0.2777825593948364,
                    -0.07474899291992188,
                    -0.11743217706680298,
                    -0.2870112955570221
                ]
            },
            "neuron_1": {
                "bias": -0.5574663281440735,
                "weights": [
                    0.30581074953079224,
                    0.2705191373825073,
                    0.5455885529518127,
                    0.6709890961647034
                ]
            },
            "neuron_2": {
                "bias": 0.08504593372344971,
                "weights": [
                    0.23078405857086182,
                    0.5299509167671204,
                    0.6293314099311829,
                    -0.46928006410598755
                ]
            },
            "neuron_3": {
                "bias": -0.1343943476676941,
                "weights": [
                    0.41993170976638794,
                    0.2550523281097412,
                    0.13204443454742432,
                    0.614249050617218
                ]
            }
        },
        "output": {
            "bias": 0.3573381304740906,
            "weights": [
                0.6442427039146423,
                -0.35387736558914185,
                0.29282206296920776,
                -0.19536423683166504
            ]
        },
        "score": 0
    },
    "chromosome_37": {
        "layer_0": {
            "neuron_0": {
                "bias": -0.33110445737838745,
                "weights": [
                    -0.6712027192115784,
                    0.6603930592536926,
                    -0.14285409450531006
                ]
            },
            "neuron_1": {
                "bias": -0.2773125171661377,
                "weights": [
                    0.35246747732162476,
                    0.5634480118751526,
                    -0.42608416080474854
                ]
            },
            "neuron_2": {
                "bias": -0.5486220717430115,
                "weights": [
                    -0.2372356355190277,
                    0.0775688886642456,
                    -0.6864558458328247
                ]
            },
            "neuron_3": {
                "bias": 0.5301217436790466,
                "weights": [
                    -0.46030759811401367,
                    0.21638542413711548,
                    0.47453540563583374
                ]
            }
        },
        "layer_1": {
            "neuron_0": {
                "bias": 0.2891903519630432,
                "weights": [
                    0.2777825593948364,
                    -0.5678487420082092,
                    -0.11743217706680298,
                    0.41719716787338257
                ]
            },
            "neuron_1": {
                "bias": 0.2503097653388977,
                "weights": [
                    0.3352915644645691,
                    0.2705191373825073,
                    -0.023093342781066895,
                    0.6709890961647034
                ]
            },
            "neuron_2": {
                "bias": 0.08504593372344971,
                "weights": [
                    0.23078405857086182,
                    0.03676563501358032,
                    0.6293314099311829,
                    -0.22168338298797607
                ]
            },
            "neuron_3": {
                "bias": 0.11080968379974365,
                "weights": [
                    0.3968169093132019,
                    0.2550523281097412,
                    -0.16639608144760132,
                    0.614249050617218
                ]
            }
        },
        "output": {
            "bias": 0.3573381304740906,
            "weights": [
                0.6442427039146423,
                0.323969304561615,
                0.29282206296920776,
                -0.04223453998565674
            ]
        },
        "score": 0
    },
    "chromosome_38": {
        "layer_0": {
            "neuron_0": {
                "bias": -0.33110445737838745,
                "weights": [
                    -0.6712027192115784,
                    0.6603930592536926,
                    -0.14285409450531006
                ]
            },
            "neuron_1": {
                "bias": -0.2773125171661377,
                "weights": [
                    0.35246747732162476,
                    0.5634480118751526,
                    -0.42608416080474854
                ]
            },
            "neuron_2": {
                "bias": -0.5486220717430115,
                "weights": [
                    -0.2372356355190277,
                    0.0775688886642456,
                    -0.6864558458328247
                ]
            },
            "neuron_3": {
                "bias": 0.5301217436790466,
                "weights": [
                    -0.46030759811401367,
                    0.21638542413711548,
                    0.47453540563583374
                ]
            }
        },
        "layer_1": {
            "neuron_0": {
                "bias": 0.2891903519630432,
                "weights": [
                    0.2777825593948364,
                    -0.5678487420082092,
                    -0.11743217706680298,
                    0.41719716787338257
                ]
            },
            "neuron_1": {
                "bias": 0.2503097653388977,
                "weights": [
                    0.3352915644645691,
                    0.2705191373825073,
                    -0.023093342781066895,
                    0.6709890961647034
                ]
            },
            "neuron_2": {
                "bias": 0.08504593372344971,
                "weights": [
                    0.23078405857086182,
                    0.03676563501358032,
                    0.6293314099311829,
                    -0.22168338298797607
                ]
            },
            "neuron_3": {
                "bias": 0.11080968379974365,
                "weights": [
                    0.3968169093132019,
                    0.2550523281097412,
                    -0.16639608144760132,
                    0.614249050617218
                ]
            }
        },
        "output": {
            "bias": 0.3573381304740906,
            "weights": [
                0.6442427039146423,
                0.323969304561615,
                0.29282206296920776,
                0.4533731937408447
            ]
        },
        "score": 0
    },
    "chromosome_39": {
        "layer_0": {
            "neuron_0": {
                "bias": -0.33110445737838745,
                "weights": [
                    -0.6712027192115784,
                    0.6603930592536926,
                    -0.14285409450531006
                ]
            },
            "neuron_1": {
                "bias": -0.2773125171661377,
                "weights": [
                    0.35246747732162476,
                    0.5634480118751526,
                    -0.42608416080474854
                ]
            },
            "neuron_2": {
                "bias": -0.5486220717430115,
                "weights": [
                    -0.2372356355190277,
                    0.0775688886642456,
                    -0.6864558458328247
                ]
            },
            "neuron_3": {
                "bias": 0.5301217436790466,
                "weights": [
                    -0.46030759811401367,
                    0.21638542413711548,
                    0.47453540563583374
                ]
            }
        },
        "layer_1": {
            "neuron_0": {
                "bias": 0.2891903519630432,
                "weights": [
                    0.2777825593948364,
                    -0.5678487420082092,
                    -0.11743217706680298,
                    0.41719716787338257
                ]
            },
            "neuron_1": {
                "bias": 0.2503097653388977,
                "weights": [
                    0.3352915644645691,
                    0.2705191373825073,
                    -0.023093342781066895,
                    0.6709890961647034
                ]
            },
            "neuron_2": {
                "bias": 0.08504593372344971,
                "weights": [
                    0.23078405857086182,
                    0.03676563501358032,
                    0.6293314099311829,
                    -0.22168338298797607
                ]
            },
            "neuron_3": {
                "bias": 0.11080968379974365,
                "weights": [
                    0.3968169093132019,
                    0.2550523281097412,
                    -0.16639608144760132,
                    0.614249050617218
                ]
            }
        },
        "output": {
            "bias": 0.3573381304740906,
            "weights": [
                0.6442427039146423,
                0.323969304561615,
                0.29282206296920776,
                -0.04223453998565674
            ]
        },
        "score": 0
    },
    "chromosome_4": {
        "layer_0": {
            "neuron_0": {
                "bias": 0.21382182836532593,
                "weights": [
                    0.12896817922592163,
                    0.3609698414802551,
                    -0.027365922927856445
                ]
            },
            "neuron_1": {
                "bias": 0.29410386085510254,
                "weights": [
                    -0.604293942451477,
                    0.5588763356208801,
                    -0.1999359130859375
                ]
            },
            "neuron_2": {
                "bias": 0.1534501314163208,
                "weights": [
                    0.5261055827140808,
                    -0.5417859554290771,
                    -0.2953428626060486
                ]
            },
            "neuron_3": {
                "bias": -0.1662251353263855,
                "weights": [
                    0.665050208568573,
                    -0.36186710000038147,
                    -0.5129459500312805
                ]
            }
        },
        "layer_1": {
            "neuron_0": {
                "bias": 0.09277933835983276,
                "weights": [
                    0.6882503628730774,
                    0.1482803225517273,
                    0.2603076100349426,
                    -0.16524243354797363
                ]
            },
            "neuron_1": {
                "bias": -0.3929288387298584,
                "weights": [
                    0.15554368495941162,
                    -0.5873317718505859,
                    0.6821405291557312,
                    -0.38835716247558594
                ]
            },
            "neuron_2": {
                "bias": -0.27060455083847046,
                "weights": [
                    0.49183934926986694,
                    -0.5532364845275879,
                    -0.4775688648223877,
                    0.45441144704818726
                ]
            },
            "neuron_3": {
                "bias": 0.3620380759239197,
                "weights": [
                    -0.29085662961006165,
                    0.5173894762992859,
                    0.08111518621444702,
                    -0.17558211088180542
                ]
            }
        },
        "output": {
            "bias": -0.19015169143676758,
            "weights": [
                -0.6952146887779236,
                0.07936340570449829,
                -0.4360353350639343,
                -0.6540696620941162
            ]
        },
        "score": 0
    },
    "chromosome_40": {
        "layer_0": {
            "neuron_0": {
                "bias": -0.3900662064552307,
                "weights": [
                    0.41172832250595093,
                    -0.3490920662879944,
                    0.5649861693382263
                ]
            },
            "neuron_1": {
                "bias": -0.16784876585006714,
                "weights": [
                    0.474065363407135,
                    0.3297799229621887,
                    0.0777825117111206
                ]
            },
            "neuron_2": {
                "bias": -0.35554367303848267,
                "weights": [
                    0.007455706596374512,
                    0.015915393829345703,
                    0.13413798809051514
                ]
            },
            "neuron_3": {
                "bias": 0.2500106692314148,
                "weights": [
                    0.5476394295692444,
                    -0.5914334654808044,
                    -0.33956417441368103
                ]
            }
        },
        "layer_1": {
            "neuron_0": {
                "bias": 0.5791711211204529,
                "weights": [
                    -0.22710958123207092,
                    -0.07474899291992188,
                    0.42574232816696167,
                    -0.2870112955570221
                ]
            },
            "neuron_1": {
                "bias": -0.5574663281440735,
                "weights": [
                    0.30581074953079224,
                    -0.534522533416748,
                    0.5455885529518127,
                    0.6446699500083923
                ]
            },
            "neuron_2": {
                "bias": 0.239457368850708,
                "weights": [
                    0.5176457762718201,
                    0.5299509167671204,
                    0.5045717358589172,
                    -0.46928006410598755
                ]
            },
            "neuron_3": {
                "bias": -0.1343943476676941,
                "weights": [
                    0.41993170976638794,
                    0.25227516889572144,
                    0.13204443454742432,
                    -0.525977373123169
                ]
            }
        },
        "output": {
            "bias": 0.03304851055145264,
            "weights": [
                0.4882504343986511,
                -0.35387736558914185,
                -0.4647938311100006,
                -0.19536423683166504
            ]
        },
        "score": 1
    },
    "chromosome_41": {
        "layer_0": {
            "neuron_0": {
                "bias": -0.33110445737838745,
                "weights": [
                    0.41172832250595093,
                    0.6603930592536926,
                    0.5649861693382263
                ]
            },
            "neuron_1": {
                "bias": -0.2773125171661377,
                "weights": [
                    0.474065363407135,
                    0.5634480118751526,
                    0.0777825117111206
                ]
            },
            "neuron_2": {
                "bias": -0.5486220717430115,
                "weights": [
                    0.007455706596374512,
                    0.0775688886642456,
                    0.13413798809051514
                ]
            },
            "neuron_3": {
                "bias": 0.5301217436790466,
                "weights": [
                    0.5476394295692444,
                    0.21638542413711548,
                    -0.33956417441368103
                ]
            }
        },
        "layer_1": {
            "neuron_0": {
                "bias": 0.5791711211204529,
                "weights": [
                    -0.22710958123207092,
                    -0.5678487420082092,
                    0.42574232816696167,
                    0.41719716787338257
                ]
            },
            "neuron_1": {
                "bias": 0.2503097653388977,
                "weights": [
                    0.3352915644645691,
                    -0.534522533416748,
                    -0.023093342781066895,
                    0.6446699500083923
                ]
            },
            "neuron_2": {
                "bias": 0.239457368850708,
                "weights": [
                    0.5176457762718201,
                    0.03676563501358032,
                    0.5045717358589172,
                    -0.22168338298797607
                ]
            },
            "neuron_3": {
                "bias": 0.11080968379974365,
                "weights": [
                    0.3968169093132019,
                    0.25227516889572144,
                    -0.16639608144760132,
                    -0.525977373123169
                ]
            }
        },
        "output": {
            "bias": 0.03304851055145264,
            "weights": [
                0.4882504343986511,
                0.323969304561615,
                -0.4647938311100006,
                -0.04223453998565674
            ]
        },
        "score": 0
    },
    "chromosome_42": {
        "layer_0": {
            "neuron_0": {
                "bias": -0.3900662064552307,
                "weights": [
                    0.41172832250595093,
                    -0.3490920662879944,
                    0.5649861693382263
                ]
            },
            "neuron_1": {
                "bias": -0.16784876585006714,
                "weights": [
                    0.474065363407135,
                    0.3297799229621887,
                    0.0777825117111206
                ]
            },
            "neuron_2": {
                "bias": -0.35554367303848267,
                "weights": [
                    0.007455706596374512,
                    0.015915393829345703,
                    0.13413798809051514
                ]
            },
            "neuron_3": {
                "bias": 0.2500106692314148,
                "weights": [
                    0.5476394295692444,
                    -0.5914334654808044,
                    -0.33956417441368103
                ]
            }
        },
        "layer_1": {
            "neuron_0": {
                "bias": 0.5791711211204529,
                "weights": [
                    -0.22710958123207092,
                    -0.07474899291992188,
                    0.42574232816696167,
                    -0.2870112955570221
                ]
            },
            "neuron_1": {
                "bias": -0.5574663281440735,
                "weights": [
                    0.30581074953079224,
                    -0.534522533416748,
                    0.5455885529518127,
                    0.6446699500083923
                ]
            },
            "neuron_2": {
                "bias": 0.239457368850708,
                "weights": [
                    0.5176457762718201,
                    0.5299509167671204,
                    0.5045717358589172,
                    -0.46928006410598755
                ]
            },
            "neuron_3": {
                "bias": -0.1343943476676941,
                "weights": [
                    0.41993170976638794,
                    0.25227516889572144,
                    0.13204443454742432,
                    -0.525977373123169
                ]
            }
        },
        "output": {
            "bias": 0.03304851055145264,
            "weights": [
                0.4882504343986511,
                -0.35387736558914185,
                -0.4647938311100006,
                -0.19536423683166504
            ]
        },
        "score": 1
    },
    "chromosome_43": {
        "layer_0": {
            "neuron_0": {
                "bias": -0.33110445737838745,
                "weights": [
                    0.41172832250595093,
                    0.6603930592536926,
                    0.5649861693382263
                ]
            },
            "neuron_1": {
                "bias": -0.2773125171661377,
                "weights": [
                    0.474065363407135,
                    0.5634480118751526,
                    0.0777825117111206
                ]
            },
            "neuron_2": {
                "bias": -0.5486220717430115,
                "weights": [
                    0.007455706596374512,
                    0.0775688886642456,
                    0.13413798809051514
                ]
            },
            "neuron_3": {
                "bias": 0.5301217436790466,
                "weights": [
                    0.5476394295692444,
                    0.21638542413711548,
                    -0.33956417441368103
                ]
            }
        },
        "layer_1": {
            "neuron_0": {
                "bias": 0.5791711211204529,
                "weights": [
                    -0.22710958123207092,
                    -0.5678487420082092,
                    0.42574232816696167,
                    0.41719716787338257
                ]
            },
            "neuron_1": {
                "bias": 0.2503097653388977,
                "weights": [
                    0.3352915644645691,
                    -0.534522533416748,
                    -0.023093342781066895,
                    0.6446699500083923
                ]
            },
            "neuron_2": {
                "bias": 0.239457368850708,
                "weights": [
                    0.5176457762718201,
                    0.03676563501358032,
                    0.5045717358589172,
                    -0.22168338298797607
                ]
            },
            "neuron_3": {
                "bias": 0.11080968379974365,
                "weights": [
                    0.3968169093132019,
                    0.25227516889572144,
                    -0.16639608144760132,
                    -0.525977373123169
                ]
            }
        },
        "output": {
            "bias": 0.03304851055145264,
