{
    "chromosome_0": {
        "layer_0": {
            "neuron_0": {
                "bias": -0.3553727865219116,
                "weights": [
                    0.2832087278366089,
                    0.4657765030860901,
                    0.25035250186920166
                ]
            },
            "neuron_1": {
                "bias": 0.24667805433273315,
                "weights": [
                    -0.31738942861557007,
                    -0.18869900703430176,
                    0.6819697022438049
                ]
            },
            "neuron_2": {
                "bias": -0.6759880185127258,
                "weights": [
                    0.282653272151947,
                    0.1035889983177185,
                    0.5964750647544861
                ]
            },
            "neuron_3": {
                "bias": -0.569130539894104,
                "weights": [
                    0.20326852798461914,
                    0.03791928291320801,
                    0.24193549156188965
                ]
            }
        },
        "layer_1": {
            "neuron_0": {
                "bias": 0.19395428895950317,
                "weights": [
                    -0.612967312335968,
                    0.07171547412872314,
                    -0.509100615978241,
                    -0.6850032210350037
                ]
            },
            "neuron_1": {
                "bias": -0.6553941369056702,
                "weights": [
                    -0.5851527452468872,
                    -0.6554368734359741,
                    -0.6192907094955444,
                    0.2880367636680603
                ]
            },
            "neuron_2": {
                "bias": -0.1850672960281372,
                "weights": [
                    -0.13704335689544678,
                    -0.3270455002784729,
                    -0.4403546154499054,
                    -0.5862208604812622
                ]
            },
            "neuron_3": {
                "bias": 0.3262764811515808,
                "weights": [
                    -0.29812005162239075,
                    0.1272163987159729,
                    0.4213842749595642,
                    -0.1575945019721985
                ]
            }
        },
        "output": {
            "bias": -0.22309333086013794,
            "weights": [
                0.1614398956298828,
                -0.6864985823631287,
                0.43129676580429077,
                0.21476179361343384
            ]
        },
        "score": 0
    },
    "chromosome_1": {
        "layer_0": {
            "neuron_0": {
                "bias": 0.134052574634552,
                "weights": [
                    -0.3154240548610687,
                    0.6840632557868958,
                    -0.296368271112442
                ]
            },
            "neuron_1": {
                "bias": -0.004721224308013916,
                "weights": [
                    0.6462081074714661,
                    0.3871181607246399,
                    0.36955779790878296
                ]
            },
            "neuron_2": {
                "bias": 0.2793206572532654,
                "weights": [
                    0.3337535262107849,
                    0.16673791408538818,
                    0.5365733504295349
                ]
            },
            "neuron_3": {
                "bias": -0.142896831035614,
                "weights": [
                    0.6183508038520813,
                    -0.5723776817321777,
                    0.23578298091888428
                ]
            }
        },
        "layer_1": {
            "neuron_0": {
                "bias": -0.2931211292743683,
                "weights": [
                    0.2938475012779236,
                    -0.5324716567993164,
                    0.43650931119918823,
                    0.13371074199676514
                ]
            },
            "neuron_1": {
                "bias": -0.2887630760669708,
                "weights": [
                    0.26176029443740845,
                    0.2675282955169678,
                    0.2590258717536926,
                    -0.10081177949905396
                ]
            },
            "neuron_2": {
                "bias": -0.15712451934814453,
                "weights": [
                    -0.5525956153869629,
                    0.5117496848106384,
                    -0.36947232484817505,
                    0.6485579609870911
                ]
            },
            "neuron_3": {
                "bias": -0.07658618688583374,
                "weights": [
                    -0.09987181425094604,
                    -0.048301637172698975,
                    -0.6057893633842468,
                    -0.6270668506622314
                ]
            }
        },
        "output": {
            "bias": -0.045310795307159424,
            "weights": [
                0.09542834758758545,
                0.3590472340583801,
                0.17908567190170288,
                0.5373851656913757
            ]
        },
        "score": 0
    },
    "chromosome_10": {
        "layer_0": {
            "neuron_0": {
                "bias": -0.4926511347293854,
                "weights": [
                    0.681243360042572,
                    0.4866268038749695,
                    -0.5243110656738281
                ]
            },
            "neuron_1": {
                "bias": 0.6240333914756775,
                "weights": [
                    0.27175819873809814,
                    -0.4685964584350586,
                    -0.5987823009490967
                ]
            },
            "neuron_2": {
                "bias": 0.6462081074714661,
                "weights": [
                    -0.17703479528427124,
                    0.6316812634468079,
                    -0.5333689451217651
                ]
            },
            "neuron_3": {
                "bias": 0.40476399660110474,
                "weights": [
                    0.350929319858551,
                    0.5156376957893372,
                    -0.3422986567020416
                ]
            }
        },
        "layer_1": {
            "neuron_0": {
                "bias": 0.6147617697715759,
                "weights": [
                    0.4984191060066223,
                    0.5486648678779602,
                    0.49739378690719604,
                    0.5737449526786804
                ]
            },
            "neuron_1": {
                "bias": -0.5446485877037048,
                "weights": [
                    0.2686392068862915,
                    -0.48551589250564575,
                    -0.16092711687088013,
                    -0.6757316589355469
                ]
            },
            "neuron_2": {
                "bias": 0.6685964465141296,
                "weights": [
                    -0.08936125040054321,
                    -0.1265755295753479,
                    0.47761160135269165,
                    -0.14729756116867065
                ]
            },
            "neuron_3": {
                "bias": 0.21177101135253906,
                "weights": [
                    0.1852809190750122,
                    0.07820981740951538,
                    -0.23783379793167114,
                    -0.3534928262233734
                ]
            }
        },
        "output": {
            "bias": 0.44766074419021606,
            "weights": [
                0.4800042510032654,
                0.6268959641456604,
                -0.09859001636505127,
                0.12332838773727417
            ]
        },
        "score": 0
    },
    "chromosome_11": {
        "layer_0": {
            "neuron_0": {
                "bias": -0.02488785982131958,
                "weights": [
                    0.6242896914482117,
                    0.38545185327529907,
                    -0.4907284677028656
                ]
            },
            "neuron_1": {
                "bias": 0.6545823216438293,
                "weights": [
                    -0.013138234615325928,
                    0.4593248963356018,
                    -0.5866908431053162
                ]
            },
            "neuron_2": {
                "bias": -0.10922878980636597,
                "weights": [
                    0.0691518783569336,
                    -0.6339884400367737,
                    -0.11328774690628052
                ]
            },
            "neuron_3": {
                "bias": 0.3541337847709656,
                "weights": [
                    -0.12003844976425171,
                    0.5090151429176331,
                    -0.07069003582000732
                ]
            }
        },
        "layer_1": {
            "neuron_0": {
                "bias": 0.09487289190292358,
                "weights": [
                    0.098846435546875,
                    0.2782525420188904,
                    0.385964572429657,
                    -0.6341593265533447
                ]
            },
            "neuron_1": {
                "bias": 0.23116856813430786,
                "weights": [
                    0.6681692004203796,
                    -0.13230079412460327,
                    0.6094637513160706,
                    -0.6326639652252197
                ]
            },
            "neuron_2": {
                "bias": -0.6689382791519165,
                "weights": [
                    -0.33362528681755066,
                    0.2621876001358032,
                    0.12649005651474,
                    -0.18942534923553467
                ]
            },
            "neuron_3": {
                "bias": -0.04864346981048584,
                "weights": [
                    -0.25966671109199524,
                    0.03296303749084473,
                    -0.0038239359855651855,
                    0.27577441930770874
                ]
            }
        },
        "output": {
            "bias": -0.614505410194397,
            "weights": [
                -0.18429821729660034,
                0.14704126119613647,
                0.48645585775375366,
                -0.15212559700012207
            ]
        },
        "score": 0
    },
    "chromosome_12": {
        "layer_0": {
            "neuron_0": {
                "bias": 0.16447341442108154,
                "weights": [
                    -0.2753044068813324,
                    0.4964537024497986,
                    0.37613755464553833
                ]
            },
            "neuron_1": {
                "bias": -0.15110015869140625,
                "weights": [
                    0.5805383324623108,
                    -0.5008544921875,
                    0.21339458227157593
                ]
            },
            "neuron_2": {
                "bias": 0.12537920475006104,
                "weights": [
                    -0.25868403911590576,
                    0.3663533329963684,
                    -0.21245458722114563
                ]
            },
            "neuron_3": {
                "bias": -0.4418072998523712,
                "weights": [
                    -0.6633839011192322,
                    -0.3586626648902893,
                    -0.027066826820373535
                ]
            }
        },
        "layer_1": {
            "neuron_0": {
                "bias": 0.2693655490875244,
                "weights": [
                    -0.5883144736289978,
                    -0.5247809886932373,
                    -0.6437299847602844,
                    0.5667378306388855
                ]
            },
            "neuron_1": {
                "bias": 0.5355907082557678,
                "weights": [
                    -0.6244605779647827,
                    0.2661183476448059,
                    -0.08778035640716553,
                    -0.3143986165523529
                ]
            },
            "neuron_2": {
                "bias": 0.2607349157333374,
                "weights": [
                    -0.5404186844825745,
                    0.012070059776306152,
                    0.4412519335746765,
                    0.21335184574127197
                ]
            },
            "neuron_3": {
                "bias": 0.3555009961128235,
                "weights": [
                    -0.6993163824081421,
                    -0.4852595329284668,
                    0.5288826823234558,
                    -0.35695362091064453
                ]
            }
        },
        "output": {
            "bias": 0.14593034982681274,
            "weights": [
                -0.4210852384567261,
                -0.6512497067451477,
                -0.3483229875564575,
                -0.3931424915790558
            ]
        },
        "score": 1
    },
    "chromosome_13": {
        "layer_0": {
            "neuron_0": {
                "bias": 0.6037812829017639,
                "weights": [
                    0.2265114188194275,
                    -0.5429395437240601,
                    0.15105748176574707
                ]
            },
            "neuron_1": {
                "bias": 0.4888058304786682,
                "weights": [
                    0.6672719120979309,
                    0.6354411244392395,
                    0.28440505266189575
                ]
            },
            "neuron_2": {
                "bias": -0.16289252042770386,
                "weights": [
                    -0.11384320259094238,
                    0.16878873109817505,
                    0.6778252720832825
                ]
            },
            "neuron_3": {
                "bias": 0.3590899109840393,
                "weights": [
                    -0.6712027192115784,
                    -0.44103822112083435,
                    -0.3898525834083557
                ]
            }
        },
        "layer_1": {
            "neuron_0": {
                "bias": 0.12696003913879395,
                "weights": [
                    -0.6775261759757996,
                    0.34870749711990356,
                    -0.42035889625549316,
                    0.4808587431907654
                ]
            },
            "neuron_1": {
                "bias": -0.6675282716751099,
                "weights": [
                    0.4442426562309265,
                    0.3113223910331726,
                    0.3962615132331848,
                    -0.4463789761066437
                ]
            },
            "neuron_2": {
                "bias": -0.03219395875930786,
                "weights": [
                    0.08013248443603516,
                    0.3729758858680725,
                    -0.37788933515548706,
                    -0.012710928916931152
                ]
            },
            "neuron_3": {
                "bias": 0.2178381085395813,
                "weights": [
                    0.056804120540618896,
                    0.42206794023513794,
                    0.15763729810714722,
                    -0.6276650428771973
                ]
            }
        },
        "output": {
            "bias": -0.209335595369339,
            "weights": [
                0.6502670645713806,
                0.032450318336486816,
                -0.21053192019462585,
                0.6819697022438049
            ]
        },
        "score": 1
    },
    "chromosome_14": {
        "layer_0": {
            "neuron_0": {
                "bias": 0.4066011309623718,
                "weights": [
                    -0.6249305605888367,
                    -0.4162999093532562,
                    0.09183937311172485
                ]
            },
            "neuron_1": {
                "bias": -0.08602863550186157,
                "weights": [
                    -0.0784233808517456,
                    -0.43125399947166443,
                    -0.3592180907726288
                ]
            },
            "neuron_2": {
                "bias": -0.29598376154899597,
                "weights": [
                    0.13618886470794678,
                    -0.6842341423034668,
                    -0.37630847096443176
                ]
            },
            "neuron_3": {
                "bias": -0.015787184238433838,
                "weights": [
                    -0.48171329498291016,
                    -0.19228798151016235,
                    -0.6518906354904175
                ]
            }
        },
        "layer_1": {
            "neuron_0": {
                "bias": 0.30726343393325806,
                "weights": [
                    -0.4458235204219818,
                    -0.6407391428947449,
                    0.4500961899757385,
                    -0.19327068328857422
                ]
            },
            "neuron_1": {
                "bias": 0.18365734815597534,
                "weights": [
                    -0.17947018146514893,
                    0.3575945496559143,
                    0.052317917346954346,
                    -0.6589403748512268
                ]
            },
            "neuron_2": {
                "bias": -0.4706045389175415,
                "weights": [
                    -0.2539841830730438,
                    -0.5610126256942749,
                    0.36823326349258423,
                    0.21074557304382324
                ]
            },
            "neuron_3": {
                "bias": 0.36844688653945923,
                "weights": [
                    -0.4759025573730469,
                    0.5192694067955017,
                    -0.39784231781959534,
                    0.030356764793395996
                ]
            }
        },
        "output": {
            "bias": 0.40826743841171265,
            "weights": [
                0.025357842445373535,
                -0.07624435424804688,
                0.2736808657646179,
                0.031296730041503906
            ]
        },
        "score": 0
    },
    "chromosome_15": {
        "layer_0": {
            "neuron_0": {
                "bias": -0.028476834297180176,
                "weights": [
                    0.41172832250595093,
                    0.24625080823898315,
                    0.5649861693382263
                ]
            },
            "neuron_1": {
                "bias": 0.2865413427352905,
                "weights": [
                    0.474065363407135,
                    -0.13208717107772827,
                    0.0777825117111206
                ]
            },
            "neuron_2": {
                "bias": 0.2674001455307007,
                "weights": [
                    0.007455706596374512,
                    0.3164922595024109,
                    0.13413798809051514
                ]
            },
            "neuron_3": {
                "bias": -0.07192903757095337,
                "weights": [
                    0.5476394295692444,
                    0.050480663776397705,
                    -0.33956417441368103
                ]
            }
        },
        "layer_1": {
            "neuron_0": {
                "bias": 0.5791711211204529,
                "weights": [
                    -0.22710958123207092,
                    -0.4257850646972656,
                    0.42574232816696167,
                    0.2157444953918457
                ]
            },
            "neuron_1": {
                "bias": 0.2683401107788086,
                "weights": [
                    0.2881649136543274,
                    -0.534522533416748,
                    0.014120936393737793,
                    0.6446699500083923
                ]
            },
            "neuron_2": {
                "bias": 0.239457368850708,
                "weights": [
                    0.5176457762718201,
                    0.5105533003807068,
                    0.5045717358589172,
                    0.3193548321723938
                ]
            },
            "neuron_3": {
                "bias": 0.6613330245018005,
                "weights": [
                    -0.17998290061950684,
                    0.25227516889572144,
                    -0.6562913656234741,
                    -0.525977373123169
                ]
            }
        },
        "output": {
            "bias": 0.03304851055145264,
            "weights": [
                0.4882504343986511,
                -0.6280068159103394,
                -0.4647938311100006,
                -0.023178815841674805
            ]
        },
        "score": 0
    },
    "chromosome_16": {
        "layer_0": {
            "neuron_0": {
                "bias": 0.4254005551338196,
                "weights": [
                    0.6970946192741394,
                    0.1793847680091858,
                    0.09230935573577881
                ]
            },
            "neuron_1": {
                "bias": -0.07803887128829956,
                "weights": [
                    0.456590473651886,
                    -0.1667378544807434,
                    0.5080751776695251
                ]
            },
            "neuron_2": {
                "bias": -0.3805810511112213,
                "weights": [
                    0.30709248781204224,
                    -0.6533859968185425,
                    0.11679130792617798
                ]
            },
            "neuron_3": {
                "bias": 0.21642810106277466,
                "weights": [
                    0.13388168811798096,
                    0.03766292333602905,
                    -0.25868403911590576
                ]
            }
        },
        "layer_1": {
            "neuron_0": {
                "bias": 0.15832090377807617,
                "weights": [
                    0.24005556106567383,
                    0.10115361213684082,
                    -0.21399271488189697,
                    -0.5657124519348145
                ]
            },
            "neuron_1": {
                "bias": -0.4608203172683716,
                "weights": [
                    -0.2528733015060425,
                    -0.30474257469177246,
                    -0.5838282108306885,
                    -0.26975002884864807
                ]
            },
            "neuron_2": {
                "bias": -0.2589831054210663,
                "weights": [
                    -0.38630634546279907,
                    0.5218330025672913,
                    0.3955351710319519,
                    -0.4987609386444092
                ]
            },
            "neuron_3": {
                "bias": 0.22390514612197876,
                "weights": [
                    0.6381756663322449,
                    -0.2643665671348572,
                    0.2613757848739624,
                    0.5752831101417542
                ]
            }
        },
        "output": {
            "bias": -0.032023072242736816,
            "weights": [
                -0.38434094190597534,
                -0.19856864213943481,
                -0.46086305379867554,
                0.006302058696746826
            ]
        },
        "score": 0
    },
    "chromosome_17": {
        "layer_0": {
            "neuron_0": {
                "bias": -0.03885918855667114,
                "weights": [
                    -0.31854304671287537,
                    -0.21822258830070496,
                    -0.049839794635772705
                ]
            },
            "neuron_1": {
                "bias": -0.4014740288257599,
                "weights": [
                    0.30713528394699097,
                    0.05116426944732666,
                    0.41638535261154175
                ]
            },
            "neuron_2": {
                "bias": -0.31033965945243835,
                "weights": [
                    0.5098269581794739,
                    -0.37054046988487244,
                    0.1300363540649414
                ]
            },
            "neuron_3": {
                "bias": 0.2385174036026001,
                "weights": [
                    0.6069002747535706,
                    -0.1735740303993225,
                    0.27585989236831665
                ]
            }
        },
        "layer_1": {
            "neuron_0": {
                "bias": -0.23574021458625793,
                "weights": [
                    0.4121127724647522,
                    -0.37630847096443176,
                    -0.45979490876197815,
                    -0.6077120304107666
                ]
            },
            "neuron_1": {
                "bias": 0.27838069200515747,
                "weights": [
                    0.5638325810432434,
                    0.6186925768852234,
                    -0.005447566509246826,
                    0.042789995670318604
                ]
            },
            "neuron_2": {
                "bias": -0.20472121238708496,
                "weights": [
                    0.40698570013046265,
                    0.6863277554512024,
                    0.23928648233413696,
                    -0.45176243782043457
                ]
            },
            "neuron_3": {
                "bias": 0.18310189247131348,
                "weights": [
                    -0.40100404620170593,
                    0.053813278675079346,
                    -0.509912371635437,
                    -0.31644946336746216
                ]
            }
        },
        "output": {
            "bias": -0.3219183683395386,
            "weights": [
                -0.6157872080802917,
                -0.23727834224700928,
                -0.4627002477645874,
                -0.38434094190597534
            ]
        },
        "score": 0
    },
    "chromosome_18": {
        "layer_0": {
            "neuron_0": {
                "bias": -0.6851313710212708,
                "weights": [
                    -0.41266822814941406,
                    0.10239267349243164,
                    -0.2686391770839691
                ]
            },
            "neuron_1": {
                "bias": -0.3117496073246002,
                "weights": [
                    -0.12512284517288208,
                    -0.0026276111602783203,
                    -0.07991880178451538
                ]
            },
            "neuron_2": {
                "bias": 0.15648365020751953,
                "weights": [
                    -0.14520400762557983,
                    0.402584969997406,
                    -0.665050208568573
                ]
            },
            "neuron_3": {
                "bias": -0.06996369361877441,
                "weights": [
                    0.49867552518844604,
                    0.5641315579414368,
                    0.055052340030670166
                ]
            }
        },
        "layer_1": {
            "neuron_0": {
                "bias": 0.1310189962387085,
                "weights": [
                    -0.26765647530555725,
                    -0.26778465509414673,
                    -0.6542832851409912,
                    0.4649648070335388
                ]
            },
            "neuron_1": {
                "bias": -0.5743858218193054,
                "weights": [
                    -0.5481093525886536,
                    0.46111947298049927,
                    -0.1689596176147461,
                    0.08961760997772217
                ]
            },
            "neuron_2": {
                "bias": 0.3820337653160095,
                "weights": [
                    -0.6682546138763428,
                    0.6230506300926208,
                    0.3639180064201355,
                    0.465648353099823
                ]
            },
            "neuron_3": {
                "bias": -0.5888698697090149,
                "weights": [
                    0.48431962728500366,
                    -0.2251441776752472,
                    -0.6441999673843384,
                    0.62010258436203
                ]
            }
        },
        "output": {
            "bias": 0.03945738077163696,
            "weights": [
                -0.6294167637825012,
                0.3407605290412903,
                -0.5548600554466248,
                -0.09316384792327881
            ]
        },
        "score": 0
    },
    "chromosome_19": {
        "layer_0": {
            "neuron_0": {
                "bias": 0.26778465509414673,
                "weights": [
                    0.06180304288864136,
                    -0.0851740837097168,
                    0.5537919402122498
                ]
            },
            "neuron_1": {
                "bias": 0.03689384460449219,
                "weights": [
                    0.05791497230529785,
                    0.11709040403366089,
                    -0.32678914070129395
                ]
            },
            "neuron_2": {
                "bias": -0.6481307148933411,
                "weights": [
                    -0.5491347908973694,
                    0.5900662541389465,
                    -0.15968811511993408
                ]
            },
            "neuron_3": {
                "bias": 0.19715875387191772,
                "weights": [
                    -0.46705830097198486,
                    -0.1660969853401184,
                    0.524225652217865
                ]
            }
        },
        "layer_1": {
            "neuron_0": {
                "bias": -0.518372118473053,
                "weights": [
                    -0.5239264965057373,
                    -0.3421277403831482,
                    0.42129892110824585,
                    0.4112582802772522
                ]
            },
            "neuron_1": {
                "bias": -0.5887844562530518,
                "weights": [
                    -0.5931425094604492,
                    -0.4495406746864319,
                    -0.5240973830223083,
                    0.388528048992157
                ]
            },
            "neuron_2": {
                "bias": 0.15084385871887207,
                "weights": [
                    0.2794915437698364,
                    0.5124332308769226,
                    0.6596240401268005,
                    -0.2972227931022644
                ]
            },
            "neuron_3": {
                "bias": 0.4621449112892151,
                "weights": [
                    0.47876518964767456,
                    -0.6355693340301514,
                    0.3420422673225403,
                    -0.5241401195526123
                ]
            }
        },
        "output": {
            "bias": 0.5080751776695251,
            "weights": [
                0.47714167833328247,
                0.5993377566337585,
                -0.23373210430145264,
                0.06017947196960449
            ]
        },
        "score": 0
    },
    "chromosome_2": {
        "layer_0": {
            "neuron_0": {
                "bias": -0.08333688974380493,
                "weights": [
                    -0.3160649240016937,
                    0.4788079857826233,
                    0.26778465509414673
                ]
            },
            "neuron_1": {
                "bias": -0.6785942912101746,
                "weights": [
                    0.6131382584571838,
                    0.42223888635635376,
                    0.5161077380180359
                ]
            },
            "neuron_2": {
                "bias": -0.2859431505203247,
                "weights": [
                    -0.6070711016654968,
                    -0.22988677024841309,
                    -0.5996795296669006
                ]
            },
            "neuron_3": {
                "bias": 0.15870541334152222,
                "weights": [
                    0.1909635066986084,
                    -0.4879085421562195,
                    0.37545400857925415
                ]
            }
        },
        "layer_1": {
            "neuron_0": {
                "bias": -0.5801110863685608,
                "weights": [
                    0.628305971622467,
                    0.6439009308815002,
                    -0.023520588874816895,
                    0.5835291743278503
                ]
            },
            "neuron_1": {
                "bias": 0.31610769033432007,
                "weights": [
                    -0.37788933515548706,
                    -0.47115999460220337,
                    0.4253578782081604,
                    -0.08440500497817993
                ]
            },
            "neuron_2": {
                "bias": -0.5804955959320068,
                "weights": [
                    -0.4309549033641815,
                    0.1428113579750061,
                    -0.5637897849082947,
                    -0.025913238525390625
                ]
            },
            "neuron_3": {
                "bias": -0.046977102756500244,
                "weights": [
                    -0.13392436504364014,
                    -0.2016449272632599,
                    -0.17571032047271729,
                    -0.13832515478134155
                ]
            }
        },
        "output": {
            "bias": 0.3121768832206726,
            "weights": [
                -0.47833794355392456,
                0.6280495524406433,
                0.5508865714073181,
                0.5197393298149109
            ]
        },
        "score": 0
    },
    "chromosome_20": {
        "layer_0": {
            "neuron_0": {
                "bias": -0.4110446274280548,
                "weights": [
                    0.5340525507926941,
                    0.5709677338600159,
                    -0.6559922695159912
                ]
            },
            "neuron_1": {
                "bias": -0.17148041725158691,
                "weights": [
                    -0.5842127799987793,
                    0.1882290244102478,
                    0.3981841206550598
                ]
            },
            "neuron_2": {
                "bias": 0.2592394948005676,
                "weights": [
                    0.1308908462524414,
                    -0.5794274806976318,
                    -0.2699209451675415
                ]
            },
            "neuron_3": {
                "bias": -0.20758384466171265,
                "weights": [
                    0.018393516540527344,
                    -0.1576799750328064,
                    -0.05676138401031494
                ]
            }
        },
        "layer_1": {
            "neuron_0": {
                "bias": 0.4007050395011902,
                "weights": [
                    -0.3210638761520386,
                    -0.05270242691040039,
                    -0.2321939766407013,
                    -0.6986755132675171
                ]
            },
            "neuron_1": {
                "bias": -0.3138004541397095,
                "weights": [
                    0.2469344139099121,
                    0.6425763964653015,
                    0.25099337100982666,
                    -0.6545823216438293
                ]
            },
            "neuron_2": {
                "bias": 0.639371931552887,
                "weights": [
                    0.14148688316345215,
                    -0.6074556708335876,
                    -0.6607348918914795,
                    0.046806275844573975
                ]
            },
            "neuron_3": {
                "bias": -0.43578293919563293,
                "weights": [
                    -0.6574022769927979,
                    0.4112582802772522,
                    -0.6937620043754578,
                    -0.6907711625099182
                ]
            }
        },
        "output": {
            "bias": 0.6391156315803528,
            "weights": [
                -0.27611619234085083,
                0.42155522108078003,
                0.4469771981239319,
                0.17015594244003296
            ]
        },
        "score": 0
    },
    "chromosome_21": {
        "layer_0": {
            "neuron_0": {
                "bias": 0.16331982612609863,
                "weights": [
                    -0.29380473494529724,
                    -0.5854518413543701,
                    -0.13379621505737305
                ]
            },
            "neuron_1": {
                "bias": 0.31623584032058716,
                "weights": [
                    -0.5306344628334045,
                    0.19822686910629272,
                    -0.5467848777770996
                ]
            },
            "neuron_2": {
                "bias": 0.06547749042510986,
                "weights": [
                    0.6858577132225037,
                    0.4730827212333679,
                    0.6071565747261047
                ]
            },
            "neuron_3": {
                "bias": -0.6273659467697144,
                "weights": [
                    -0.6344156861305237,
                    0.5695578455924988,
                    0.1554582715034485
                ]
            }
        },
        "layer_1": {
            "neuron_0": {
                "bias": -0.3037598729133606,
                "weights": [
                    -0.20809653401374817,
                    -0.365712434053421,
                    0.36891692876815796,
                    -0.0069002509117126465
                ]
            },
            "neuron_1": {
                "bias": -0.2817133069038391,
                "weights": [
                    0.3801965117454529,
                    0.48709672689437866,
                    -0.4260414242744446,
                    -0.26069214940071106
                ]
            },
            "neuron_2": {
                "bias": -0.11798757314682007,
                "weights": [
                    -0.20322579145431519,
                    0.09414654970169067,
                    -0.6334329843521118,
                    0.6665028929710388
                ]
            },
            "neuron_3": {
                "bias": -0.5927579402923584,
                "weights": [
                    0.5894253849983215,
                    0.6072420477867126,
                    0.4274941086769104,
                    -0.03599655628204346
                ]
            }
        },
        "output": {
            "bias": 0.6101474165916443,
            "weights": [
                0.0849604606628418,
                -0.1689596176147461,
                -0.4496261477470398,
                -0.26534926891326904
            ]
        },
        "score": 0
    },
    "chromosome_22": {
        "layer_0": {
            "neuron_0": {
                "bias": 0.22108525037765503,
                "weights": [
                    0.23326212167739868,
                    -0.4881221652030945,
                    0.2423200011253357
                ]
            },
            "neuron_1": {
                "bias": -0.1560991406440735,
                "weights": [
                    -0.5329843759536743,
                    0.40583211183547974,
                    -0.4100192189216614
                ]
            },
            "neuron_2": {
                "bias": 0.03971374034881592,
                "weights": [
                    0.5377269387245178,
                    0.3644734025001526,
                    -0.5642597675323486
                ]
            },
            "neuron_3": {
                "bias": 0.007028400897979736,
                "weights": [
                    -0.14276862144470215,
                    -0.23227941989898682,
                    -0.30675068497657776
                ]
            }
        },
        "layer_1": {
            "neuron_0": {
                "bias": 0.5484939217567444,
                "weights": [
                    -0.4894894063472748,
                    -0.38160648941993713,
                    0.08111518621444702,
                    0.10944241285324097
                ]
            },
            "neuron_1": {
                "bias": -0.1921597719192505,
                "weights": [
                    -0.5612262487411499,
                    0.30760520696640015,
                    0.09645378589630127,
                    -0.5995941162109375
                ]
            },
            "neuron_2": {
                "bias": 0.064708411693573,
                "weights": [
                    0.3345652222633362,
                    -0.11392861604690552,
                    0.40066224336624146,
                    -0.04291814565658569
                ]
            },
            "neuron_3": {
                "bias": 0.6712881922721863,
                "weights": [
                    0.6789361834526062,
                    -0.6779534220695496,
                    -0.25573593378067017,
                    -0.10474258661270142
                ]
            }
        },
        "output": {
            "bias": 0.11777400970458984,
            "weights": [
                -0.0888485312461853,
                0.6236488223075867,
                0.08265328407287598,
                -0.0630420446395874
            ]
        },
        "score": 1
    },
    "chromosome_23": {
        "layer_0": {
            "neuron_0": {
                "bias": 0.21382182836532593,
                "weights": [
                    -0.46868187189102173,
                    0.3609698414802551,
                    0.34614402055740356
                ]
            },
            "neuron_1": {
                "bias": 0.29410386085510254,
                "weights": [
                    -0.29530012607574463,
                    0.5588763356208801,
                    -0.31004056334495544
                ]
            },
            "neuron_2": {
                "bias": 0.1534501314163208,
                "weights": [
                    0.15464645624160767,
                    -0.5417859554290771,
                    -0.5200811624526978
                ]
            },
            "neuron_3": {
                "bias": -0.1662251353263855,
                "weights": [
                    0.4090365767478943,
                    -0.36186710000038147,
                    0.39040809869766235
                ]
            }
        },
        "layer_1": {
            "neuron_0": {
                "bias": 0.24026918411254883,
                "weights": [
                    0.44672077894210815,
                    0.1482803225517273,
                    0.6134800314903259,
                    -0.16524243354797363
                ]
            },
            "neuron_1": {
                "bias": -0.3929288387298584,
                "weights": [
                    0.15554368495941162,
                    0.4946592450141907,
                    0.6821405291557312,
                    -0.17331767082214355
                ]
            },
            "neuron_2": {
                "bias": 0.20937836170196533,
                "weights": [
                    -0.6821405291557312,
                    -0.5532364845275879,
                    0.12435376644134521,
                    0.45441144704818726
                ]
            },
            "neuron_3": {
                "bias": 0.3620380759239197,
                "weights": [
                    -0.29085662961006165,
                    -0.1846400499343872,
                    0.08111518621444702,
                    0.6281777024269104
                ]
            }
        },
        "output": {
            "bias": 0.12478101253509521,
            "weights": [
                -0.28820765018463135,
                0.07936340570449829,
                -0.18745994567871094,
                -0.6540696620941162
            ]
        },
        "score": 1
    },
    "chromosome_24": {
        "layer_0": {
            "neuron_0": {
                "bias": -0.1450331211090088,
                "weights": [
                    -0.3823755383491516,
                    0.6516342759132385,
                    0.11068147420883179
                ]
            },
            "neuron_1": {
                "bias": 0.5233283638954163,
                "weights": [
                    -0.6557786464691162,
                    -0.4506515562534332,
                    -0.5034607648849487
                ]
            },
            "neuron_2": {
                "bias": -0.33939328789711,
                "weights": [
                    0.4702628254890442,
                    0.5516983866691589,
                    -0.570241391658783
                ]
            },
            "neuron_3": {
                "bias": 0.07530444860458374,
                "weights": [
                    -0.22497329115867615,
                    -0.29641100764274597,
                    0.12469559907913208
                ]
            }
        },
        "layer_1": {
            "neuron_0": {
                "bias": -0.1721213459968567,
                "weights": [
                    0.17929929494857788,
                    -0.29359111189842224,
                    0.38758808374404907,
                    -0.682952344417572
                ]
            },
            "neuron_1": {
                "bias": 0.24214911460876465,
                "weights": [
                    -0.5565690994262695,
                    0.515381395816803,
                    -0.6438581347465515,
                    0.32751554250717163
                ]
            },
            "neuron_2": {
                "bias": -0.5883144736289978,
                "weights": [
                    -0.217325359582901,
                    0.2965819239616394,
                    -0.11794489622116089,
                    0.04283273220062256
                ]
            },
            "neuron_3": {
                "bias": 0.1326853632926941,
                "weights": [
                    0.04185003042221069,
                    -0.629801332950592,
                    0.5418286919593811,
                    0.21813714504241943
                ]
            }
        },
        "output": {
            "bias": 0.341016948223114,
            "weights": [
                -0.2920529544353485,
                -0.12255924940109253,
                0.2267250418663025,
                0.4741508364677429
            ]
        },
        "score": 0
    },
    "chromosome_25": {
        "layer_0": {
            "neuron_0": {
                "bias": -0.3900662064552307,
                "weights": [
                    0.12896817922592163,
                    -0.3490920662879944,
                    -0.027365922927856445
                ]
            },
            "neuron_1": {
                "bias": -0.16784876585006714,
                "weights": [
                    -0.604293942451477,
                    0.3297799229621887,
                    -0.1999359130859375
                ]
            },
            "neuron_2": {
                "bias": -0.35554367303848267,
                "weights": [
                    0.5261055827140808,
                    0.015915393829345703,
                    -0.2953428626060486
                ]
            },
            "neuron_3": {
                "bias": 0.2500106692314148,
                "weights": [
                    0.665050208568573,
                    -0.5914334654808044,
                    -0.5129459500312805
                ]
            }
        },
        "layer_1": {
            "neuron_0": {
                "bias": 0.09277933835983276,
                "weights": [
                    0.6882503628730774,
                    -0.07474899291992188,
                    0.2603076100349426,
                    -0.2870112955570221
                ]
            },
            "neuron_1": {
                "bias": -0.5574663281440735,
                "weights": [
                    0.30581074953079224,
                    -0.5873317718505859,
                    0.5455885529518127,
                    -0.38835716247558594
                ]
            },
            "neuron_2": {
                "bias": -0.27060455083847046,
                "weights": [
                    0.49183934926986694,
                    0.5299509167671204,
                    -0.4775688648223877,
                    -0.46928006410598755
                ]
            },
            "neuron_3": {
                "bias": -0.1343943476676941,
                "weights": [
                    0.41993170976638794,
                    0.5173894762992859,
                    0.13204443454742432,
                    -0.17558211088180542
                ]
            }
        },
        "output": {
            "bias": -0.19015169143676758,
            "weights": [
                -0.6952146887779236,
                -0.35387736558914185,
                0.10457170009613037,
                -0.19536423683166504
            ]
        },
        "score": 2
    },
    "chromosome_26": {
        "layer_0": {
            "neuron_0": {
                "bias": -0.056205928325653076,
                "weights": [
                    0.38284558057785034,
                    -0.31623584032058716,
                    -0.5357615947723389
                ]
            },
            "neuron_1": {
                "bias": 0.010361075401306152,
                "weights": [
                    0.12977999448776245,
                    0.535206139087677,
                    0.6173680424690247
                ]
            },
            "neuron_2": {
                "bias": -0.2821405529975891,
                "weights": [
                    0.008139312267303467,
                    -0.5018799304962158,
                    0.23697930574417114
                ]
            },
            "neuron_3": {
                "bias": 0.4659901261329651,
                "weights": [
                    0.3113223910331726,
                    -0.4622730016708374,
                    -0.4078829288482666
                ]
            }
        },
        "layer_1": {
            "neuron_0": {
                "bias": 0.38404184579849243,
                "weights": [
                    0.11948305368423462,
                    -0.1240546703338623,
                    -0.27030548453330994,
                    -0.5241401195526123
                ]
            },
            "neuron_1": {
                "bias": 0.3580217957496643,
                "weights": [
                    -0.4869258403778076,
                    0.1850672960281372,
                    -0.5673360228538513,
                    -0.3240973949432373
                ]
            },
            "neuron_2": {
                "bias": 0.15456098318099976,
                "weights": [
                    0.2662465572357178,
                    0.6083101630210876,
                    0.49132663011550903,
                    -0.31371501088142395
                ]
            },
            "neuron_3": {
                "bias": 0.3932279944419861,
                "weights": [
                    0.534351646900177,
                    -0.09171116352081299,
                    0.14477676153182983,
                    -0.23394572734832764
                ]
            }
        },
        "output": {
            "bias": -0.18164920806884766,
            "weights": [
                0.6886776089668274,
                0.4213842749595642,
                -0.383016437292099,
                -0.20382395386695862
            ]
        },
        "score": 1
    },
    "chromosome_27": {
        "layer_0": {
            "neuron_0": {
                "bias": 0.3802393078804016,
                "weights": [
                    0.39886778593063354,
                    0.23749202489852905,
                    0.11756038665771484
                ]
            },
            "neuron_1": {
                "bias": -0.4468916654586792,
                "weights": [
                    -0.6886348724365234,
                    0.1770775318145752,
                    -0.5466994047164917
                ]
            },
            "neuron_2": {
                "bias": 0.030655860900878906,
                "weights": [
                    -0.27765434980392456,
                    0.34550315141677856,
                    -0.6269387006759644
                ]
            },
            "neuron_3": {
                "bias": 0.45398420095443726,
                "weights": [
                    0.04291820526123047,
                    -0.6667592525482178,
                    -0.465648353099823
                ]
            }
        },
        "layer_1": {
            "neuron_0": {
                "bias": 0.4363383650779724,
                "weights": [
                    -0.3910061717033386,
                    0.054753243923187256,
                    0.3274727463722229,
                    -0.448387086391449
                ]
            },
            "neuron_1": {
                "bias": 0.5475966334342957,
                "weights": [
                    -0.24159365892410278,
                    -0.5798974633216858,
                    0.3808801770210266,
                    0.2718009352684021
                ]
            },
            "neuron_2": {
                "bias": -0.42292243242263794,
                "weights": [
                    -0.42954495549201965,
                    0.3637470602989197,
                    0.2602221965789795,
                    -0.14486217498779297
                ]
            },
            "neuron_3": {
                "bias": -0.06680196523666382,
                "weights": [
                    -0.2882503569126129,
                    -0.5549882650375366,
                    -0.5831018686294556,
                    -0.2650502026081085
                ]
            }
        },
        "output": {
            "bias": -0.2380046844482422,
            "weights": [
                -0.57844477891922,
                0.5861781239509583,
                0.6660756468772888,
                -0.18352913856506348
            ]
        },
        "score": 0
    },
    "chromosome_28": {
        "layer_0": {
            "neuron_0": {
                "bias": 0.5304208397865295,
                "weights": [
                    -0.665733814239502,
                    0.2930784225463867,
                    -0.21655628085136414
                ]
            },
            "neuron_1": {
                "bias": -0.49307841062545776,
                "weights": [
                    0.5801110863685608,
                    0.0256996750831604,
                    -0.39369791746139526
                ]
            },
            "neuron_2": {
                "bias": 0.43967097997665405,
                "weights": [
                    -0.6072420477867126,
                    -0.27274084091186523,
                    0.3820764422416687
                ]
            },
            "neuron_3": {
                "bias": 0.342725932598114,
                "weights": [
                    0.5114932656288147,
                    -0.46868187189102173,
                    -0.04206365346908569
                ]
            }
        },
        "layer_1": {
            "neuron_0": {
                "bias": -0.043302714824676514,
                "weights": [
                    -0.07491987943649292,
                    0.6764580607414246,
                    -0.29782095551490784,
                    0.16011536121368408
                ]
            },
            "neuron_1": {
                "bias": -0.143110454082489,
                "weights": [
                    -0.3718222379684448,
                    0.6128391623497009,
                    -0.18698996305465698,
                    -0.20378121733665466
                ]
            },
            "neuron_2": {
                "bias": -0.6486861705780029,
                "weights": [
                    -0.3404614329338074,
                    -0.4498397707939148,
                    -0.6758598685264587,
                    0.5402478575706482
                ]
            },
            "neuron_3": {
                "bias": 0.5807092785835266,
                "weights": [
                    -0.5804101824760437,
                    0.1717795729637146,
                    0.5587053894996643,
                    -0.5759666562080383
                ]
            }
        },
        "output": {
            "bias": -0.6392010450363159,
            "weights": [
                -0.14016234874725342,
                -0.5462294220924377,
                0.4419782757759094,
                0.2749626040458679
            ]
        },
        "score": 0
    },
    "chromosome_29": {
        "layer_0": {
            "neuron_0": {
                "bias": 0.3277718424797058,
                "weights": [
                    0.11653494834899902,
                    -0.5936124324798584,
                    -0.4251441955566406
                ]
            },
            "neuron_1": {
                "bias": -0.26628923416137695,
                "weights": [
                    0.47598809003829956,
                    0.1656697392463684,
                    0.32918184995651245
                ]
            },
            "neuron_2": {
                "bias": 0.1654561161994934,
                "weights": [
                    -0.044157207012176514,
                    0.5199957489967346,
                    0.6230934262275696
                ]
            },
            "neuron_3": {
                "bias": 0.11521041393280029,
                "weights": [
                    -0.43163853883743286,
                    -0.1850672960281372,
                    0.17280495166778564
                ]
            }
        },
        "layer_1": {
            "neuron_0": {
                "bias": 0.455735981464386,
                "weights": [
                    0.41403549909591675,
                    0.11751765012741089,
                    -0.22736594080924988,
                    -0.6856013536453247
                ]
            },
            "neuron_1": {
                "bias": 0.0027558207511901855,
                "weights": [
                    -0.03185218572616577,
                    0.6137791275978088,
                    0.2525315284729004,
                    -0.06351208686828613
                ]
            },
            "neuron_2": {
                "bias": 0.42997223138809204,
                "weights": [
                    0.19280070066452026,
                    0.3256356120109558,
                    -0.09072846174240112,
                    -0.16143983602523804
                ]
            },
            "neuron_3": {
                "bias": 0.13999146223068237,
                "weights": [
                    0.5579790472984314,
                    0.04761803150177002,
                    -0.08278143405914307,
                    -0.4855586290359497
                ]
            }
        },
        "output": {
            "bias": 0.6970946192741394,
            "weights": [
                -0.19429606199264526,
                0.29888916015625,
                -0.10346078872680664,
                -0.07269811630249023
            ]
        },
        "score": 0
    },
    "chromosome_3": {
        "layer_0": {
            "neuron_0": {
                "bias": -0.4846186637878418,
                "weights": [
                    0.20480668544769287,
                    -0.08346503973007202,
                    0.5143986344337463
                ]
            },
            "neuron_1": {
                "bias": -0.2662465274333954,
                "weights": [
                    -0.552894651889801,
                    0.3920744061470032,
                    0.403225839138031
                ]
            },
            "neuron_2": {
                "bias": 0.30051273107528687,
                "weights": [
                    0.24501174688339233,
                    0.11730402708053589,
                    0.637449324131012
                ]
            },
            "neuron_3": {
                "bias": 0.405575692653656,
                "weights": [
                    0.4374919533729553,
                    0.5583636164665222,
                    -0.03022855520248413
                ]
            }
        },
        "layer_1": {
            "neuron_0": {
                "bias": -0.13708609342575073,
                "weights": [
                    0.010959208011627197,
                    -0.012753665447235107,
                    -0.2107882797718048,
                    -0.43415936827659607
                ]
            },
            "neuron_1": {
                "bias": -0.31794488430023193,
                "weights": [
                    -0.5333689451217651,
                    0.3429822325706482,
                    0.03458666801452637,
                    0.3493911623954773
                ]
            },
            "neuron_2": {
                "bias": 0.32478100061416626,
                "weights": [
                    0.614249050617218,
                    -0.35725271701812744,
                    0.5350779891014099,
                    -0.13392436504364014
                ]
            },
            "neuron_3": {
                "bias": -0.5833154916763306,
                "weights": [
                    0.6668874621391296,
                    -0.23475751280784607,
                    -0.44197818636894226,
                    0.43061310052871704
                ]
            }
        },
        "output": {
            "bias": -0.12593460083007813,
            "weights": [
                -0.32217472791671753,
                0.4431745409965515,
                0.57972651720047,
                0.33657342195510864
            ]
        },
        "score": 0
    },
    "chromosome_30": {
        "layer_0": {
            "neuron_0": {
                "bias": -0.239670991897583,
                "weights": [
                    0.3018799424171448,
                    -0.2549668848514557,
                    -0.4562486410140991
                ]
            },
            "neuron_1": {
                "bias": -0.0192907452583313,
                "weights": [
                    -0.6198461651802063,
                    0.2882503867149353,
                    0.03249305486679077
                ]
            },
            "neuron_2": {
                "bias": -0.2639393210411072,
                "weights": [
                    0.3340098261833191,
                    0.5583636164665222,
                    -0.5009827017784119
                ]
            },
            "neuron_3": {
                "bias": -0.3632770776748657,
                "weights": [
                    -0.15383464097976685,
                    -0.6433454155921936,
                    0.6897030472755432
                ]
            }
        },
        "layer_1": {
            "neuron_0": {
                "bias": -0.5574235916137695,
                "weights": [
                    -0.36135441064834595,
                    -0.2405255138874054,
                    -0.2507370114326477,
                    0.026810526847839355
                ]
            },
            "neuron_1": {
                "bias": -0.4754753112792969,
                "weights": [
                    -0.4172826111316681,
                    0.3021790385246277,
                    -0.483165979385376,
                    -0.5243110656738281
                ]
            },
            "neuron_2": {
                "bias": -0.02146977186203003,
                "weights": [
                    -0.3002990782260895,
                    0.016000866889953613,
                    0.22125613689422607,
                    -0.19600510597229004
                ]
            },
            "neuron_3": {
                "bias": -0.08953213691711426,
                "weights": [
                    0.6323649287223816,
                    0.6013031601905823,
                    0.2155308723449707,
                    0.17289042472839355
                ]
            }
        },
        "output": {
            "bias": 0.6045930981636047,
            "weights": [
                0.5393078923225403,
                -0.3831018805503845,
                0.12533646821975708,
                -0.024973273277282715
            ]
        },
        "score": 0
    },
    "chromosome_31": {
        "layer_0": {
            "neuron_0": {
                "bias": 0.5334543585777283,
                "weights": [
                    -0.02971583604812622,
                    0.43894463777542114,
                    -0.1513565182685852
                ]
            },
            "neuron_1": {
                "bias": 0.5196539759635925,
                "weights": [
                    -0.24565261602401733,
                    -0.6847468614578247,
                    -0.48654133081436157
                ]
            },
            "neuron_2": {
                "bias": 0.06919461488723755,
                "weights": [
                    0.06714379787445068,
                    0.3213629126548767,
                    0.5845972895622253
                ]
            },
            "neuron_3": {
                "bias": -0.28799399733543396,
                "weights": [
                    -0.16233712434768677,
                    -0.36989957094192505,
                    -0.03578293323516846
                ]
            }
        },
        "layer_1": {
            "neuron_0": {
                "bias": 0.5043581128120422,
                "weights": [
                    0.6650075316429138,
                    0.37724846601486206,
                    0.14614397287368774,
                    0.3650715947151184
                ]
            },
            "neuron_1": {
                "bias": 0.15276652574539185,
                "weights": [
                    0.2786797881126404,
                    0.33755606412887573,
                    0.04044008255004883,
                    -0.48205509781837463
                ]
            },
            "neuron_2": {
                "bias": 0.4588549733161926,
                "weights": [
                    0.46889549493789673,
                    -0.5081606507301331,
                    0.11016875505447388,
                    0.4897457957267761
                ]
            },
            "neuron_3": {
                "bias": -0.053386032581329346,
                "weights": [
                    -0.3062807023525238,
                    0.665263831615448,
                    0.11375772953033447,
                    0.20455032587051392
                ]
            }
        },
        "output": {
            "bias": -0.5039308071136475,
            "weights": [
                0.006558418273925781,
                0.4800470471382141,
                -0.535419762134552,
                0.5022644400596619
            ]
        },
        "score": 0
    },
    "chromosome_32": {
        "layer_0": {
            "neuron_0": {
                "bias": 0.1929715871810913,
                "weights": [
                    0.25120699405670166,
                    0.3046143651008606,
                    0.3023071885108948
                ]
            },
            "neuron_1": {
                "bias": 0.18955349922180176,
                "weights": [
                    0.4972228407859802,
                    0.07342451810836792,
                    -0.675218939781189
                ]
            },
            "neuron_2": {
                "bias": -0.655735969543457,
                "weights": [
                    -0.4385601282119751,
                    -0.02104252576828003,
                    0.33153170347213745
                ]
            },
            "neuron_3": {
                "bias": -0.2706472873687744,
                "weights": [
                    -0.6621448397636414,
                    0.43240755796432495,
                    -0.08966034650802612
                ]
            }
        },
        "layer_1": {
            "neuron_0": {
                "bias": -0.6594958305358887,
                "weights": [
                    0.6020721793174744,
                    -0.170540452003479,
                    0.006173908710479736,
                    0.6130101084709167
                ]
            },
            "neuron_1": {
                "bias": -0.44146549701690674,
                "weights": [
                    0.13781243562698364,
                    0.4345865845680237,
                    0.09376204013824463,
                    -0.47812432050704956
                ]
            },
            "neuron_2": {
                "bias": 0.1118350625038147,
                "weights": [
                    -0.6286904215812683,
                    -0.5932706594467163,
                    -0.34661397337913513,
                    -0.5684896111488342
                ]
            },
            "neuron_3": {
                "bias": -0.6594530940055847,
                "weights": [
                    -0.3797692656517029,
                    -0.6331766843795776,
                    0.05270242691040039,
                    0.6946164965629578
                ]
            }
        },
        "output": {
            "bias": 0.4602648615837097,
            "weights": [
                0.1775902509689331,
                -0.02800685167312622,
                -0.318329393863678,
                -0.05441141128540039
            ]
        },
        "score": 0
    },
    "chromosome_33": {
        "layer_0": {
            "neuron_0": {
                "bias": -0.6150181293487549,
                "weights": [
                    0.041294634342193604,
                    0.29051488637924194,
                    0.3641316294670105
                ]
            },
            "neuron_1": {
                "bias": 0.05829954147338867,
                "weights": [
                    0.1803247332572937,
                    -0.029331326484680176,
                    0.5206792950630188
                ]
            },
            "neuron_2": {
                "bias": 0.011258304119110107,
                "weights": [
                    -0.07004910707473755,
                    -0.5806665420532227,
                    -0.3357188403606415
                ]
            },
            "neuron_3": {
                "bias": -0.1195257306098938,
                "weights": [
                    0.561311662197113,
                    -0.07094639539718628,
                    0.30012816190719604
                ]
            }
        },
        "layer_1": {
            "neuron_0": {
                "bias": -0.6003204584121704,
                "weights": [
                    0.20925015211105347,
                    0.6617175936698914,
                    -0.2577013373374939,
                    0.2236487865447998
                ]
            },
            "neuron_1": {
                "bias": -0.4324503242969513,
                "weights": [
                    -0.2574877142906189,
                    -0.3927152156829834,
                    0.5152104496955872,
                    0.03838926553726196
                ]
            },
            "neuron_2": {
                "bias": -0.6257423758506775,
                "weights": [
                    -0.13383889198303223,
                    -0.33576157689094543,
                    -0.16883140802383423,
                    0.6189061999320984
                ]
            },
            "neuron_3": {
                "bias": -0.6323648691177368,
                "weights": [
                    -0.4999145269393921,
                    0.2035248875617981,
                    -0.4194616377353668,
                    0.2980773448944092
                ]
            }
        },
        "output": {
            "bias": 0.6516769528388977,
            "weights": [
                0.2884640097618103,
                -0.15011745691299438,
                0.5564408898353577,
                0.07761162519454956
            ]
        },
        "score": 0
    },
    "chromosome_34": {
        "layer_0": {
            "neuron_0": {
                "bias": 0.5223883986473083,
                "weights": [
                    -0.1628497838973999,
                    -0.3034607768058777,
                    -0.2457807958126068
                ]
            },
            "neuron_1": {
                "bias": -0.400961309671402,
                "weights": [
                    -0.6522324085235596,
                    -0.4776543378829956,
                    -0.1746421456336975
                ]
            },
            "neuron_2": {
                "bias": -0.6019440293312073,
                "weights": [
                    0.6408246159553528,
                    -0.30589616298675537,
                    -0.5022217035293579
                ]
            },
            "neuron_3": {
                "bias": -0.18511003255844116,
                "weights": [
                    -0.34289681911468506,
                    0.4188207983970642,
                    -0.23826104402542114
                ]
            }
        },
        "layer_1": {
            "neuron_0": {
                "bias": 0.4415082335472107,
                "weights": [
                    0.011343717575073242,
                    -0.15080112218856812,
                    -0.5312325954437256,
                    -0.13409525156021118
                ]
            },
            "neuron_1": {
                "bias": -0.2260841727256775,
                "weights": [
                    -0.28948941826820374,
                    0.3262336850166321,
                    -0.32016661763191223,
                    -0.49089938402175903
                ]
            },
            "neuron_2": {
                "bias": -0.36502882838249207,
                "weights": [
                    0.5522111058235168,
                    0.10773342847824097,
                    0.44526809453964233,
                    0.2950010895729065
                ]
            },
            "neuron_3": {
                "bias": 0.25795769691467285,
                "weights": [
                    -0.18028199672698975,
                    -0.26586198806762695,
                    0.03616750240325928,
                    -0.45958125591278076
                ]
            }
        },
        "output": {
            "bias": -0.49965816736221313,
            "weights": [
                -0.269835501909256,
                0.5922879576683044,
                -0.3887844383716583,
                0.11397141218185425
            ]
        },
        "score": 0
    },
    "chromosome_35": {
        "layer_0": {
            "neuron_0": {
                "bias": -0.012796401977539063,
                "weights": [
                    0.4369792342185974,
                    -0.09850460290908813,
                    -0.5005553960800171
                ]
            },
            "neuron_1": {
                "bias": 0.08491778373718262,
                "weights": [
                    0.6099764704704285,
                    0.39087802171707153,
                    -0.32076478004455566
                ]
            },
            "neuron_2": {
                "bias": 0.1232001781463623,
                "weights": [
                    -0.1371288299560547,
                    -0.378359317779541,
                    0.334949791431427
                ]
            },
            "neuron_3": {
                "bias": 0.5523392558097839,
                "weights": [
                    -0.2170262634754181,
                    -0.19732964038848877,
                    -0.17173677682876587
                ]
            }
        },
        "layer_1": {
            "neuron_0": {
                "bias": 0.5884426236152649,
                "weights": [
                    0.5134159922599792,
                    -0.47632983326911926,
                    0.43292027711868286,
                    -0.2773125171661377
                ]
            },
            "neuron_1": {
                "bias": -0.14024782180786133,
                "weights": [
                    -0.6759025454521179,
                    0.2030976414680481,
                    -0.4463789761066437,
                    -0.29683828353881836
                ]
            },
            "neuron_2": {
                "bias": 0.6838496327400208,
                "weights": [
                    0.048600733280181885,
                    0.5843836665153503,
                    -0.26462292671203613,
                    -0.2885494530200958
                ]
            },
            "neuron_3": {
                "bias": -0.6668874025344849,
                "weights": [
                    -0.5991668105125427,
                    0.03937196731567383,
                    0.57929927110672,
                    -0.17955565452575684
                ]
            }
        },
        "output": {
            "bias": 0.17412948608398438,
            "weights": [
                0.5297372937202454,
                0.3056398034095764,
                0.6723136305809021,
                -0.18408459424972534
            ]
        },
        "score": 0
    },
    "chromosome_36": {
        "layer_0": {
            "neuron_0": {
                "bias": 0.21412092447280884,
                "weights": [
                    -0.3279854655265808,
                    0.1408032774925232,
                    0.5066652894020081
                ]
            },
            "neuron_1": {
                "bias": -0.26816919445991516,
                "weights": [
                    0.6122409701347351,
                    -0.04949796199798584,
                    -0.44505447149276733
                ]
            },
            "neuron_2": {
                "bias": -0.11734670400619507,
                "weights": [
                    -0.6139500141143799,
                    -0.6977354884147644,
                    -0.283080518245697
                ]
            },
            "neuron_3": {
                "bias": 0.21134376525878906,
                "weights": [
                    -0.042576372623443604,
                    -0.28560134768486023,
                    0.30773335695266724
                ]
            }
        },
        "layer_1": {
            "neuron_0": {
                "bias": -0.5818201303482056,
                "weights": [
                    -0.6793633699417114,
                    0.21873533725738525,
                    -0.1126895546913147,
                    0.5710105299949646
                ]
            },
            "neuron_1": {
                "bias": 0.5213629603385925,
                "weights": [
                    -0.41775259375572205,
                    0.2715872526168823,
                    0.46359747648239136,
                    0.194338858127594
                ]
            },
            "neuron_2": {
                "bias": -0.1992095708847046,
                "weights": [
                    0.3640461564064026,
                    -0.47919246554374695,
                    0.42783600091934204,
                    0.37844473123550415
                ]
            },
            "neuron_3": {
                "bias": 0.6200171113014221,
                "weights": [
                    -0.6563341021537781,
                    0.0877804160118103,
                    -0.3702841103076935,
                    -0.49700915813446045
                ]
            }
        },
        "output": {
            "bias": -0.03813284635543823,
            "weights": [
                0.056376874446868896,
                0.09196752309799194,
                -0.46928006410598755,
                -0.06163209676742554
            ]
        },
        "score": 0
    },
    "chromosome_37": {
        "layer_0": {
            "neuron_0": {
                "bias": -0.23381754755973816,
                "weights": [
                    0.3981841206550598,
                    -0.4685964584350586,
                    -0.1827600598335266
                ]
            },
            "neuron_1": {
                "bias": 0.25048065185546875,
                "weights": [
                    -0.18998074531555176,
                    -0.6227942705154419,
                    -0.03168123960494995
                ]
            },
            "neuron_2": {
                "bias": -0.35767996311187744,
                "weights": [
                    -0.26355478167533875,
                    -0.31538131833076477,
                    0.11213415861129761
                ]
            },
            "neuron_3": {
                "bias": -0.2712881863117218,
                "weights": [
                    0.0265541672706604,
                    -0.1895107626914978,
                    0.5656697154045105
                ]
            }
        },
        "layer_1": {
            "neuron_0": {
                "bias": -0.07393717765808105,
                "weights": [
                    0.4061738848686218,
                    0.01770991086959839,
                    0.11973941326141357,
                    0.4980773329734802
                ]
            },
            "neuron_1": {
                "bias": 0.49239474534988403,
                "weights": [
                    -0.19527876377105713,
                    -0.17408674955368042,
                    -0.5443494915962219,
                    0.5916897654533386
                ]
            },
            "neuron_2": {
                "bias": 0.535847008228302,
                "weights": [
                    -0.3894253373146057,
                    -0.14464855194091797,
                    -0.35810723900794983,
                    -0.13802605867385864
                ]
            },
            "neuron_3": {
                "bias": 0.0002777576446533203,
                "weights": [
                    0.5924589037895203,
                    0.44642168283462524,
                    -0.46158939599990845,
                    -0.37442854046821594
                ]
            }
        },
        "output": {
            "bias": 0.41360825300216675,
            "weights": [
                -0.10991239547729492,
                0.3116214871406555,
                -0.12461012601852417,
                0.29525744915008545
            ]
        },
        "score": 0
    },
    "chromosome_38": {
        "layer_0": {
            "neuron_0": {
                "bias": 0.3778466582298279,
                "weights": [
                    0.4907284379005432,
                    -0.03437298536300659,
                    0.11345869302749634
                ]
            },
            "neuron_1": {
                "bias": -0.2773125171661377,
                "weights": [
                    0.48440510034561157,
                    0.29525744915008545,
                    -0.3169194459915161
                ]
            },
            "neuron_2": {
                "bias": -0.21288186311721802,
                "weights": [
                    -0.6992309093475342,
                    -0.34332406520843506,
                    0.47573167085647583
                ]
            },
            "neuron_3": {
                "bias": 0.6604358553886414,
                "weights": [
                    0.16169625520706177,
                    -0.43091219663619995,
                    0.08102971315383911
                ]
            }
        },
        "layer_1": {
            "neuron_0": {
                "bias": 0.49987179040908813,
                "weights": [
                    -0.27650073170661926,
                    0.38959628343582153,
                    0.5482802987098694,
                    0.13324075937271118
                ]
            },
            "neuron_1": {
                "bias": 0.3346934914588928,
                "weights": [
                    0.62095707654953,
                    0.1379833221435547,
                    0.41668444871902466,
                    -0.021127939224243164
                ]
            },
            "neuron_2": {
                "bias": -0.5802819728851318,
                "weights": [
                    -0.6715872287750244,
                    0.09854733943939209,
                    0.22928863763809204,
                    0.527643620967865
                ]
            },
            "neuron_3": {
                "bias": -0.2590685486793518,
                "weights": [
                    -0.09423196315765381,
                    -0.11123692989349365,
                    -0.6680837273597717,
                    -0.6199743747711182
                ]
            }
        },
        "output": {
            "bias": 0.4885922074317932,
            "weights": [
                -0.27133089303970337,
                0.6959838271141052,
                0.07697075605392456,
                0.16259348392486572
            ]
        },
        "score": 0
    },
    "chromosome_39": {
        "layer_0": {
            "neuron_0": {
                "bias": 0.3743430972099304,
                "weights": [
                    0.055650532245635986,
                    0.5387951731681824,
                    -0.22262334823608398
                ]
            },
            "neuron_1": {
                "bias": 0.31392866373062134,
                "weights": [
                    0.41510361433029175,
                    -0.41194188594818115,
                    0.3134586215019226
                ]
            },
            "neuron_2": {
                "bias": 0.5642170310020447,
                "weights": [
                    -0.44569534063339233,
                    0.09277933835983276,
                    -0.357295423746109
                ]
            },
            "neuron_3": {
                "bias": -0.4374919831752777,
                "weights": [
                    0.38404184579849243,
                    -0.2227088212966919,
                    -0.0775688886642456
                ]
            }
        },
        "layer_1": {
            "neuron_0": {
                "bias": -0.586178183555603,
                "weights": [
                    0.5654560923576355,
                    -0.5619098544120789,
                    -0.07697069644927979,
                    -0.38276007771492004
                ]
            },
            "neuron_1": {
                "bias": 0.4091647267341614,
                "weights": [
                    -0.0924375057220459,
                    0.11239051818847656,
                    -0.46936550736427307,
                    0.605404794216156
                ]
            },
            "neuron_2": {
                "bias": 0.6610339283943176,
                "weights": [
                    -0.6356120109558105,
                    -0.252317875623703,
                    -0.29504379630088806,
                    0.448600709438324
                ]
            },
            "neuron_3": {
                "bias": 0.5140995383262634,
                "weights": [
                    0.12516558170318604,
                    -0.5656697154045105,
                    -0.31593674421310425,
                    0.45641952753067017
                ]
            }
        },
        "output": {
            "bias": -0.30401623249053955,
            "weights": [
                -0.30034178495407104,
                -0.6803033351898193,
                0.0719718337059021,
                -0.35007476806640625
            ]
        },
        "score": 0
    },
    "chromosome_4": {
        "layer_0": {
            "neuron_0": {
                "bias": -0.6324930191040039,
                "weights": [
                    0.6147190928459167,
                    -0.2989318370819092,
                    -0.28590044379234314
                ]
            },
            "neuron_1": {
                "bias": -0.17083954811096191,
                "weights": [
                    -0.49743643403053284,
                    -0.4070711135864258,
                    -0.4098055958747864
                ]
            },
            "neuron_2": {
                "bias": 0.3477248549461365,
                "weights": [
                    0.21313822269439697,
                    -0.5206366181373596,
                    -0.23612475395202637
                ]
            },
            "neuron_3": {
                "bias": -0.6759025454521179,
                "weights": [
                    -0.47748345136642456,
                    -0.3957487642765045,
                    0.48590046167373657
                ]
            }
        },
        "layer_1": {
            "neuron_0": {
                "bias": -0.014932692050933838,
                "weights": [
                    -0.13127535581588745,
                    0.4309549927711487,
                    0.134479820728302,
                    0.2187780737876892
                ]
            },
            "neuron_1": {
                "bias": 0.6292886137962341,
                "weights": [
                    0.11644947528839111,
                    -0.5323862433433533,
                    0.37007051706314087,
                    -0.0807306170463562
                ]
            },
            "neuron_2": {
                "bias": -0.6856440901756287,
                "weights": [
                    -0.45483869314193726,
                    0.20314037799835205,
                    -0.518158495426178,
                    -0.02104252576828003
                ]
            },
            "neuron_3": {
                "bias": -0.5152531266212463,
                "weights": [
                    -0.552040159702301,
                    0.6677846312522888,
                    0.5269600749015808,
                    -0.44684895873069763
                ]
            }
        },
        "output": {
            "bias": 0.2005767822265625,
            "weights": [
                0.09440290927886963,
                -0.3534928262233734,
                -0.4356120228767395,
                -0.5639179348945618
            ]
        },
        "score": 0
    },
    "chromosome_40": {
        "layer_0": {
            "neuron_0": {
                "bias": -0.2907711863517761,
                "weights": [
                    -0.534565269947052,
                    -0.2092074155807495,
                    -0.25637683272361755
                ]
            },
            "neuron_1": {
                "bias": -0.6675710082054138,
                "weights": [
                    0.20796841382980347,
                    0.020871639251708984,
                    -0.33225804567337036
                ]
            },
            "neuron_2": {
                "bias": -0.683422327041626,
                "weights": [
                    -0.5645161271095276,
                    -0.4050630033016205,
                    -0.46863916516304016
                ]
            },
            "neuron_3": {
                "bias": -0.42595598101615906,
                "weights": [
                    -0.639072835445404,
                    0.17656487226486206,
                    -0.4629993438720703
                ]
            }
        },
        "layer_1": {
            "neuron_0": {
                "bias": -0.14507579803466797,
                "weights": [
                    -0.6133090853691101,
                    -0.15938901901245117,
                    0.5144413113594055,
                    0.5533646941184998
                ]
            },
            "neuron_1": {
                "bias": 0.3274727463722229,
                "weights": [
                    0.19715875387191772,
                    0.22339242696762085,
                    0.5043153166770935,
                    -0.07274085283279419
                ]
            },
            "neuron_2": {
                "bias": 0.5865626931190491,
                "weights": [
                    -0.17882931232452393,
                    0.05218970775604248,
                    0.1376415491104126,
                    0.5009827017784119
                ]
            },
            "neuron_3": {
                "bias": -0.42552873492240906,
                "weights": [
                    -0.40044862031936646,
                    -0.13845330476760864,
                    0.1416577696800232,
                    -0.3044862151145935
                ]
            }
        },
        "output": {
            "bias": 0.0455244779586792,
            "weights": [
                0.24637901782989502,
                0.41288191080093384,
                0.1418713927268982,
                0.24407178163528442
            ]
        },
        "score": 0
    },
    "chromosome_41": {
        "layer_0": {
            "neuron_0": {
                "bias": 0.5009827017784119,
                "weights": [
                    0.08936125040054321,
                    0.1961333155632019,
                    -0.08778035640716553
                ]
            },
            "neuron_1": {
                "bias": -0.2826959788799286,
                "weights": [
                    0.6851313710212708,
                    -0.10269170999526978,
                    -0.5803247094154358
                ]
            },
            "neuron_2": {
                "bias": -0.3283272683620453,
                "weights": [
                    -0.2944028973579407,
                    -0.2294594943523407,
                    0.5657978653907776
                ]
            },
            "neuron_3": {
                "bias": -0.6973937153816223,
                "weights": [
                    0.5937406420707703,
                    -0.135120689868927,
                    -0.6293740272521973
                ]
            }
        },
        "layer_1": {
            "neuron_0": {
                "bias": -0.5907925367355347,
                "weights": [
                    0.03753471374511719,
                    -0.49551376700401306,
                    -0.4040803015232086,
                    -0.37780386209487915
                ]
            },
            "neuron_1": {
                "bias": -0.15396279096603394,
                "weights": [
                    0.24753260612487793,
                    -0.15635544061660767,
                    -0.10491347312927246,
                    -0.39677417278289795
                ]
            },
            "neuron_2": {
                "bias": 0.30243533849716187,
                "weights": [
                    0.6513351798057556,
                    -0.3723776936531067,
                    -0.5569108724594116,
                    -0.6991881728172302
                ]
            },
            "neuron_3": {
                "bias": -0.032578468322753906,
                "weights": [
                    -0.5880581140518188,
                    0.32529371976852417,
                    -0.39506515860557556,
                    0.5708395838737488
                ]
            }
        },
        "output": {
            "bias": -0.3607562482357025,
            "weights": [
                -0.5313180685043335,
                0.46966463327407837,
                -0.48222601413726807,
                -0.5755821466445923
            ]
        },
        "score": 0
    },
    "chromosome_42": {
        "layer_0": {
            "neuron_0": {
                "bias": -0.482738733291626,
                "weights": [
                    0.02663964033126831,
                    -0.43915829062461853,
                    -0.6066011190414429
                ]
            },
            "neuron_1": {
                "bias": -0.42258062958717346,
                "weights": [
                    -0.6000640988349915,
                    -0.4675710201263428,
                    0.26321297883987427
                ]
            },
            "neuron_2": {
                "bias": 0.2492416501045227,
                "weights": [
                    -0.05825674533843994,
                    0.3478103280067444,
                    0.4726554751396179
                ]
            },
            "neuron_3": {
                "bias": 0.6273232102394104,
                "weights": [
                    -0.17455673217773438,
                    0.0006195306777954102,
                    -0.2012176811695099
                ]
            }
        },
        "layer_1": {
            "neuron_0": {
                "bias": -0.47073274850845337,
                "weights": [
                    0.1900234818458557,
                    0.5051698088645935,
                    0.40561848878860474,
                    -0.29991453886032104
                ]
            },
            "neuron_1": {
                "bias": 0.3561418652534485,
                "weights": [
                    -0.2967101037502289,
                    0.09718012809753418,
                    -0.03471481800079346,
                    0.5197821259498596
                ]
            },
            "neuron_2": {
                "bias": -0.44988247752189636,
                "weights": [
                    -0.4811578392982483,
                    0.0016877055168151855,
                    -0.4190770983695984,
                    -0.36229437589645386
                ]
            },
            "neuron_3": {
                "bias": 0.27816706895828247,
                "weights": [
                    -0.33490705490112305,
                    0.16190987825393677,
                    -0.14922022819519043,
                    -0.5667378902435303
                ]
            }
        },
        "output": {
            "bias": 0.6793634295463562,
            "weights": [
                0.4477035403251648,
                0.6823541522026062,
                -0.11914122104644775,
                -0.31837213039398193
            ]
        },
        "score": 0
    },
    "chromosome_43": {
        "layer_0": {
            "neuron_0": {
                "bias": 0.3815637230873108,
                "weights": [
                    -0.18156373500823975,
                    -0.6931638717651367,
                    -0.4828241765499115
                ]
            },
            "neuron_1": {
                "bias": -0.1088869571685791,
                "weights": [
                    0.03672295808792114,
                    0.024204254150390625,
                    -0.5907071232795715
                ]
            },
            "neuron_2": {
                "bias": 0.2807733416557312,
                "weights": [
                    0.5951506495475769,
                    -0.047148048877716064,
                    -0.3840845823287964
                ]
            },
            "neuron_3": {
                "bias": 0.6715018153190613,
                "weights": [
                    0.43638116121292114,
                    0.6824396252632141,
                    -0.5842127799987793
                ]
            }
        },
        "layer_1": {
            "neuron_0": {
                "bias": -0.05753040313720703,
                "weights": [
                    -0.5742576122283936,
                    0.4325358271598816,
                    0.20215767621994019,
                    -0.37314674258232117
                ]
            },
            "neuron_1": {
                "bias": -0.27671435475349426,
                "weights": [
                    -0.04462718963623047,
                    0.550544798374176,
                    -0.3756248652935028,
                    0.6415936350822449
                ]
            },
            "neuron_2": {
                "bias": 0.42847687005996704,
                "weights": [
                    0.630442202091217,
                    0.29598379135131836,
                    0.10687887668609619,
                    -0.3538346290588379
                ]
            },
            "neuron_3": {
                "bias": 0.04586625099182129,
                "weights": [
                    0.4325358271598816,
                    -0.5876308679580688,
                    0.6615466475486755,
                    -0.6468916535377502
                ]
            }
        },
        "output": {
