{
    "chromosome_0": {
        "layer_0": {
            "neuron_0": {
                "bias": -0.3900662064552307,
                "weights": [
                    0.5947151780128479,
                    0.5054780840873718,
                    1.941964030265808
                ]
            },
            "neuron_1": {
                "bias": -0.3138902485370636,
                "weights": [
                    0.474065363407135,
                    0.3297799229621887,
                    0.0777825117111206
                ]
            },
            "neuron_2": {
                "bias": -0.35554367303848267,
                "weights": [
                    0.007455706596374512,
                    0.015915393829345703,
                    0.13413798809051514
                ]
            },
            "neuron_3": {
                "bias": 0.2500106692314148,
                "weights": [
                    0.5476394295692444,
                    -0.4981544613838196,
                    -0.37292423844337463
                ]
            }
        },
        "layer_1": {
            "neuron_0": {
                "bias": 0.5791711211204529,
                "weights": [
                    -0.22710958123207092,
                    -0.3159428834915161,
                    0.42574232816696167,
                    -0.4459196627140045
                ]
            },
            "neuron_1": {
                "bias": -0.5574663281440735,
                "weights": [
                    0.30581074953079224,
                    -0.6443296670913696,
                    0.5455885529518127,
                    0.6446699500083923
                ]
            },
            "neuron_2": {
                "bias": 0.239457368850708,
                "weights": [
                    0.5176457762718201,
                    0.5299509167671204,
                    0.5045717358589172,
                    -0.46928006410598755
                ]
            },
            "neuron_3": {
                "bias": -0.1343943476676941,
                "weights": [
                    0.41993170976638794,
                    0.25227516889572144,
                    0.13204443454742432,
                    -0.525977373123169
                ]
            }
        },
        "output": {
            "bias": 0.03304851055145264,
            "weights": [
                0.4882504343986511,
                -0.35387736558914185,
                -0.4647938311100006,
                0.2704358696937561
            ]
        },
        "score": 1
    },
    "chromosome_1": {
        "layer_0": {
            "neuron_0": {
                "bias": -0.3900662064552307,
                "weights": [
                    0.5947151780128479,
                    0.5054780840873718,
                    1.941964030265808
                ]
            },
            "neuron_1": {
                "bias": -0.3858092725276947,
                "weights": [
                    0.474065363407135,
                    0.3297799229621887,
                    0.0777825117111206
                ]
            },
            "neuron_2": {
                "bias": -0.35554367303848267,
                "weights": [
                    0.007455706596374512,
                    0.015915393829345703,
                    0.13413798809051514
                ]
            },
            "neuron_3": {
                "bias": 0.2500106692314148,
                "weights": [
                    0.5476394295692444,
                    -0.4981544613838196,
                    -0.37292423844337463
                ]
            }
        },
        "layer_1": {
            "neuron_0": {
                "bias": 0.5791711211204529,
                "weights": [
                    -0.22710958123207092,
                    -0.07474899291992188,
                    0.42574232816696167,
                    -0.4459196627140045
                ]
            },
            "neuron_1": {
                "bias": -0.5574663281440735,
                "weights": [
                    0.30581074953079224,
                    -0.6443296670913696,
                    0.5455885529518127,
                    0.6446699500083923
                ]
            },
            "neuron_2": {
                "bias": 0.239457368850708,
                "weights": [
                    0.5176457762718201,
                    0.5299509167671204,
                    0.5045717358589172,
                    -0.9063152074813843
                ]
            },
            "neuron_3": {
                "bias": -0.1343943476676941,
                "weights": [
                    0.41993170976638794,
                    0.25227516889572144,
                    0.13204443454742432,
                    -0.525977373123169
                ]
            }
        },
        "output": {
            "bias": 0.03304851055145264,
            "weights": [
                0.4882504343986511,
                -0.35387736558914185,
                -0.4647938311100006,
                0.2704358696937561
            ]
        },
        "score": 5
    },
    "chromosome_10": {
        "layer_0": {
            "neuron_0": {
                "bias": -0.3900662064552307,
                "weights": [
                    0.5947151780128479,
                    0.5054780840873718,
                    1.941964030265808
                ]
            },
            "neuron_1": {
                "bias": -0.3138902485370636,
                "weights": [
                    0.7836419939994812,
                    0.3297799229621887,
                    0.0777825117111206
                ]
            },
            "neuron_2": {
                "bias": -0.35554367303848267,
                "weights": [
                    0.007455706596374512,
                    0.015915393829345703,
                    0.13413798809051514
                ]
            },
            "neuron_3": {
                "bias": 0.2500106692314148,
                "weights": [
                    0.5476394295692444,
                    -0.4981544613838196,
                    -0.33956417441368103
                ]
            }
        },
        "layer_1": {
            "neuron_0": {
                "bias": 0.5791711211204529,
                "weights": [
                    -0.22710958123207092,
                    -0.3159428834915161,
                    0.42574232816696167,
                    -0.4459196627140045
                ]
            },
            "neuron_1": {
                "bias": -0.5574663281440735,
                "weights": [
                    0.30581074953079224,
                    -0.534522533416748,
                    0.5455885529518127,
                    0.6446699500083923
                ]
            },
            "neuron_2": {
                "bias": 0.239457368850708,
                "weights": [
                    0.5176457762718201,
                    0.5299509167671204,
                    0.5045717358589172,
                    -0.46928006410598755
                ]
            },
            "neuron_3": {
                "bias": -0.1343943476676941,
                "weights": [
                    0.41993170976638794,
                    0.25227516889572144,
                    0.13204443454742432,
                    -0.525977373123169
                ]
            }
        },
        "output": {
            "bias": 0.03304851055145264,
            "weights": [
                0.4882504343986511,
                -0.35387736558914185,
                -0.4647938311100006,
                0.2704358696937561
            ]
        },
        "score": 1
    },
    "chromosome_11": {
        "layer_0": {
            "neuron_0": {
                "bias": -0.3900662064552307,
                "weights": [
                    0.5947151780128479,
                    0.5054780840873718,
                    1.941964030265808
                ]
            },
            "neuron_1": {
                "bias": -0.3858092725276947,
                "weights": [
                    0.474065363407135,
                    0.3297799229621887,
                    0.0777825117111206
                ]
            },
            "neuron_2": {
                "bias": -0.35554367303848267,
                "weights": [
                    0.007455706596374512,
                    0.015915393829345703,
                    0.13413798809051514
                ]
            },
            "neuron_3": {
                "bias": 0.2500106692314148,
                "weights": [
                    0.5476394295692444,
                    -0.4981544613838196,
                    -0.33956417441368103
                ]
            }
        },
        "layer_1": {
            "neuron_0": {
                "bias": 0.5791711211204529,
                "weights": [
                    -0.22710958123207092,
                    -0.07474899291992188,
                    0.42574232816696167,
                    -0.4459196627140045
                ]
            },
            "neuron_1": {
                "bias": -0.5574663281440735,
                "weights": [
                    0.30581074953079224,
                    -0.534522533416748,
                    0.5455885529518127,
                    0.6446699500083923
                ]
            },
            "neuron_2": {
                "bias": 0.239457368850708,
                "weights": [
                    0.5176457762718201,
                    0.5299509167671204,
                    0.5045717358589172,
                    -0.9063152074813843
                ]
            },
            "neuron_3": {
                "bias": -0.1343943476676941,
                "weights": [
                    0.41993170976638794,
                    0.25227516889572144,
                    0.13204443454742432,
                    -0.525977373123169
                ]
            }
        },
        "output": {
            "bias": 0.03304851055145264,
            "weights": [
                0.4882504343986511,
                -0.35387736558914185,
                -0.4647938311100006,
                0.2704358696937561
            ]
        },
        "score": 5
    },
    "chromosome_12": {
        "layer_0": {
            "neuron_0": {
                "bias": -0.3900662064552307,
                "weights": [
                    0.5947151780128479,
                    0.5054780840873718,
                    1.941964030265808
                ]
            },
            "neuron_1": {
                "bias": -0.3138902485370636,
                "weights": [
                    0.474065363407135,
                    0.5054765343666077,
                    0.0777825117111206
                ]
            },
            "neuron_2": {
                "bias": -0.35554367303848267,
                "weights": [
                    0.007455706596374512,
                    0.015915393829345703,
                    0.13413798809051514
                ]
            },
            "neuron_3": {
                "bias": 0.2500106692314148,
                "weights": [
                    0.5476394295692444,
                    -0.4981544613838196,
                    -0.33956417441368103
                ]
            }
        },
        "layer_1": {
            "neuron_0": {
                "bias": 0.5791711211204529,
                "weights": [
                    -0.22710958123207092,
                    -0.07474899291992188,
                    0.42574232816696167,
                    -0.2870112955570221
                ]
            },
            "neuron_1": {
                "bias": -0.5574663281440735,
                "weights": [
                    0.30581074953079224,
                    -0.534522533416748,
                    0.5455885529518127,
                    0.6446699500083923
                ]
            },
            "neuron_2": {
                "bias": 0.239457368850708,
                "weights": [
                    0.5176457762718201,
                    0.5299509167671204,
                    0.5045717358589172,
                    -0.46928006410598755
                ]
            },
            "neuron_3": {
                "bias": -0.1343943476676941,
                "weights": [
                    0.41993170976638794,
                    0.25227516889572144,
                    0.13204443454742432,
                    -0.525977373123169
                ]
            }
        },
        "output": {
            "bias": 0.03304851055145264,
            "weights": [
                0.4882504343986511,
                -0.35387736558914185,
                -0.4647938311100006,
                -0.19536423683166504
            ]
        },
        "score": 1
    },
    "chromosome_13": {
        "layer_0": {
            "neuron_0": {
                "bias": -0.3900662064552307,
                "weights": [
                    0.5947151780128479,
                    0.5054780840873718,
                    1.941964030265808
                ]
            },
            "neuron_1": {
                "bias": -0.3138902485370636,
                "weights": [
                    0.474065363407135,
                    0.5054765343666077,
                    0.0777825117111206
                ]
            },
            "neuron_2": {
                "bias": -0.35554367303848267,
                "weights": [
                    0.007455706596374512,
                    0.015915393829345703,
                    0.13413798809051514
                ]
            },
            "neuron_3": {
                "bias": 0.2500106692314148,
                "weights": [
                    0.5476394295692444,
                    -0.4981544613838196,
                    -0.33956417441368103
                ]
            }
        },
        "layer_1": {
            "neuron_0": {
                "bias": 0.5791711211204529,
                "weights": [
                    -0.22710958123207092,
                    -0.07474899291992188,
                    0.42574232816696167,
                    -0.2870112955570221
                ]
            },
            "neuron_1": {
                "bias": -0.5574663281440735,
                "weights": [
                    0.30581074953079224,
                    -0.534522533416748,
                    0.5455885529518127,
                    0.6446699500083923
                ]
            },
            "neuron_2": {
                "bias": 0.239457368850708,
                "weights": [
                    0.5176457762718201,
                    0.5299509167671204,
                    0.5045717358589172,
                    -0.46928006410598755
                ]
            },
            "neuron_3": {
                "bias": -0.1343943476676941,
                "weights": [
                    0.41993170976638794,
                    0.25227516889572144,
                    0.13204443454742432,
                    -0.525977373123169
                ]
            }
        },
        "output": {
            "bias": 0.03304851055145264,
            "weights": [
                0.4882504343986511,
                -0.35387736558914185,
                -0.4647938311100006,
                -0.19536423683166504
            ]
        },
        "score": 1
    },
    "chromosome_14": {
        "layer_0": {
            "neuron_0": {
                "bias": -0.3900662064552307,
                "weights": [
                    0.5947151780128479,
                    0.5054780840873718,
                    1.941964030265808
                ]
            },
            "neuron_1": {
                "bias": -0.3138902485370636,
                "weights": [
                    0.474065363407135,
                    0.3297799229621887,
                    0.0777825117111206
                ]
            },
            "neuron_2": {
                "bias": -0.35554367303848267,
                "weights": [
                    0.007455706596374512,
                    0.015915393829345703,
                    0.13413798809051514
                ]
            },
            "neuron_3": {
                "bias": 0.2500106692314148,
                "weights": [
                    0.5476394295692444,
                    -0.04593026638031006,
                    -0.33956417441368103
                ]
            }
        },
        "layer_1": {
            "neuron_0": {
                "bias": 0.5791711211204529,
                "weights": [
                    -0.22710958123207092,
                    -0.07474899291992188,
                    0.42574232816696167,
                    -0.4459196627140045
                ]
            },
            "neuron_1": {
                "bias": -0.5574663281440735,
                "weights": [
                    0.30581074953079224,
                    -0.534522533416748,
                    0.5455885529518127,
                    0.6446699500083923
                ]
            },
            "neuron_2": {
                "bias": 0.239457368850708,
                "weights": [
                    0.5176457762718201,
                    0.5299509167671204,
                    0.5045717358589172,
                    -0.46928006410598755
                ]
            },
            "neuron_3": {
                "bias": -0.1343943476676941,
                "weights": [
                    0.41993170976638794,
                    0.25227516889572144,
                    0.13204443454742432,
                    -0.525977373123169
                ]
            }
        },
        "output": {
            "bias": 0.03304851055145264,
            "weights": [
                0.4882504343986511,
                -0.35387736558914185,
                -0.4647938311100006,
                -0.19536423683166504
            ]
        },
        "score": 46
    },
    "chromosome_15": {
        "layer_0": {
            "neuron_0": {
                "bias": -0.3900662064552307,
                "weights": [
                    0.5947151780128479,
                    0.5054780840873718,
                    1.941964030265808
                ]
            },
            "neuron_1": {
                "bias": -0.3138902485370636,
                "weights": [
                    0.474065363407135,
                    0.3297799229621887,
                    0.0777825117111206
                ]
            },
            "neuron_2": {
                "bias": -0.35554367303848267,
                "weights": [
                    0.007455706596374512,
                    0.015915393829345703,
                    0.13413798809051514
                ]
            },
            "neuron_3": {
                "bias": 0.2500106692314148,
                "weights": [
                    0.5476394295692444,
                    -0.4981544613838196,
                    -0.33956417441368103
                ]
            }
        },
        "layer_1": {
            "neuron_0": {
                "bias": 0.5791711211204529,
                "weights": [
                    -0.22710958123207092,
                    -0.07474899291992188,
                    0.42574232816696167,
                    -0.4459196627140045
                ]
            },
            "neuron_1": {
                "bias": -0.5574663281440735,
                "weights": [
                    0.30581074953079224,
                    -0.534522533416748,
                    0.5455885529518127,
                    0.6446699500083923
                ]
            },
            "neuron_2": {
                "bias": 0.239457368850708,
                "weights": [
                    0.5176457762718201,
                    0.5299509167671204,
                    0.5045717358589172,
                    -0.46928006410598755
                ]
            },
            "neuron_3": {
                "bias": -0.1343943476676941,
                "weights": [
                    0.41993170976638794,
                    0.25227516889572144,
                    0.13204443454742432,
                    -0.525977373123169
                ]
            }
        },
        "output": {
            "bias": 0.03304851055145264,
            "weights": [
                0.4882504343986511,
                -0.35387736558914185,
                -0.4647938311100006,
                0.2704358696937561
            ]
        },
        "score": 1
    },
    "chromosome_16": {
        "layer_0": {
            "neuron_0": {
                "bias": -0.3900662064552307,
                "weights": [
                    0.5947151780128479,
                    0.5054780840873718,
                    1.941964030265808
                ]
            },
            "neuron_1": {
                "bias": -0.3138902485370636,
                "weights": [
                    0.474065363407135,
                    0.5054765343666077,
                    0.0777825117111206
                ]
            },
            "neuron_2": {
                "bias": -0.35554367303848267,
                "weights": [
                    0.007455706596374512,
                    0.015915393829345703,
                    0.13413798809051514
                ]
            },
            "neuron_3": {
                "bias": 0.2500106692314148,
                "weights": [
                    0.5476394295692444,
                    -0.4981544613838196,
                    -0.33956417441368103
                ]
            }
        },
        "layer_1": {
            "neuron_0": {
                "bias": 0.5791711211204529,
                "weights": [
                    -0.22710958123207092,
                    -0.07474899291992188,
                    0.42574232816696167,
                    -0.2870112955570221
                ]
            },
            "neuron_1": {
                "bias": -0.5574663281440735,
                "weights": [
                    0.30581074953079224,
                    -0.534522533416748,
                    0.5455885529518127,
                    0.6446699500083923
                ]
            },
            "neuron_2": {
                "bias": 0.239457368850708,
                "weights": [
                    0.5176457762718201,
                    0.5299509167671204,
                    0.5195447206497192,
                    -0.46928006410598755
                ]
            },
            "neuron_3": {
                "bias": -0.1343943476676941,
                "weights": [
                    0.41993170976638794,
                    0.25227516889572144,
                    0.13204443454742432,
                    -0.525977373123169
                ]
            }
        },
        "output": {
            "bias": 0.03304851055145264,
            "weights": [
                0.4882504343986511,
                -0.35387736558914185,
                -0.4647938311100006,
                -0.19536423683166504
            ]
        },
        "score": 1
    },
    "chromosome_17": {
        "layer_0": {
            "neuron_0": {
                "bias": -0.3900662064552307,
                "weights": [
                    0.5947151780128479,
                    0.5054780840873718,
                    1.941964030265808
                ]
            },
            "neuron_1": {
                "bias": -0.3138902485370636,
                "weights": [
                    0.474065363407135,
                    0.3297799229621887,
                    0.0777825117111206
                ]
            },
            "neuron_2": {
                "bias": -0.35554367303848267,
                "weights": [
                    0.007455706596374512,
                    0.015915393829345703,
                    0.13413798809051514
                ]
            },
            "neuron_3": {
                "bias": 0.2500106692314148,
                "weights": [
                    0.5476394295692444,
                    -0.4981544613838196,
                    -0.33956417441368103
                ]
            }
        },
        "layer_1": {
            "neuron_0": {
                "bias": 0.5791711211204529,
                "weights": [
                    -0.22710958123207092,
                    -0.3159428834915161,
                    0.42574232816696167,
                    -0.4459196627140045
                ]
            },
            "neuron_1": {
                "bias": -0.5574663281440735,
                "weights": [
                    0.30581074953079224,
                    -0.534522533416748,
                    0.5455885529518127,
                    0.6446699500083923
                ]
            },
            "neuron_2": {
                "bias": 0.239457368850708,
                "weights": [
                    0.5176457762718201,
                    0.5299509167671204,
                    0.5045717358589172,
                    -0.46928006410598755
                ]
            },
            "neuron_3": {
                "bias": -0.1343943476676941,
                "weights": [
                    0.41993170976638794,
                    0.25227516889572144,
                    0.13204443454742432,
                    -0.525977373123169
                ]
            }
        },
        "output": {
            "bias": 0.03304851055145264,
            "weights": [
                0.4882504343986511,
                -0.35387736558914185,
                -0.4647938311100006,
                0.2704358696937561
            ]
        },
        "score": 1
    },
    "chromosome_18": {
        "layer_0": {
            "neuron_0": {
                "bias": -0.3900662064552307,
                "weights": [
                    0.5947151780128479,
                    0.5054780840873718,
                    1.941964030265808
                ]
            },
            "neuron_1": {
                "bias": -0.3138902485370636,
                "weights": [
                    0.474065363407135,
                    0.3297799229621887,
                    0.0777825117111206
                ]
            },
            "neuron_2": {
                "bias": -0.35554367303848267,
                "weights": [
                    0.007455706596374512,
                    0.015915393829345703,
                    0.13413798809051514
                ]
            },
            "neuron_3": {
                "bias": 0.2500106692314148,
                "weights": [
                    0.5476394295692444,
                    -0.4981544613838196,
                    -0.33956417441368103
                ]
            }
        },
        "layer_1": {
            "neuron_0": {
                "bias": 0.5791711211204529,
                "weights": [
                    -0.22710958123207092,
                    -0.07474899291992188,
                    0.42574232816696167,
                    -0.4459196627140045
                ]
            },
            "neuron_1": {
                "bias": -0.5574663281440735,
                "weights": [
                    0.30581074953079224,
                    -0.534522533416748,
                    0.5455885529518127,
                    0.6446699500083923
                ]
            },
            "neuron_2": {
                "bias": 0.239457368850708,
                "weights": [
                    0.5176457762718201,
                    0.5299509167671204,
                    0.5045717358589172,
                    -0.46928006410598755
                ]
            },
            "neuron_3": {
                "bias": -0.1343943476676941,
                "weights": [
                    0.41993170976638794,
                    0.25227516889572144,
                    0.13204443454742432,
                    -0.525977373123169
                ]
            }
        },
        "output": {
            "bias": 0.03304851055145264,
            "weights": [
                0.4882504343986511,
                -0.35387736558914185,
                -0.4647938311100006,
                0.2704358696937561
            ]
        },
        "score": 1
    },
    "chromosome_19": {
        "layer_0": {
            "neuron_0": {
                "bias": -0.3900662064552307,
                "weights": [
                    -0.14753097295761108,
                    0.5054780840873718,
                    1.941964030265808
                ]
            },
            "neuron_1": {
                "bias": -0.3138902485370636,
                "weights": [
                    0.474065363407135,
                    0.5054765343666077,
                    0.0777825117111206
                ]
            },
            "neuron_2": {
                "bias": -0.35554367303848267,
                "weights": [
                    0.007455706596374512,
                    0.015915393829345703,
                    0.13413798809051514
                ]
            },
            "neuron_3": {
                "bias": 0.2500106692314148,
                "weights": [
                    0.5476394295692444,
                    -0.4981544613838196,
                    -0.33956417441368103
                ]
            }
        },
        "layer_1": {
            "neuron_0": {
                "bias": 0.5791711211204529,
                "weights": [
                    -0.22710958123207092,
                    -0.07474899291992188,
                    0.42574232816696167,
                    -0.2870112955570221
                ]
            },
            "neuron_1": {
                "bias": -0.5574663281440735,
                "weights": [
                    0.30581074953079224,
                    -0.534522533416748,
                    0.5455885529518127,
                    0.6446699500083923
                ]
            },
            "neuron_2": {
                "bias": 0.239457368850708,
                "weights": [
                    0.5176457762718201,
                    0.5299509167671204,
                    0.5045717358589172,
                    -0.46928006410598755
                ]
            },
            "neuron_3": {
                "bias": -0.1343943476676941,
                "weights": [
                    0.41993170976638794,
                    0.25227516889572144,
                    0.13204443454742432,
                    -0.525977373123169
                ]
            }
        },
        "output": {
            "bias": 0.03304851055145264,
            "weights": [
                0.4882504343986511,
                -0.35387736558914185,
                -0.4647938311100006,
                -0.19536423683166504
            ]
        },
        "score": 2
    },
    "chromosome_2": {
        "layer_0": {
            "neuron_0": {
                "bias": -0.3900662064552307,
                "weights": [
                    0.5947151780128479,
                    0.5054780840873718,
                    1.941964030265808
                ]
            },
            "neuron_1": {
                "bias": -0.3138902485370636,
                "weights": [
                    0.474065363407135,
                    0.5054765343666077,
                    0.0777825117111206
                ]
            },
            "neuron_2": {
                "bias": -0.35554367303848267,
                "weights": [
                    0.007455706596374512,
                    0.015915393829345703,
                    0.13413798809051514
                ]
            },
            "neuron_3": {
                "bias": 0.2500106692314148,
                "weights": [
                    0.5476394295692444,
                    -0.4981544613838196,
                    -0.37292423844337463
                ]
            }
        },
        "layer_1": {
            "neuron_0": {
                "bias": 0.5791711211204529,
                "weights": [
                    -0.22710958123207092,
                    -0.07474899291992188,
                    0.42574232816696167,
                    -0.2870112955570221
                ]
            },
            "neuron_1": {
                "bias": -0.5574663281440735,
                "weights": [
                    0.30581074953079224,
                    -0.6443296670913696,
                    0.5455885529518127,
                    0.6446699500083923
                ]
            },
            "neuron_2": {
                "bias": 0.239457368850708,
                "weights": [
                    0.5176457762718201,
                    0.5299509167671204,
                    0.5045717358589172,
                    -0.46928006410598755
                ]
            },
            "neuron_3": {
                "bias": -0.1343943476676941,
                "weights": [
                    0.41993170976638794,
                    0.25227516889572144,
                    0.13204443454742432,
                    -0.525977373123169
                ]
            }
        },
        "output": {
            "bias": 0.03304851055145264,
            "weights": [
                0.4882504343986511,
                -0.35387736558914185,
                -0.4647938311100006,
                -0.19536423683166504
            ]
        },
        "score": 1
    },
    "chromosome_20": {
        "layer_0": {
            "neuron_0": {
                "bias": -0.3900662064552307,
                "weights": [
                    0.5947151780128479,
                    0.5054780840873718,
                    1.941964030265808
                ]
            },
            "neuron_1": {
                "bias": -0.3138902485370636,
                "weights": [
                    0.474065363407135,
                    0.3297799229621887,
                    0.0777825117111206
                ]
            },
            "neuron_2": {
                "bias": -0.35554367303848267,
                "weights": [
                    0.007455706596374512,
                    0.015915393829345703,
                    0.13413798809051514
                ]
            },
            "neuron_3": {
                "bias": 0.2500106692314148,
                "weights": [
                    0.5476394295692444,
                    -0.4981544613838196,
                    -0.33956417441368103
                ]
            }
        },
        "layer_1": {
            "neuron_0": {
                "bias": 0.5791711211204529,
                "weights": [
                    -0.22710958123207092,
                    -0.3159428834915161,
                    0.42574232816696167,
                    -0.4459196627140045
                ]
            },
            "neuron_1": {
                "bias": -0.5574663281440735,
                "weights": [
                    0.30581074953079224,
                    -0.534522533416748,
                    0.5455885529518127,
                    0.6446699500083923
                ]
            },
            "neuron_2": {
                "bias": 0.239457368850708,
                "weights": [
                    0.5176457762718201,
                    0.5299509167671204,
                    0.5045717358589172,
                    -0.46928006410598755
                ]
            },
            "neuron_3": {
                "bias": -0.1343943476676941,
                "weights": [
                    0.41993170976638794,
                    0.25227516889572144,
                    0.13204443454742432,
                    -0.525977373123169
                ]
            }
        },
        "output": {
            "bias": 0.03304851055145264,
            "weights": [
                0.4882504343986511,
                -0.35387736558914185,
                -0.4647938311100006,
                0.2704358696937561
            ]
        },
        "score": 1
    },
    "chromosome_21": {
        "layer_0": {
            "neuron_0": {
                "bias": -0.3900662064552307,
                "weights": [
                    0.5947151780128479,
                    0.5054780840873718,
                    1.941964030265808
                ]
            },
            "neuron_1": {
                "bias": -0.3858092725276947,
                "weights": [
                    0.474065363407135,
                    0.3297799229621887,
                    0.0777825117111206
                ]
            },
            "neuron_2": {
                "bias": -0.35554367303848267,
                "weights": [
                    0.007455706596374512,
                    0.015915393829345703,
                    0.13413798809051514
                ]
            },
            "neuron_3": {
                "bias": 0.2500106692314148,
                "weights": [
                    0.7064864039421082,
                    -0.4981544613838196,
                    -0.33956417441368103
                ]
            }
        },
        "layer_1": {
            "neuron_0": {
                "bias": 0.5791711211204529,
                "weights": [
                    -0.22710958123207092,
                    -0.07474899291992188,
                    0.42574232816696167,
                    -0.4459196627140045
                ]
            },
            "neuron_1": {
                "bias": -0.5574663281440735,
                "weights": [
                    0.30581074953079224,
                    -0.534522533416748,
                    0.5455885529518127,
                    0.6446699500083923
                ]
            },
            "neuron_2": {
                "bias": 0.239457368850708,
                "weights": [
                    0.5176457762718201,
                    0.5299509167671204,
                    0.5045717358589172,
                    -0.9063152074813843
                ]
            },
            "neuron_3": {
                "bias": -0.1343943476676941,
                "weights": [
                    0.41993170976638794,
                    0.25227516889572144,
                    0.13204443454742432,
                    -0.525977373123169
                ]
            }
        },
        "output": {
            "bias": 0.03304851055145264,
            "weights": [
                0.4882504343986511,
                -0.35387736558914185,
                -0.4647938311100006,
                0.2704358696937561
            ]
        },
        "score": 2
    },
    "chromosome_22": {
        "layer_0": {
            "neuron_0": {
                "bias": -0.3900662064552307,
                "weights": [
                    0.5947151780128479,
                    0.5054780840873718,
                    1.941964030265808
                ]
            },
            "neuron_1": {
                "bias": -0.3138902485370636,
                "weights": [
                    0.474065363407135,
                    0.5054765343666077,
                    0.0777825117111206
                ]
            },
            "neuron_2": {
                "bias": -0.35554367303848267,
                "weights": [
                    0.007455706596374512,
                    0.015915393829345703,
                    0.13413798809051514
                ]
            },
            "neuron_3": {
                "bias": 0.2500106692314148,
                "weights": [
                    0.5476394295692444,
                    -0.4981544613838196,
                    -0.33956417441368103
                ]
            }
        },
        "layer_1": {
            "neuron_0": {
                "bias": 0.5791711211204529,
                "weights": [
                    -0.22710958123207092,
                    -0.07474899291992188,
                    0.42574232816696167,
                    -0.2870112955570221
                ]
            },
            "neuron_1": {
                "bias": -0.5574663281440735,
                "weights": [
                    0.30581074953079224,
                    -0.534522533416748,
                    0.5455885529518127,
                    0.6446699500083923
                ]
            },
            "neuron_2": {
                "bias": 0.239457368850708,
                "weights": [
                    -0.008265674114227295,
                    0.5299509167671204,
                    0.5045717358589172,
                    -0.46928006410598755
                ]
            },
            "neuron_3": {
                "bias": -0.1343943476676941,
                "weights": [
                    -0.1361161470413208,
                    0.25227516889572144,
                    0.13204443454742432,
                    -0.525977373123169
                ]
            }
        },
        "output": {
            "bias": 0.03304851055145264,
            "weights": [
                0.4882504343986511,
                -0.35387736558914185,
                -0.4647938311100006,
                -0.19536423683166504
            ]
        },
        "score": 5
    },
    "chromosome_23": {
        "layer_0": {
            "neuron_0": {
                "bias": -0.3900662064552307,
                "weights": [
                    0.5947151780128479,
                    0.5054780840873718,
                    1.941964030265808
                ]
            },
            "neuron_1": {
                "bias": -0.3138902485370636,
                "weights": [
                    0.474065363407135,
                    0.5054765343666077,
                    0.0777825117111206
                ]
            },
            "neuron_2": {
                "bias": -0.35554367303848267,
                "weights": [
                    0.007455706596374512,
                    0.015915393829345703,
                    0.13413798809051514
                ]
            },
            "neuron_3": {
                "bias": 0.2500106692314148,
                "weights": [
                    0.5476394295692444,
                    -0.4981544613838196,
                    -0.33956417441368103
                ]
            }
        },
        "layer_1": {
            "neuron_0": {
                "bias": 0.5791711211204529,
                "weights": [
                    -0.22710958123207092,
                    -0.07474899291992188,
                    0.42574232816696167,
                    -0.2870112955570221
                ]
            },
            "neuron_1": {
                "bias": -0.5574663281440735,
                "weights": [
                    0.30581074953079224,
                    -0.534522533416748,
                    0.5455885529518127,
                    0.6446699500083923
                ]
            },
            "neuron_2": {
                "bias": 0.239457368850708,
                "weights": [
                    0.5176457762718201,
                    0.5299509167671204,
                    0.5045717358589172,
                    -0.46928006410598755
                ]
            },
            "neuron_3": {
                "bias": -0.1343943476676941,
                "weights": [
                    0.41993170976638794,
                    0.25227516889572144,
                    0.13204443454742432,
                    -0.525977373123169
                ]
            }
        },
        "output": {
            "bias": 0.03304851055145264,
            "weights": [
                0.4882504343986511,
                -0.35387736558914185,
                -0.4647938311100006,
                -0.19536423683166504
            ]
        },
        "score": 1
    },
    "chromosome_24": {
        "layer_0": {
            "neuron_0": {
                "bias": -0.3900662064552307,
                "weights": [
                    0.5947151780128479,
                    0.5054780840873718,
                    1.941964030265808
                ]
            },
            "neuron_1": {
                "bias": -0.3138902485370636,
                "weights": [
                    0.474065363407135,
                    0.3297799229621887,
                    0.0777825117111206
                ]
            },
            "neuron_2": {
                "bias": -0.35554367303848267,
                "weights": [
                    0.007455706596374512,
                    0.015915393829345703,
                    0.13413798809051514
                ]
            },
            "neuron_3": {
                "bias": 0.2500106692314148,
                "weights": [
                    0.5476394295692444,
                    -0.04593026638031006,
                    -0.33956417441368103
                ]
            }
        },
        "layer_1": {
            "neuron_0": {
                "bias": 0.5791711211204529,
                "weights": [
                    -0.22710958123207092,
                    -0.07474899291992188,
                    0.42574232816696167,
                    -0.4459196627140045
                ]
            },
            "neuron_1": {
                "bias": -0.5574663281440735,
                "weights": [
                    0.30581074953079224,
                    -0.534522533416748,
                    0.5455885529518127,
                    0.6446699500083923
                ]
            },
            "neuron_2": {
                "bias": 0.239457368850708,
                "weights": [
                    0.8055128455162048,
                    0.5299509167671204,
                    0.5045717358589172,
                    -0.46928006410598755
                ]
            },
            "neuron_3": {
                "bias": -0.1343943476676941,
                "weights": [
                    0.41993170976638794,
                    0.25227516889572144,
                    0.13204443454742432,
                    -0.525977373123169
                ]
            }
        },
        "output": {
            "bias": 0.03304851055145264,
            "weights": [
                0.4882504343986511,
                -0.35387736558914185,
                -0.4647938311100006,
                -0.19536423683166504
            ]
        },
        "score": 46
    },
    "chromosome_25": {
        "layer_0": {
            "neuron_0": {
                "bias": -0.3900662064552307,
                "weights": [
                    0.5947151780128479,
                    0.5054780840873718,
                    1.941964030265808
                ]
            },
            "neuron_1": {
                "bias": -0.3138902485370636,
                "weights": [
                    0.474065363407135,
                    0.3297799229621887,
                    0.0777825117111206
                ]
            },
            "neuron_2": {
                "bias": -0.35554367303848267,
                "weights": [
                    -0.005993783473968506,
                    0.015915393829345703,
                    0.13413798809051514
                ]
            },
            "neuron_3": {
                "bias": 0.2500106692314148,
                "weights": [
                    0.5476394295692444,
                    -0.4981544613838196,
                    -0.33956417441368103
                ]
            }
        },
        "layer_1": {
            "neuron_0": {
                "bias": 0.5791711211204529,
                "weights": [
                    -0.22710958123207092,
                    -0.07474899291992188,
                    0.42574232816696167,
                    -0.4459196627140045
                ]
            },
            "neuron_1": {
                "bias": -0.5574663281440735,
                "weights": [
                    0.30581074953079224,
                    -0.534522533416748,
                    0.5455885529518127,
                    0.6446699500083923
                ]
            },
            "neuron_2": {
                "bias": 0.239457368850708,
                "weights": [
                    0.5176457762718201,
                    0.5299509167671204,
                    0.5045717358589172,
                    -0.46928006410598755
                ]
            },
            "neuron_3": {
                "bias": -0.1343943476676941,
                "weights": [
                    0.41993170976638794,
                    0.25227516889572144,
                    0.13204443454742432,
                    -0.525977373123169
                ]
            }
        },
        "output": {
            "bias": 0.03304851055145264,
            "weights": [
                0.4882504343986511,
                -0.35387736558914185,
                -0.4647938311100006,
                0.2704358696937561
            ]
        },
        "score": 1
    },
    "chromosome_26": {
        "layer_0": {
            "neuron_0": {
                "bias": -0.3900662064552307,
                "weights": [
                    0.5947151780128479,
                    0.5054780840873718,
                    1.941964030265808
                ]
            },
            "neuron_1": {
                "bias": -0.3138902485370636,
                "weights": [
                    0.474065363407135,
                    0.5054765343666077,
                    0.0777825117111206
                ]
            },
            "neuron_2": {
                "bias": -0.35554367303848267,
                "weights": [
                    0.007455706596374512,
                    0.015915393829345703,
                    0.13413798809051514
                ]
            },
            "neuron_3": {
                "bias": 0.2500106692314148,
                "weights": [
                    0.5476394295692444,
                    -0.4981544613838196,
                    -0.33956417441368103
                ]
            }
        },
        "layer_1": {
            "neuron_0": {
                "bias": 0.5791711211204529,
                "weights": [
                    -0.22710958123207092,
                    -0.07474899291992188,
                    0.42574232816696167,
                    -0.2870112955570221
                ]
            },
            "neuron_1": {
                "bias": -0.5574663281440735,
                "weights": [
                    0.30581074953079224,
                    -0.534522533416748,
                    0.5455885529518127,
                    0.6446699500083923
                ]
            },
            "neuron_2": {
                "bias": 0.239457368850708,
                "weights": [
                    0.5176457762718201,
                    0.5299509167671204,
                    0.5045717358589172,
                    -0.46928006410598755
                ]
            },
            "neuron_3": {
                "bias": -0.1343943476676941,
                "weights": [
                    0.41993170976638794,
                    0.25227516889572144,
                    0.13204443454742432,
                    -0.525977373123169
                ]
            }
        },
        "output": {
            "bias": 0.03304851055145264,
            "weights": [
                0.4882504343986511,
                -0.35387736558914185,
                -0.4647938311100006,
                -0.19536423683166504
            ]
        },
        "score": 1
    },
    "chromosome_27": {
        "layer_0": {
            "neuron_0": {
                "bias": -0.3900662064552307,
                "weights": [
                    0.5947151780128479,
                    0.5054780840873718,
                    1.941964030265808
                ]
            },
            "neuron_1": {
                "bias": -0.3138902485370636,
                "weights": [
                    0.474065363407135,
                    0.3297799229621887,
                    0.0777825117111206
                ]
            },
            "neuron_2": {
                "bias": -0.35554367303848267,
                "weights": [
                    0.007455706596374512,
                    0.015915393829345703,
                    0.13413798809051514
                ]
            },
            "neuron_3": {
                "bias": 0.2500106692314148,
                "weights": [
                    0.5476394295692444,
                    -0.4981544613838196,
                    -0.33956417441368103
                ]
            }
        },
        "layer_1": {
            "neuron_0": {
                "bias": 0.5791711211204529,
                "weights": [
                    -0.22710958123207092,
                    -0.3159428834915161,
                    0.42574232816696167,
                    -0.4459196627140045
                ]
            },
            "neuron_1": {
                "bias": -0.5574663281440735,
                "weights": [
                    0.30581074953079224,
                    -0.534522533416748,
                    0.5455885529518127,
                    0.6446699500083923
                ]
            },
            "neuron_2": {
                "bias": 0.239457368850708,
                "weights": [
                    0.5176457762718201,
                    0.5299509167671204,
                    0.5045717358589172,
                    -0.46928006410598755
                ]
            },
            "neuron_3": {
                "bias": -0.1343943476676941,
                "weights": [
                    0.41993170976638794,
                    0.25227516889572144,
                    0.13204443454742432,
                    -0.525977373123169
                ]
            }
        },
        "output": {
            "bias": 0.03304851055145264,
            "weights": [
                0.4882504343986511,
                -0.35387736558914185,
                -0.4647938311100006,
                0.2704358696937561
            ]
        },
        "score": 1
    },
    "chromosome_28": {
        "layer_0": {
            "neuron_0": {
                "bias": -0.3900662064552307,
                "weights": [
                    0.5947151780128479,
                    0.5054780840873718,
                    1.941964030265808
                ]
            },
            "neuron_1": {
                "bias": -0.3138902485370636,
                "weights": [
                    0.474065363407135,
                    1.0200848579406738,
                    0.0777825117111206
                ]
            },
            "neuron_2": {
                "bias": -0.35554367303848267,
                "weights": [
                    0.007455706596374512,
                    0.015915393829345703,
                    0.13413798809051514
                ]
            },
            "neuron_3": {
                "bias": 0.2500106692314148,
                "weights": [
                    0.5476394295692444,
                    -0.4981544613838196,
                    -0.33956417441368103
                ]
            }
        },
        "layer_1": {
            "neuron_0": {
                "bias": 0.5791711211204529,
                "weights": [
                    -0.22710958123207092,
                    -0.07474899291992188,
                    0.3620178699493408,
                    -0.4459196627140045
                ]
            },
            "neuron_1": {
                "bias": -0.5574663281440735,
                "weights": [
                    0.30581074953079224,
                    -0.534522533416748,
                    0.5455885529518127,
                    0.6446699500083923
                ]
            },
            "neuron_2": {
                "bias": 0.239457368850708,
                "weights": [
                    0.5176457762718201,
                    0.5299509167671204,
                    0.5045717358589172,
                    -0.46928006410598755
                ]
            },
            "neuron_3": {
                "bias": -0.1343943476676941,
                "weights": [
                    0.41993170976638794,
                    0.25227516889572144,
                    0.13204443454742432,
                    -0.525977373123169
                ]
            }
        },
        "output": {
            "bias": 0.03304851055145264,
            "weights": [
                0.4882504343986511,
                -0.35387736558914185,
                -0.4647938311100006,
                0.2704358696937561
            ]
        },
        "score": 1
    },
    "chromosome_29": {
        "layer_0": {
            "neuron_0": {
                "bias": -0.3900662064552307,
                "weights": [
                    0.5947151780128479,
                    0.5054780840873718,
                    1.941964030265808
                ]
            },
            "neuron_1": {
                "bias": -0.3138902485370636,
                "weights": [
                    0.474065363407135,
                    0.5054765343666077,
                    0.0777825117111206
                ]
            },
            "neuron_2": {
                "bias": -0.35554367303848267,
                "weights": [
                    0.007455706596374512,
                    0.015915393829345703,
                    0.13413798809051514
                ]
            },
            "neuron_3": {
                "bias": 0.2500106692314148,
                "weights": [
                    0.5476394295692444,
                    -0.4981544613838196,
                    -0.33956417441368103
                ]
            }
        },
        "layer_1": {
            "neuron_0": {
                "bias": 0.5791711211204529,
                "weights": [
                    -0.22710958123207092,
                    -0.07474899291992188,
                    0.42574232816696167,
                    -0.2870112955570221
                ]
            },
            "neuron_1": {
                "bias": -0.5574663281440735,
                "weights": [
                    0.30581074953079224,
                    -0.534522533416748,
                    0.5455885529518127,
                    0.6446699500083923
                ]
            },
            "neuron_2": {
                "bias": 0.239457368850708,
                "weights": [
                    0.5176457762718201,
                    0.5299509167671204,
                    0.5045717358589172,
                    -0.46928006410598755
                ]
            },
            "neuron_3": {
                "bias": -0.1343943476676941,
                "weights": [
                    0.41993170976638794,
                    0.25227516889572144,
                    0.13204443454742432,
                    -0.525977373123169
                ]
            }
        },
        "output": {
            "bias": 0.03304851055145264,
            "weights": [
                0.4882504343986511,
                -0.35387736558914185,
                -0.4647938311100006,
                -0.19536423683166504
            ]
        },
        "score": 1
    },
    "chromosome_3": {
        "layer_0": {
            "neuron_0": {
                "bias": -0.3900662064552307,
                "weights": [
                    0.5947151780128479,
                    0.5054780840873718,
                    1.941964030265808
                ]
            },
            "neuron_1": {
                "bias": -0.3138902485370636,
                "weights": [
                    0.474065363407135,
                    0.5054765343666077,
                    0.0777825117111206
                ]
            },
            "neuron_2": {
                "bias": -0.35554367303848267,
                "weights": [
                    0.007455706596374512,
                    0.015915393829345703,
                    0.13413798809051514
                ]
            },
            "neuron_3": {
                "bias": 0.2500106692314148,
                "weights": [
                    0.5476394295692444,
                    -0.4981544613838196,
                    -0.37292423844337463
                ]
            }
        },
        "layer_1": {
            "neuron_0": {
                "bias": 0.5791711211204529,
                "weights": [
                    -0.22710958123207092,
                    -0.07474899291992188,
                    0.42574232816696167,
                    -0.2870112955570221
                ]
            },
            "neuron_1": {
                "bias": -0.5574663281440735,
                "weights": [
                    0.30581074953079224,
                    -0.6443296670913696,
                    0.5455885529518127,
                    0.6446699500083923
                ]
            },
            "neuron_2": {
                "bias": 0.239457368850708,
                "weights": [
                    0.5176457762718201,
                    0.5299509167671204,
                    0.5045717358589172,
                    -0.46928006410598755
                ]
            },
            "neuron_3": {
                "bias": -0.1343943476676941,
                "weights": [
                    0.41993170976638794,
                    0.25227516889572144,
                    0.13204443454742432,
                    -0.525977373123169
                ]
            }
        },
        "output": {
            "bias": 0.03304851055145264,
            "weights": [
                0.4882504343986511,
                -0.35387736558914185,
                -0.4647938311100006,
                -0.19536423683166504
            ]
        },
        "score": 1
    },
    "chromosome_30": {
        "layer_0": {
            "neuron_0": {
                "bias": -0.3900662064552307,
                "weights": [
                    0.5947151780128479,
                    0.5054780840873718,
                    1.941964030265808
                ]
            },
            "neuron_1": {
                "bias": -0.3138902485370636,
                "weights": [
                    0.474065363407135,
                    0.3297799229621887,
                    0.0777825117111206
                ]
            },
            "neuron_2": {
                "bias": -0.35554367303848267,
                "weights": [
                    0.007455706596374512,
                    0.015915393829345703,
                    0.13413798809051514
                ]
            },
            "neuron_3": {
                "bias": 0.2500106692314148,
                "weights": [
                    0.5476394295692444,
                    -0.4981544613838196,
                    -0.33956417441368103
                ]
            }
        },
        "layer_1": {
            "neuron_0": {
                "bias": 0.5791711211204529,
                "weights": [
                    -0.22710958123207092,
                    -0.3159428834915161,
                    0.42574232816696167,
                    -0.4459196627140045
                ]
            },
            "neuron_1": {
                "bias": -0.5574663281440735,
                "weights": [
                    0.30581074953079224,
                    -0.534522533416748,
                    0.5455885529518127,
                    0.6446699500083923
                ]
            },
            "neuron_2": {
                "bias": 0.239457368850708,
                "weights": [
                    0.5176457762718201,
                    0.5299509167671204,
                    0.5045717358589172,
                    -0.46928006410598755
                ]
            },
            "neuron_3": {
                "bias": -0.1343943476676941,
                "weights": [
                    0.41993170976638794,
                    0.25227516889572144,
                    0.13204443454742432,
                    -0.525977373123169
                ]
            }
        },
        "output": {
            "bias": 0.03304851055145264,
            "weights": [
                0.4882504343986511,
                -0.35387736558914185,
                -0.4647938311100006,
                0.2704358696937561
            ]
        },
        "score": 1
    },
    "chromosome_31": {
        "layer_0": {
            "neuron_0": {
                "bias": -0.3900662064552307,
                "weights": [
                    0.5947151780128479,
                    1.0363407135009766,
                    1.941964030265808
                ]
            },
            "neuron_1": {
                "bias": -0.3858092725276947,
                "weights": [
                    0.474065363407135,
                    0.3297799229621887,
                    0.0777825117111206
                ]
            },
            "neuron_2": {
                "bias": -0.35554367303848267,
                "weights": [
                    0.007455706596374512,
                    0.015915393829345703,
                    0.13413798809051514
                ]
            },
            "neuron_3": {
                "bias": 0.2500106692314148,
                "weights": [
                    0.5476394295692444,
                    -0.4981544613838196,
                    -0.33956417441368103
                ]
            }
        },
        "layer_1": {
            "neuron_0": {
                "bias": 0.5791711211204529,
                "weights": [
                    -0.22710958123207092,
                    -0.07474899291992188,
                    0.42574232816696167,
                    -0.4459196627140045
                ]
            },
            "neuron_1": {
                "bias": -0.5574663281440735,
                "weights": [
                    0.30581074953079224,
                    -0.534522533416748,
                    0.5455885529518127,
                    0.6446699500083923
                ]
            },
            "neuron_2": {
                "bias": 0.239457368850708,
                "weights": [
                    0.5176457762718201,
                    0.5299509167671204,
                    0.5045717358589172,
                    -0.9063152074813843
                ]
            },
            "neuron_3": {
                "bias": -0.1343943476676941,
                "weights": [
                    0.41993170976638794,
                    0.25227516889572144,
                    0.13204443454742432,
                    -0.525977373123169
                ]
            }
        },
        "output": {
            "bias": 0.03304851055145264,
            "weights": [
                0.4882504343986511,
                -0.35387736558914185,
                -0.4647938311100006,
                0.2704358696937561
            ]
        },
        "score": 5
    },
    "chromosome_32": {
        "layer_0": {
            "neuron_0": {
                "bias": -0.3900662064552307,
                "weights": [
                    0.5947151780128479,
                    0.5054780840873718,
                    1.941964030265808
                ]
            },
            "neuron_1": {
                "bias": -0.3138902485370636,
                "weights": [
                    0.474065363407135,
                    0.5054765343666077,
                    0.0777825117111206
                ]
            },
            "neuron_2": {
                "bias": -0.35554367303848267,
                "weights": [
                    0.007455706596374512,
                    0.015915393829345703,
                    0.13413798809051514
                ]
            },
            "neuron_3": {
                "bias": 0.2500106692314148,
                "weights": [
                    0.5476394295692444,
                    -0.4981544613838196,
                    -0.33956417441368103
                ]
            }
        },
        "layer_1": {
            "neuron_0": {
                "bias": 0.5791711211204529,
                "weights": [
                    -0.22710958123207092,
                    -0.07474899291992188,
                    0.42574232816696167,
                    -0.2870112955570221
                ]
            },
            "neuron_1": {
                "bias": -0.5574663281440735,
                "weights": [
                    0.30581074953079224,
                    -0.534522533416748,
                    0.5455885529518127,
                    0.6446699500083923
                ]
            },
            "neuron_2": {
                "bias": 0.239457368850708,
                "weights": [
                    0.5176457762718201,
                    0.5299509167671204,
                    0.5045717358589172,
                    -0.46928006410598755
                ]
            },
            "neuron_3": {
                "bias": -0.1343943476676941,
                "weights": [
                    0.41993170976638794,
                    0.25227516889572144,
                    0.13204443454742432,
                    -0.525977373123169
                ]
            }
        },
        "output": {
            "bias": 0.03304851055145264,
            "weights": [
                0.4882504343986511,
                -0.35387736558914185,
                -0.4647938311100006,
                -0.19536423683166504
            ]
        },
        "score": 1
    },
    "chromosome_33": {
        "layer_0": {
            "neuron_0": {
                "bias": -0.3900662064552307,
                "weights": [
                    0.5947151780128479,
                    0.5054780840873718,
                    1.941964030265808
                ]
            },
            "neuron_1": {
                "bias": -0.3138902485370636,
                "weights": [
                    0.474065363407135,
                    0.5054765343666077,
                    0.0777825117111206
                ]
            },
            "neuron_2": {
                "bias": -0.35554367303848267,
                "weights": [
                    0.007455706596374512,
                    0.015915393829345703,
                    0.13413798809051514
                ]
            },
            "neuron_3": {
                "bias": 0.2500106692314148,
                "weights": [
                    0.5476394295692444,
                    -0.4981544613838196,
                    -0.33956417441368103
                ]
            }
        },
        "layer_1": {
            "neuron_0": {
                "bias": 0.5791711211204529,
                "weights": [
                    -0.22710958123207092,
                    -0.07474899291992188,
                    0.42574232816696167,
                    -0.2870112955570221
                ]
            },
            "neuron_1": {
                "bias": -0.5574663281440735,
                "weights": [
                    0.30581074953079224,
                    -0.534522533416748,
                    0.5455885529518127,
                    0.6446699500083923
                ]
            },
            "neuron_2": {
                "bias": 0.239457368850708,
                "weights": [
                    0.5176457762718201,
                    0.5299509167671204,
                    0.5045717358589172,
                    -0.46928006410598755
                ]
            },
            "neuron_3": {
                "bias": -0.1343943476676941,
                "weights": [
                    0.41993170976638794,
                    0.25227516889572144,
                    0.13204443454742432,
                    -0.525977373123169
                ]
            }
        },
        "output": {
            "bias": 0.03304851055145264,
            "weights": [
                0.4882504343986511,
                -0.35387736558914185,
                -0.4647938311100006,
                -0.19536423683166504
            ]
        },
        "score": 1
    },
    "chromosome_34": {
        "layer_0": {
            "neuron_0": {
                "bias": -0.3900662064552307,
                "weights": [
                    0.5947151780128479,
                    0.5054780840873718,
                    1.941964030265808
                ]
            },
            "neuron_1": {
                "bias": -0.3138902485370636,
                "weights": [
                    0.474065363407135,
                    0.3297799229621887,
                    0.0777825117111206
                ]
            },
            "neuron_2": {
                "bias": -0.35554367303848267,
                "weights": [
                    0.007455706596374512,
                    0.015915393829345703,
                    0.13413798809051514
                ]
            },
            "neuron_3": {
                "bias": 0.2500106692314148,
                "weights": [
                    0.5476394295692444,
                    -0.04593026638031006,
                    -0.33956417441368103
                ]
            }
        },
        "layer_1": {
            "neuron_0": {
                "bias": 0.5791711211204529,
                "weights": [
                    -0.22710958123207092,
                    -0.07474899291992188,
                    0.42574232816696167,
                    -0.4459196627140045
                ]
            },
            "neuron_1": {
                "bias": 0.1923496127128601,
                "weights": [
                    0.30581074953079224,
                    -0.534522533416748,
                    0.5455885529518127,
                    0.6446699500083923
                ]
            },
            "neuron_2": {
                "bias": 0.239457368850708,
                "weights": [
                    0.5176457762718201,
                    0.5299509167671204,
                    0.5045717358589172,
                    -0.46928006410598755
                ]
            },
            "neuron_3": {
                "bias": -0.1343943476676941,
                "weights": [
                    0.41993170976638794,
                    0.25227516889572144,
                    0.13204443454742432,
                    -0.525977373123169
                ]
            }
        },
        "output": {
            "bias": 0.03304851055145264,
            "weights": [
                0.4882504343986511,
                -0.35387736558914185,
                -0.4647938311100006,
                -0.19536423683166504
            ]
        },
        "score": 46
    },
    "chromosome_35": {
        "layer_0": {
            "neuron_0": {
                "bias": -0.3900662064552307,
                "weights": [
                    0.5947151780128479,
                    0.5054780840873718,
                    1.941964030265808
                ]
            },
            "neuron_1": {
                "bias": -0.3138902485370636,
                "weights": [
                    0.474065363407135,
                    0.3297799229621887,
                    0.0777825117111206
                ]
            },
            "neuron_2": {
                "bias": -0.35554367303848267,
                "weights": [
                    0.007455706596374512,
                    0.015915393829345703,
                    0.13413798809051514
                ]
            },
            "neuron_3": {
                "bias": 0.2500106692314148,
                "weights": [
                    0.5476394295692444,
                    -0.4981544613838196,
                    -0.33956417441368103
                ]
            }
        },
        "layer_1": {
            "neuron_0": {
                "bias": 0.5791711211204529,
                "weights": [
                    -0.22710958123207092,
                    -0.07474899291992188,
                    0.42574232816696167,
                    -0.4459196627140045
                ]
            },
            "neuron_1": {
                "bias": -0.5574663281440735,
                "weights": [
                    0.30581074953079224,
                    -0.534522533416748,
                    0.5455885529518127,
                    0.6446699500083923
                ]
            },
            "neuron_2": {
                "bias": 0.239457368850708,
                "weights": [
                    0.5176457762718201,
                    0.5299509167671204,
                    0.5045717358589172,
                    -0.46928006410598755
                ]
            },
            "neuron_3": {
                "bias": -0.1343943476676941,
                "weights": [
                    0.41993170976638794,
                    0.25227516889572144,
                    0.13204443454742432,
                    -0.525977373123169
                ]
            }
        },
        "output": {
            "bias": 0.03304851055145264,
            "weights": [
                0.4882504343986511,
                -0.35387736558914185,
                -0.4647938311100006,
                0.2704358696937561
            ]
        },
        "score": 1
    },
    "chromosome_36": {
        "layer_0": {
            "neuron_0": {
                "bias": -0.3900662064552307,
                "weights": [
                    0.5947151780128479,
                    0.5054780840873718,
                    1.941964030265808
                ]
            },
            "neuron_1": {
                "bias": -0.3138902485370636,
                "weights": [
                    0.474065363407135,
                    0.5054765343666077,
                    0.0777825117111206
                ]
            },
            "neuron_2": {
                "bias": -0.35554367303848267,
                "weights": [
                    0.007455706596374512,
                    0.015915393829345703,
                    0.13413798809051514
                ]
            },
            "neuron_3": {
                "bias": 0.2500106692314148,
                "weights": [
                    0.5476394295692444,
                    -0.4981544613838196,
                    -0.33956417441368103
                ]
            }
        },
        "layer_1": {
            "neuron_0": {
                "bias": 0.5791711211204529,
                "weights": [
                    -0.22710958123207092,
                    -0.07474899291992188,
                    0.42574232816696167,
                    -0.2870112955570221
                ]
            },
            "neuron_1": {
                "bias": -0.5574663281440735,
                "weights": [
                    0.30581074953079224,
                    -0.534522533416748,
                    0.5455885529518127,
                    0.6446699500083923
                ]
            },
            "neuron_2": {
                "bias": 0.239457368850708,
                "weights": [
                    0.5176457762718201,
                    0.5299509167671204,
                    0.5045717358589172,
                    -0.46928006410598755
                ]
            },
            "neuron_3": {
                "bias": -0.1343943476676941,
                "weights": [
                    0.41993170976638794,
                    0.25227516889572144,
                    0.13204443454742432,
                    -0.525977373123169
                ]
            }
        },
        "output": {
            "bias": 0.03304851055145264,
            "weights": [
                0.4882504343986511,
                -0.35387736558914185,
                -0.4647938311100006,
                -0.19536423683166504
            ]
        },
        "score": 1
    },
    "chromosome_37": {
        "layer_0": {
            "neuron_0": {
                "bias": -0.3900662064552307,
                "weights": [
                    0.5947151780128479,
                    0.5054780840873718,
                    1.941964030265808
                ]
            },
            "neuron_1": {
                "bias": -0.3138902485370636,
                "weights": [
                    0.474065363407135,
                    0.3297799229621887,
                    0.0777825117111206
                ]
            },
            "neuron_2": {
                "bias": -0.35554367303848267,
                "weights": [
                    0.007455706596374512,
                    0.015915393829345703,
                    0.13413798809051514
                ]
            },
            "neuron_3": {
                "bias": 0.2500106692314148,
                "weights": [
                    0.5476394295692444,
                    -0.4981544613838196,
                    -0.33956417441368103
                ]
            }
        },
        "layer_1": {
            "neuron_0": {
                "bias": 0.5791711211204529,
                "weights": [
                    -0.22710958123207092,
                    -0.3159428834915161,
                    0.42574232816696167,
                    -0.4459196627140045
                ]
            },
            "neuron_1": {
                "bias": -0.5574663281440735,
                "weights": [
                    0.30581074953079224,
                    -0.534522533416748,
                    0.5455885529518127,
                    0.6446699500083923
                ]
            },
            "neuron_2": {
                "bias": 0.239457368850708,
                "weights": [
                    0.5176457762718201,
                    0.5299509167671204,
                    0.5045717358589172,
                    -0.46928006410598755
                ]
            },
            "neuron_3": {
                "bias": -0.1343943476676941,
                "weights": [
                    0.41993170976638794,
                    0.25227516889572144,
                    0.13204443454742432,
                    -0.525977373123169
                ]
            }
        },
        "output": {
            "bias": 0.03304851055145264,
            "weights": [
                0.4882504343986511,
                -0.35387736558914185,
                -0.4647938311100006,
                0.2704358696937561
            ]
        },
        "score": 1
    },
    "chromosome_38": {
        "layer_0": {
            "neuron_0": {
                "bias": -0.3900662064552307,
                "weights": [
                    0.5947151780128479,
                    0.5054780840873718,
                    1.941964030265808
                ]
            },
            "neuron_1": {
                "bias": -0.3138902485370636,
                "weights": [
                    0.474065363407135,
                    0.3297799229621887,
                    0.0777825117111206
                ]
            },
            "neuron_2": {
                "bias": -0.35554367303848267,
                "weights": [
                    0.007455706596374512,
                    0.015915393829345703,
                    0.13413798809051514
                ]
            },
            "neuron_3": {
                "bias": 0.2500106692314148,
                "weights": [
                    0.5476394295692444,
                    -0.4981544613838196,
                    -0.33956417441368103
                ]
            }
        },
        "layer_1": {
            "neuron_0": {
                "bias": 0.5791711211204529,
                "weights": [
                    -0.22710958123207092,
                    -0.07474899291992188,
                    0.42574232816696167,
                    -0.4459196627140045
                ]
            },
            "neuron_1": {
                "bias": -0.5574663281440735,
                "weights": [
                    0.30581074953079224,
                    -0.534522533416748,
                    0.5455885529518127,
                    0.6446699500083923
                ]
            },
            "neuron_2": {
                "bias": 0.239457368850708,
                "weights": [
                    0.5176457762718201,
                    0.5299509167671204,
                    0.5045717358589172,
                    -0.46928006410598755
                ]
            },
            "neuron_3": {
                "bias": -0.1343943476676941,
                "weights": [
                    0.41993170976638794,
                    0.25227516889572144,
                    0.13204443454742432,
                    -0.525977373123169
                ]
            }
        },
        "output": {
            "bias": 0.03304851055145264,
            "weights": [
                0.4882504343986511,
                -0.35387736558914185,
                -0.4647938311100006,
                0.2704358696937561
            ]
        },
        "score": 1
    },
    "chromosome_39": {
        "layer_0": {
            "neuron_0": {
                "bias": -0.3900662064552307,
                "weights": [
                    0.5947151780128479,
                    0.5054780840873718,
                    1.941964030265808
                ]
            },
            "neuron_1": {
                "bias": -0.3138902485370636,
                "weights": [
                    0.474065363407135,
                    0.5054765343666077,
                    0.0777825117111206
                ]
            },
            "neuron_2": {
                "bias": -0.35554367303848267,
                "weights": [
                    0.007455706596374512,
                    0.015915393829345703,
                    0.13413798809051514
                ]
            },
            "neuron_3": {
                "bias": 0.2500106692314148,
                "weights": [
                    0.5476394295692444,
                    -0.4981544613838196,
                    -0.33956417441368103
                ]
            }
        },
        "layer_1": {
            "neuron_0": {
                "bias": 0.5791711211204529,
                "weights": [
                    -0.22710958123207092,
                    -0.07474899291992188,
                    0.42574232816696167,
                    -0.2870112955570221
                ]
            },
            "neuron_1": {
                "bias": -0.5574663281440735,
                "weights": [
                    0.30581074953079224,
                    -0.534522533416748,
                    0.5455885529518127,
                    0.6446699500083923
                ]
            },
            "neuron_2": {
                "bias": 0.239457368850708,
                "weights": [
                    0.5176457762718201,
                    0.5299509167671204,
                    0.5045717358589172,
                    -0.46928006410598755
                ]
            },
            "neuron_3": {
                "bias": -0.1343943476676941,
                "weights": [
                    0.41993170976638794,
                    0.25227516889572144,
                    0.13204443454742432,
                    -0.525977373123169
                ]
            }
        },
        "output": {
            "bias": 0.03304851055145264,
            "weights": [
                0.4882504343986511,
                -0.35387736558914185,
                -0.4647938311100006,
                -0.19536423683166504
            ]
        },
        "score": 1
    },
    "chromosome_4": {
        "layer_0": {
            "neuron_0": {
                "bias": -0.3900662064552307,
                "weights": [
                    0.5947151780128479,
                    0.5054780840873718,
                    1.941964030265808
                ]
            },
            "neuron_1": {
                "bias": -0.3138902485370636,
                "weights": [
                    0.474065363407135,
                    0.3297799229621887,
                    0.0777825117111206
                ]
            },
            "neuron_2": {
                "bias": -0.35554367303848267,
                "weights": [
                    0.007455706596374512,
                    -0.2682857811450958,
                    0.13413798809051514
                ]
            },
            "neuron_3": {
                "bias": 0.2500106692314148,
                "weights": [
                    0.5476394295692444,
                    -0.04593026638031006,
                    -0.37292423844337463
                ]
            }
        },
        "layer_1": {
            "neuron_0": {
                "bias": 0.5791711211204529,
                "weights": [
                    -0.22710958123207092,
                    -0.07474899291992188,
                    0.42574232816696167,
                    -0.4459196627140045
                ]
            },
            "neuron_1": {
                "bias": -0.5574663281440735,
                "weights": [
                    0.30581074953079224,
                    -0.6053141951560974,
                    0.5455885529518127,
                    0.6446699500083923
                ]
            },
            "neuron_2": {
                "bias": 0.239457368850708,
                "weights": [
                    0.5176457762718201,
                    0.5299509167671204,
                    0.5045717358589172,
                    -0.46928006410598755
                ]
            },
            "neuron_3": {
                "bias": -0.1343943476676941,
                "weights": [
                    0.41993170976638794,
                    0.25227516889572144,
                    0.13204443454742432,
                    -0.525977373123169
                ]
            }
        },
        "output": {
            "bias": 0.03304851055145264,
            "weights": [
                0.4882504343986511,
                -0.35387736558914185,
                -0.4647938311100006,
                -0.19536423683166504
            ]
        },
        "score": 46
    },
    "chromosome_40": {
        "layer_0": {
            "neuron_0": {
                "bias": -0.3900662064552307,
                "weights": [
                    0.5947151780128479,
                    0.5054780840873718,
                    1.941964030265808
                ]
            },
            "neuron_1": {
                "bias": -0.3138902485370636,
                "weights": [
                    0.474065363407135,
                    0.3297799229621887,
                    0.0777825117111206
                ]
            },
            "neuron_2": {
                "bias": -0.35554367303848267,
                "weights": [
                    0.007455706596374512,
                    0.015915393829345703,
                    0.13413798809051514
                ]
            },
            "neuron_3": {
                "bias": 0.2500106692314148,
                "weights": [
                    0.6704297065734863,
                    -0.4981544613838196,
                    -0.33956417441368103
                ]
            }
        },
        "layer_1": {
            "neuron_0": {
                "bias": 0.5791711211204529,
                "weights": [
                    -0.22710958123207092,
                    -0.3159428834915161,
                    0.42574232816696167,
                    -0.4459196627140045
                ]
            },
            "neuron_1": {
                "bias": -0.5574663281440735,
                "weights": [
                    0.30581074953079224,
                    -0.534522533416748,
                    0.5455885529518127,
                    0.6446699500083923
                ]
            },
            "neuron_2": {
                "bias": 0.239457368850708,
                "weights": [
                    0.5176457762718201,
                    0.5299509167671204,
                    0.5045717358589172,
                    -0.46928006410598755
                ]
            },
            "neuron_3": {
                "bias": -0.1343943476676941,
                "weights": [
                    0.41993170976638794,
                    0.25227516889572144,
                    0.13204443454742432,
                    -0.525977373123169
                ]
            }
        },
        "output": {
            "bias": 0.03304851055145264,
            "weights": [
                0.4882504343986511,
                -0.35387736558914185,
                -0.4647938311100006,
                0.2704358696937561
            ]
        },
        "score": 1
    },
    "chromosome_41": {
        "layer_0": {
            "neuron_0": {
                "bias": -0.3900662064552307,
                "weights": [
                    0.5947151780128479,
                    0.5054780840873718,
                    1.941964030265808
                ]
            },
            "neuron_1": {
                "bias": -0.3858092725276947,
                "weights": [
                    0.474065363407135,
                    0.3297799229621887,
                    0.0777825117111206
                ]
            },
            "neuron_2": {
                "bias": -0.35554367303848267,
                "weights": [
                    0.007455706596374512,
                    0.015915393829345703,
                    0.13413798809051514
                ]
            },
            "neuron_3": {
                "bias": 0.2500106692314148,
                "weights": [
                    0.6704297065734863,
                    -0.4981544613838196,
                    -0.33956417441368103
                ]
            }
        },
        "layer_1": {
            "neuron_0": {
                "bias": 0.5791711211204529,
                "weights": [
                    -0.22710958123207092,
                    -0.07474899291992188,
                    0.42574232816696167,
                    -0.4459196627140045
                ]
            },
            "neuron_1": {
                "bias": -0.5574663281440735,
                "weights": [
                    0.30581074953079224,
                    -0.534522533416748,
                    0.5455885529518127,
                    0.6446699500083923
                ]
            },
            "neuron_2": {
                "bias": 0.239457368850708,
                "weights": [
                    0.5176457762718201,
                    0.5299509167671204,
                    0.5045717358589172,
                    -0.9063152074813843
                ]
            },
            "neuron_3": {
                "bias": -0.1343943476676941,
                "weights": [
                    0.41993170976638794,
                    0.25227516889572144,
                    0.13204443454742432,
                    -0.525977373123169
                ]
            }
        },
        "output": {
            "bias": 0.03304851055145264,
            "weights": [
                0.4882504343986511,
                -0.35387736558914185,
                -0.4647938311100006,
                0.2704358696937561
            ]
        },
        "score": 5
    },
    "chromosome_42": {
        "layer_0": {
            "neuron_0": {
                "bias": -0.3900662064552307,
                "weights": [
                    0.5947151780128479,
                    0.5054780840873718,
                    1.941964030265808
                ]
            },
            "neuron_1": {
                "bias": -0.3138902485370636,
                "weights": [
                    0.474065363407135,
                    0.5054765343666077,
                    0.0777825117111206
                ]
            },
            "neuron_2": {
                "bias": -0.35554367303848267,
                "weights": [
                    0.007455706596374512,
                    0.015915393829345703,
                    0.13413798809051514
                ]
            },
            "neuron_3": {
                "bias": 0.2500106692314148,
                "weights": [
                    0.6704297065734863,
                    -0.4981544613838196,
                    -0.33956417441368103
                ]
            }
        },
        "layer_1": {
            "neuron_0": {
                "bias": 0.5791711211204529,
                "weights": [
                    -0.22710958123207092,
                    -0.07474899291992188,
                    0.42574232816696167,
                    -0.2870112955570221
                ]
            },
            "neuron_1": {
                "bias": -0.5574663281440735,
                "weights": [
                    0.30581074953079224,
                    -0.534522533416748,
                    0.5455885529518127,
                    0.6446699500083923
                ]
            },
            "neuron_2": {
                "bias": 0.239457368850708,
                "weights": [
                    0.5176457762718201,
                    0.5299509167671204,
                    0.5045717358589172,
                    -0.46928006410598755
                ]
            },
            "neuron_3": {
                "bias": -0.1343943476676941,
                "weights": [
                    0.41993170976638794,
                    0.25227516889572144,
                    0.13204443454742432,
                    -0.525977373123169
                ]
            }
        },
        "output": {
            "bias": 0.03304851055145264,
            "weights": [
                0.4882504343986511,
                -0.35387736558914185,
                -0.4647938311100006,
                -0.19536423683166504
            ]
        },
        "score": 1
    },
    "chromosome_43": {
        "layer_0": {
            "neuron_0": {
                "bias": -0.3900662064552307,
                "weights": [
                    1.25193190574646,
                    0.5054780840873718,
                    1.941964030265808
                ]
            },
            "neuron_1": {
                "bias": -0.3138902485370636,
                "weights": [
                    0.474065363407135,
                    0.5054765343666077,
                    0.0777825117111206
                ]
            },
            "neuron_2": {
                "bias": -0.35554367303848267,
                "weights": [
                    0.007455706596374512,
                    0.015915393829345703,
                    0.13413798809051514
                ]
            },
            "neuron_3": {
                "bias": 0.2500106692314148,
                "weights": [
                    0.6704297065734863,
                    -0.4981544613838196,
                    -0.33956417441368103
                ]
            }
        },
        "layer_1": {
            "neuron_0": {
                "bias": 0.5791711211204529,
                "weights": [
                    -0.22710958123207092,
                    -0.07474899291992188,
                    0.42574232816696167,
                    -0.2870112955570221
                ]
            },
            "neuron_1": {
                "bias": -0.5574663281440735,
                "weights": [
                    0.30581074953079224,
                    -0.534522533416748,
                    0.5455885529518127,
                    0.6446699500083923
                ]
            },
            "neuron_2": {
                "bias": 0.239457368850708,
                "weights": [
                    0.5176457762718201,
                    0.5299509167671204,
                    0.5045717358589172,
                    -0.46928006410598755
                ]
            },
            "neuron_3": {
                "bias": -0.1343943476676941,
                "weights": [
                    0.41993170976638794,
                    0.25227516889572144,
                    0.13204443454742432,
                    -0.525977373123169
                ]
            }
        },
        "output": {
            "bias": 0.03304851055145264,
            "weights": [
                0.4882504343986511,
                -0.35387736558914185,
                -0.4647938311100006,
                -0.19536423683166504
            ]
        },
        "score": 1
    },
    "chromosome_44": {
        "layer_0": {
            "neuron_0": {
                "bias": -0.3900662064552307,
                "weights": [
